tree
version=v4
num_class=1
num_tree_per_iteration=1
label_index=0
max_feature_idx=17
objective=quantile
feature_names=month dow is_holiday is_after_holiday week_of_month hour minute total_outpatient rain temp is_晴 is_曇 is_雨 is_雪 stat_arr_mean actual_arrivals daily_cum_arrivals stat_wait_p90
feature_infos=[1:12] [0:6] [0:1] [0:1] [1:5] none none [2:1699] none none none none none none [0:16.918604651162791] [0:29] [0:521] [0:6.9769641495041945]
tree_sizes=938 996 999 1001 994 995 995 914 1086 1000 1159 1085 1075 917 915 1093 1156 1158 1159 833 1252 835 1256 837 837 759 765 759 758 756 922 762 843 756 677 673 676 840 676 747 1168 763 1078 1167 674 680 675 680 1077 1012 682 1009 760 928 680 676 1184 1260 759 755 755 677 757 840 759 766 909 762 847 676 764 759 758 754 1011 763 839 760 760 764 912 1092 760 929 843 992 847 930 1174 845 1002 1008 843 1007 920 998 994 1007 835 1011 1002 848 672 930 1183 1006 927 840 1002 910 837 930 927 1253 931 764 846 853 856 857 772 857 852 854 1101 1188 1195 1184 925 1001 1083 919 929 1177 1096 1179 1093 836 836 682 997 755 927 1094 1352 1186 930 1093 999 917 1001 1083 1016 928 841 929 930 931 929 1012 1083 1172 1083 680 1013 847 1017 1002 765 1014 840 1003 1180 1189 1175 680 920 924 921 919 917 835 1011 1011 763 759 847 926 845 764 927 1103 764 763 1009 1018 1103 845 845 762 1189 842 1189 1014 932 840 841 835 1015 1097 1018 762 1100 850 848 763 1105 918 1183 832 834 848 1264 750 1015 1095 1098 1014 839 1005 1008 1097 918 764 764 850 837 1108 926 850 849 847 1020 927 838 1013 841 762 927 1176 1185 765 851 758 928 846 930 762 765 677 842 1177 1087 1022 1252 1103 1022 1082 1184 1189 1011 1017 1102 1012 923 1090 1015 932 928 924 933 1024 932 934 930 1188 1103 1104 1100 1275 1183 1363 1280 1193 1192 1180 1360 1361 941 1023 1286 1024 1289 1024 1024 939 1020 1106 1190 932 1018 1271 1110 1100 1105 929 1015 940 1020 1092 1185 1011 837 1003 677 1017 1179 1190 852 942 1024 1107 854 1105 936 1017 1016 1280 939 938 1025 926 1031 1103 1105 1014 1105 1375 1118 1208 1111 1017 1187 1108 936 765 1016 1275 1190 1111 1103 1099 1099 1012 1099 1190 1181 933 1184 924 1179 1182 920 1103 1100 1100 925 1103 1086 1085 1016 1021 1105 1261 1020 927 756 1191 1022 1021 1021 935 678 845 928 760 1101 1101 1089 760

Tree=0
num_leaves=10
num_cat=0
split_feature=15 0 15 0 3 7 16 4 7
split_gain=9.11018 1.3543 0.916124 1.23282 1.01587 0.502976 0.285925 0.265263 0.15622
threshold=17.500000000000004 3.5000000000000004 1.0000000180025095e-35 3.5000000000000004 1.0000000180025095e-35 1376.5000000000002 389.50000000000006 3.5000000000000004 1399.0000000000002
decision_type=2 2 2 2 2 2 2 2 2
left_child=2 -2 -1 4 8 -3 7 -5 -4
right_child=1 5 3 6 -6 -7 -8 -9 -10
leaf_value=4.9934111356735231 5.4351639870753612 5.3754018615549288 5.2453381086508442 5.2459454072801348 5.3567444597591019 5.3984365641775813 5.2220111285686528 5.2257143811688449 5.2965790017158554
leaf_weight=199 31 21 43 107 21 27 78 56 20
leaf_count=199 31 21 43 107 21 27 78 56 20
internal_value=5.25628 5.27211 5.25389 5.25553 5.26075 5.26685 5.25371 5.2549 5.25757
internal_weight=603 79 524 325 84 48 241 163 63
internal_count=603 79 524 325 84 48 241 163 63
is_linear=0
shrinkage=1


Tree=1
num_leaves=10
num_cat=0
split_feature=15 0 15 0 0 7 16 4 1
split_gain=8.76671 1.57292 0.730329 0.686338 0.524309 0.297619 0.285925 0.265263 0.257287
threshold=17.500000000000004 3.5000000000000004 1.0000000180025095e-35 3.5000000000000004 2.5000000000000004 1376.5000000000002 389.50000000000006 3.5000000000000004 2.5000000000000004
decision_type=2 2 2 2 2 2 2 2 2
left_child=2 -2 -1 4 8 -3 7 -5 -4
right_child=1 5 3 6 -6 -7 -8 -9 -10
leaf_value=-0.24967055678367617 0.16999465204807054 0.11322063280365909 -0.0037170640764651614 -0.0097629987573947044 0.069974955436882591 0.13510360029517895 -0.032500563533302794 -0.028982473563120115 0.0306775245544634
leaf_weight=199 31 21 30 107 31 27 78 56 23
leaf_count=199 31 21 30 107 31 27 78 56 23
internal_value=-0.000273633 0.0152532 -0.00261451 -0.00115385 0.00273809 0.00958333 -0.00251037 -0.00131902 -0.00028302
internal_weight=603 79 524 325 84 48 241 163 53
internal_count=603 79 524 325 84 48 241 163 53
is_linear=0
shrinkage=0.05


Tree=2
num_leaves=10
num_cat=0
split_feature=15 16 15 0 0 0 16 4 1
split_gain=7.08643 1.26206 0.673071 0.656956 0.539488 0.338058 0.285925 0.265263 0.257287
threshold=17.500000000000004 401.50000000000006 1.0000000180025095e-35 3.5000000000000004 3.5000000000000004 2.5000000000000004 389.50000000000006 3.5000000000000004 2.5000000000000004
decision_type=2 2 2 2 2 2 2 2 2
left_child=2 -2 -1 -3 5 8 7 -6 -4
right_child=1 3 4 -5 6 -7 -8 -9 -10
leaf_value=-0.23718702894449237 0.019862483060089489 0.15182414843030467 -0.0035312108726419118 0.13702605578856689 -0.0092748488195249831 0.066476207665038464 -0.030875535356637673 -0.027533349884964101 0.029143648326740212
leaf_weight=199 20 27 30 32 107 31 78 56 23
leaf_count=199 20 27 30 32 107 31 78 56 23
internal_value=-0.000605308 0.0133544 -0.00270992 0.0170339 -0.00130769 0.00214286 -0.00251037 -0.00131902 -0.00028302
internal_weight=603 79 524 59 325 84 241 163 53
internal_count=603 79 524 59 325 84 241 163 53
is_linear=0
shrinkage=0.05


Tree=3
num_leaves=10
num_cat=0
split_feature=15 16 15 0 16 0 16 4 1
split_gain=5.51026 1.13283 0.673071 0.539488 0.385965 0.338058 0.285925 0.265263 0.257287
threshold=17.500000000000004 406.50000000000006 1.0000000180025095e-35 3.5000000000000004 445.50000000000006 2.5000000000000004 389.50000000000006 3.5000000000000004 2.5000000000000004
decision_type=2 2 2 2 2 2 2 2 2
left_child=2 -2 -1 5 -3 8 7 -5 -4
right_child=1 4 3 6 -6 -7 -8 -9 -10
leaf_value=-0.22532767749726773 0.0069642137589855423 0.12566987390342405 -0.0033546503290098244 -0.0088111063785487175 0.14906832843788048 0.063152397281786524 -0.029331758588805813 -0.026156682390715915 0.027686465910403205
leaf_weight=199 22 33 30 107 24 31 78 56 23
leaf_count=199 22 33 30 107 24 31 78 56 23
internal_value=-0.000854064 0.0114557 -0.00270992 -0.00130769 0.0151754 0.00214286 -0.00251037 -0.00131902 -0.00028302
internal_weight=603 79 524 325 57 84 241 163 53
internal_count=603 79 524 325 57 84 241 163 53
is_linear=0
shrinkage=0.05


Tree=4
num_leaves=10
num_cat=0
split_feature=15 16 15 0 16 0 1 16 4
split_gain=5.36279 1.13283 0.789924 0.447564 0.385965 0.338058 0.257287 0.240485 0.34718
threshold=17.500000000000004 406.50000000000006 1.0000000180025095e-35 3.5000000000000004 445.50000000000006 2.5000000000000004 2.5000000000000004 401.50000000000006 2.5000000000000004
decision_type=2 2 2 2 2 2 2 2 2
left_child=2 -2 -1 5 -3 6 -4 8 -5
right_child=1 4 3 7 -6 -7 -8 -9 -10
leaf_value=-0.21406129362240434 0.0066160030710362625 0.11938638020825286 -0.0031869178125593215 0.00084210274022799994 0.14161491201598647 0.059994777417697188 0.026302142614883062 -0.03004978722324041 -0.031411375653500252
leaf_weight=199 22 33 30 80 24 31 23 55 106
leaf_count=199 22 33 30 80 24 31 23 55 106
internal_value=-0.000688227 0.0114557 -0.00251909 -0.001 0.0151754 0.00214286 -0.00028302 -0.00209544 -0.00123656
internal_weight=603 79 524 325 57 84 53 241 186
internal_count=603 79 524 325 57 84 53 241 186
is_linear=0
shrinkage=0.05


Tree=5
num_leaves=10
num_cat=0
split_feature=15 16 15 0 16 0 1 16 4
split_gain=5.36279 1.13283 0.789924 0.447564 0.385965 0.338058 0.257287 0.240485 0.34718
threshold=17.500000000000004 406.50000000000006 1.0000000180025095e-35 3.5000000000000004 445.50000000000006 2.5000000000000004 2.5000000000000004 401.50000000000006 2.5000000000000004
decision_type=2 2 2 2 2 2 2 2 2
left_child=2 -2 -1 5 -3 6 -4 8 -5
right_child=1 4 3 7 -6 -7 -8 -9 -10
leaf_value=-0.20335822894128408 0.0062852029174844601 0.11341706119784022 -0.0030275719219313396 0.00079999760321658323 0.13453416641518712 0.056995038546812343 0.024987035484138921 -0.028547297862078394 -0.029840806870825222
leaf_weight=199 22 33 30 80 24 31 23 55 106
leaf_count=199 22 33 30 80 24 31 23 55 106
internal_value=-0.000688227 0.0114557 -0.00251909 -0.001 0.0151754 0.00214286 -0.00028302 -0.00209544 -0.00123656
internal_weight=603 79 524 325 57 84 53 241 186
internal_count=603 79 524 325 57 84 53 241 186
is_linear=0
shrinkage=0.05


Tree=6
num_leaves=10
num_cat=0
split_feature=15 16 15 0 16 0 1 16 4
split_gain=5.36279 1.13283 0.789924 0.447564 0.385965 0.338058 0.257287 0.240485 0.34718
threshold=17.500000000000004 406.50000000000006 1.0000000180025095e-35 3.5000000000000004 445.50000000000006 2.5000000000000004 2.5000000000000004 401.50000000000006 2.5000000000000004
decision_type=2 2 2 2 2 2 2 2 2
left_child=2 -2 -1 5 -3 6 -4 8 -5
right_child=1 4 3 7 -6 -7 -8 -9 -10
leaf_value=-0.19319031749421989 0.0059709427716102262 0.10774620813794822 -0.0028761933258347654 0.00075999772305574841 0.12780745809442778 0.054145286619471711 0.023737683709931991 -0.027119932968974459 -0.028348766527283954
leaf_weight=199 22 33 30 80 24 31 23 55 106
leaf_count=199 22 33 30 80 24 31 23 55 106
internal_value=-0.000688227 0.0114557 -0.00251909 -0.001 0.0151754 0.00214286 -0.00028302 -0.00209544 -0.00123656
internal_weight=603 79 524 325 57 84 53 241 186
internal_count=603 79 524 325 57 84 53 241 186
is_linear=0
shrinkage=0.05


Tree=7
num_leaves=9
num_cat=0
split_feature=15 16 15 15 16 16 1 0
split_gain=5.36279 1.13283 0.789924 0.386249 0.493089 0.385965 0.276866 0.0334495
threshold=17.500000000000004 406.50000000000006 1.0000000180025095e-35 15.500000000000002 293.00000000000006 445.50000000000006 1.5000000000000002 5.5000000000000009
decision_type=2 2 2 2 2 2 2 2
left_child=2 -2 -1 4 -4 -3 -6 -5
right_child=1 5 3 7 6 -7 -8 -9
leaf_value=-0.18353080161950888 0.0056723956330296966 0.10235889773105081 0.02255079459049485 0.052608031752687225 -0.0012811250803595354 0.12141708518970638 -0.036268899794714808 0.00052257763467419393
leaf_weight=199 22 33 33 20 113 24 138 21
leaf_count=199 22 33 33 20 113 24 138 21
internal_value=-0.000688227 0.0114557 -0.00251909 -0.001 -0.00165493 0.0151754 -0.00241036 0.00353658
internal_weight=603 79 524 325 284 57 251 41
internal_count=603 79 524 325 284 57 251 41
is_linear=0
shrinkage=0.05


Tree=8
num_leaves=11
num_cat=0
split_feature=15 15 0 0 15 0 16 1 15 4
split_gain=4.52306 1.25805 0.764195 0.73498 0.580293 0.493355 0.463335 0.220021 0.249633 0.0586863
threshold=15.500000000000002 19.500000000000004 8.5000000000000018 3.5000000000000004 1.0000000180025095e-35 5.5000000000000009 293.00000000000006 1.5000000000000002 10.500000000000002 1.5000000000000002
decision_type=2 2 2 2 2 2 2 2 2 2
left_child=4 2 3 -2 -1 -3 -6 8 -8 -9
right_child=1 5 -4 -5 6 -7 7 9 -10 -11
leaf_value=-0.17435426153853345 0.058167666170107039 0.14545982262238341 0.075399577799351539 -0.026143814795681071 0.021423254860970121 0.11379395480726187 -0.046986980186373033 -0.021049733374058285 0.013179261123211376 -0.045669206425280995
leaf_weight=199 23 22 20 34 33 21 40 29 73 109
leaf_count=199 23 22 20 34 33 21 40 29 73 109
internal_value=-0.000771145 0.00791667 0.00409091 0.00114035 -0.00292961 0.0147674 -0.00147887 -0.00221116 -0.000575222 -0.00355073
internal_weight=603 120 77 57 483 43 284 251 113 138
internal_count=603 120 77 57 483 43 284 251 113 138
is_linear=0
shrinkage=0.05


Tree=9
num_leaves=10
num_cat=0
split_feature=15 16 15 0 0 0 16 0 1
split_gain=3.65598 0.878072 0.730329 0.492454 0.409929 0.338058 0.335565 0.357164 0.257287
threshold=17.500000000000004 435.00000000000006 1.0000000180025095e-35 3.5000000000000004 6.5000000000000009 2.5000000000000004 389.50000000000006 8.5000000000000018 2.5000000000000004
decision_type=2 2 2 2 2 2 2 2 2
left_child=2 4 -1 5 -2 8 7 -5 -4
right_child=1 -3 3 6 -6 -7 -8 -9 -10
leaf_value=-0.16563654846160678 0.0049680050658134946 0.11158890100768962 -0.0071964893026516125 -0.028225598929476937 0.12325408427754617 0.045899240928495635 -0.023482770144034652 0.037387148342121083 0.020352097051862163
leaf_weight=199 27 32 30 118 20 31 78 45 23
leaf_count=199 27 32 30 118 20 31 78 45 23
internal_value=-0.00110282 0.00892405 -0.00261451 -0.00115385 0.00457447 0.00214286 -0.00230291 -0.00101227 -0.00028302
internal_weight=603 79 524 325 47 84 241 163 53
internal_count=603 79 524 325 47 84 241 163 53
is_linear=0
shrinkage=0.05


Tree=10
num_leaves=12
num_cat=0
split_feature=15 16 1 4 7 16 7 4 16 0 7
split_gain=3.31329 1.06206 0.537286 0.418846 0.349091 0.224015 0.324216 0.523775 0.171356 0.034375 0.025
threshold=15.500000000000002 418.50000000000006 3.5000000000000004 2.5000000000000004 1471.5000000000002 394.50000000000006 1290.5000000000002 3.5000000000000004 293.00000000000006 3.5000000000000004 1342.5000000000002
decision_type=2 2 2 2 2 2 2 2 2 2 2
left_child=2 3 5 -2 -3 6 8 -8 -1 -7 -5
right_child=1 4 -4 10 -6 9 7 -9 -10 -11 -12
leaf_value=-0.01204569753898295 0.054849729822291873 0.1003872399226842 -0.13046991039614589 -6.3366978564266541e-05 0.10205028570355226 -0.0028495281031915899 0.074437057986734709 -0.050885436823912417 -0.024499292200315298 -0.035857201924758053 -0.0066888793812405409
leaf_weight=57 25 30 202 20 25 20 29 24 107 44 20
leaf_count=57 25 30 202 20 25 20 29 24 107 44 20
internal_value=-0.00118574 0.00625 -0.00303313 0.00192308 0.0113636 -0.00161922 -0.000852536 0.00254717 -0.00195122 -0.00421875 -0.00125
internal_weight=603 120 483 65 55 281 217 53 164 64 40
internal_count=603 120 483 65 55 281 217 53 164 64 40
is_linear=0
shrinkage=0.05


Tree=11
num_leaves=11
num_cat=0
split_feature=15 16 15 15 16 4 1 15 4 7
split_gain=3.02254 0.867366 0.545455 0.523715 0.493089 0.418846 0.159449 0.207277 0.0586863 0.025
threshold=15.500000000000002 418.50000000000006 19.500000000000004 1.0000000180025095e-35 293.00000000000006 2.5000000000000004 1.5000000000000002 13.500000000000002 1.5000000000000002 1342.5000000000002
decision_type=2 2 2 2 2 2 2 2 2 2
left_child=3 5 -3 -1 -5 -2 7 -6 -8 -7
right_child=1 2 -4 4 6 9 8 -9 -10 -11
leaf_value=-0.15083122551871914 0.052107243331177257 0.029906112732020845 0.1849993481301454 0.019936772142277626 -0.016516441498305046 -6.0198629636071256e-05 -0.016522471384054171 0.047698685167616085 -0.042289042127640016 -0.006354435412178526
leaf_weight=199 25 25 30 33 88 20 29 25 109 20
leaf_count=199 25 25 30 33 88 20 29 25 109 20
internal_value=-0.00126866 0.00583333 0.0104545 -0.00303313 -0.00165493 0.00192308 -0.00241036 -0.0010177 -0.00355073 -0.00125
internal_weight=603 120 55 483 284 65 251 113 138 40
internal_count=603 120 55 483 284 65 251 113 138 40
is_linear=0
shrinkage=0.05


Tree=12
num_leaves=11
num_cat=0
split_feature=15 0 0 15 16 7 1 15 7 4
split_gain=2.23037 0.704167 0.990635 0.523715 0.493089 0.4 0.159449 0.207277 0.144014 0.0586863
threshold=15.500000000000002 3.5000000000000004 9.5000000000000018 1.0000000180025095e-35 293.00000000000006 1441.5000000000002 1.5000000000000002 13.500000000000002 1347.5000000000002 1.5000000000000002
decision_type=2 2 2 2 2 2 2 2 2 2
left_child=3 5 8 -1 -5 -2 7 -6 -3 -8
right_child=1 2 -4 4 6 -7 9 -9 -10 -11
leaf_value=-0.14328966424278319 0.019203489307062893 0.037493471829646505 0.084480586525855883 0.018939933535163746 -0.015690619423389809 0.095785385519634988 -0.015696347814851443 0.045313750909235263 -0.04161237447946186 -0.040174590021258005
leaf_weight=199 20 23 22 33 88 20 29 25 35 109
leaf_count=199 20 23 22 33 88 20 29 25 35 109
internal_value=-0.00151741 0.00458333 0.001875 -0.00303313 -0.00165493 0.01 -0.00241036 -0.0010177 -0.00155173 -0.00355073
internal_weight=603 120 80 483 284 40 251 113 58 138
internal_count=603 120 80 483 284 40 251 113 58 138
is_linear=0
shrinkage=0.05


Tree=13
num_leaves=9
num_cat=0
split_feature=15 15 16 15 7 1 0 7
split_gain=2.40059 1.00799 0.492887 0.464133 0.391507 0.357043 0.161664 0.0952381
threshold=19.500000000000004 1.0000000180025095e-35 301.00000000000006 15.500000000000002 1434.0000000000002 3.5000000000000004 9.5000000000000018 1075.5000000000002
decision_type=2 2 2 2 2 2 2 2
left_child=1 -1 7 6 -2 -5 -4 -3
right_child=4 2 3 5 -6 -7 -8 -9
leaf_value=-0.13612518103064403 0.01099690282059136 0.0014373712616864965 -0.019757925180043795 -0.0059726980505184577 0.2112124145226992 0.045023952069449542 0.0044184196088658248 0.0018267122968399947
leaf_weight=199 20 21 208 46 23 31 34 21
leaf_count=199 20 21 208 46 23 31 34 21
internal_value=-0.00126866 -0.00214286 -0.000567868 -0.00123825 0.0101163 0.00214286 -0.00231405 0.00452381
internal_weight=603 560 361 319 43 77 242 42
internal_count=603 560 361 319 43 77 242 42
is_linear=0
shrinkage=0.05


Tree=14
num_leaves=9
num_cat=0
split_feature=15 15 16 15 7 1 0 7
split_gain=2.40059 1.00799 0.492887 0.464133 0.391507 0.357043 0.161664 0.0952381
threshold=19.500000000000004 1.0000000180025095e-35 301.00000000000006 15.500000000000002 1434.0000000000002 3.5000000000000004 9.5000000000000018 1075.5000000000002
decision_type=2 2 2 2 2 2 2 2
left_child=1 -1 7 6 -2 -5 -4 -3
right_child=4 2 3 5 -6 -7 -8 -9
leaf_value=-0.12931892197911182 0.0104470576795618 0.0013655026986021757 -0.018770028921041598 -0.005674063147992528 0.20065179379656423 0.042772754465977066 0.004197498628422518 0.0017353766819980139
leaf_weight=199 20 21 208 46 23 31 34 21
leaf_count=199 20 21 208 46 23 31 34 21
internal_value=-0.00126866 -0.00214286 -0.000567868 -0.00123825 0.0101163 0.00214286 -0.00231405 0.00452381
internal_weight=603 560 361 319 43 77 242 42
internal_count=603 560 361 319 43 77 242 42
is_linear=0
shrinkage=0.05


Tree=15
num_leaves=11
num_cat=0
split_feature=15 15 16 15 0 0 1 15 7 4
split_gain=1.82479 0.702155 0.629502 0.544444 0.78997 0.410055 0.213121 0.24974 0.0952381 0.0595547
threshold=15.500000000000002 1.0000000180025095e-35 301.00000000000006 20.500000000000004 8.5000000000000018 4.5000000000000009 1.5000000000000002 10.500000000000002 1075.5000000000002 1.5000000000000002
decision_type=2 2 2 2 2 2 2 2 2 2
left_child=1 -1 8 4 5 -2 7 -4 -3 -8
right_child=3 2 6 -5 -6 -7 9 -9 -10 -11
leaf_value=-0.12285297588015623 0.036024886170016403 0.0012972275636720465 -0.038637840198906245 0.10414328014665686 0.073807631823609721 -0.033851438350540712 -0.014058699323772628 0.011972976106037134 0.0016486078478981322 -0.039911864614493177
leaf_weight=199 38 21 39 30 23 29 28 72 21 103
leaf_count=199 38 21 39 30 23 29 28 72 21 103
internal_value=-0.00135158 -0.00272257 -0.00112676 0.00416667 0.00222222 -0.000522389 -0.00210744 -0.000495497 0.00452381 -0.00347328
internal_weight=603 483 284 120 90 67 242 111 42 131
internal_count=603 483 284 120 90 67 242 111 42 131
is_linear=0
shrinkage=0.05


Tree=16
num_leaves=12
num_cat=0
split_feature=15 0 0 16 16 0 16 15 15 7 7
split_gain=1.54344 0.55547 0.720433 0.675 0.471148 0.409607 0.345059 0.225 0.115097 0.100769 0.043672
threshold=7.5000000000000009 9.5000000000000018 3.5000000000000004 353.50000000000006 435.00000000000006 2.5000000000000004 353.50000000000006 15.500000000000002 19.500000000000004 1059.5000000000002 1141.5000000000002
decision_type=2 2 2 2 2 2 2 2 2 2 2
left_child=9 2 4 -3 5 -2 10 -5 -8 -1 -4
right_child=1 3 6 7 -6 -7 8 -9 -10 -11 -12
leaf_value=-0.11671032708614842 -0.0086592558444056975 -0.017722451244376151 -0.0278573803856173 0.051701306858462373 0.065195741820357214 0.034257609010648497 -0.030073612642975447 0.076915920616243583 0.01166711570453105 -0.046441959070104177 0.00010508325246870502
leaf_weight=203 53 20 24 20 20 32 113 20 20 34 44
leaf_count=203 53 20 24 20 20 32 113 20 20 34 44
internal_value=-0.0014345 0.000601092 -0.000261439 0.005 0.00309524 0.00147059 -0.00201493 0.00875 -0.00349624 -0.00457806 0.000882352
internal_weight=603 366 306 60 105 85 201 40 133 237 68
internal_count=603 366 306 60 105 85 201 40 133 237 68
is_linear=0
shrinkage=0.05


Tree=17
num_leaves=12
num_cat=0
split_feature=15 0 0 16 16 0 16 15 15 7 7
split_gain=1.54344 0.55547 0.720433 0.675 0.471148 0.409607 0.345059 0.225 0.115097 0.100769 0.043672
threshold=7.5000000000000009 9.5000000000000018 3.5000000000000004 353.50000000000006 435.00000000000006 2.5000000000000004 353.50000000000006 15.500000000000002 19.500000000000004 1059.5000000000002 1141.5000000000002
decision_type=2 2 2 2 2 2 2 2 2 2 2
left_child=9 2 4 -3 5 -2 10 -5 -8 -1 -4
right_child=1 3 6 7 -6 -7 8 -9 -10 -11 -12
leaf_value=-0.11087481073184101 -0.0082262930521854044 -0.016836328682157346 -0.026464511366336436 0.049116241515539248 0.061935954729339354 0.03254472856011608 -0.028569932010826683 0.073070124585431426 0.011083759919304482 -0.044119861116598977 9.9829089845280205e-05
leaf_weight=203 53 20 24 20 20 32 113 20 20 34 44
leaf_count=203 53 20 24 20 20 32 113 20 20 34 44
internal_value=-0.0014345 0.000601092 -0.000261439 0.005 0.00309524 0.00147059 -0.00201493 0.00875 -0.00349624 -0.00457806 0.000882352
internal_weight=603 366 306 60 105 85 201 40 133 237 68
internal_count=603 366 306 60 105 85 201 40 133 237 68
is_linear=0
shrinkage=0.05


Tree=18
num_leaves=12
num_cat=0
split_feature=15 0 0 16 16 0 16 15 15 7 7
split_gain=1.54344 0.55547 0.720433 0.675 0.471148 0.409607 0.345059 0.225 0.115097 0.100769 0.043672
threshold=7.5000000000000009 9.5000000000000018 3.5000000000000004 353.50000000000006 435.00000000000006 2.5000000000000004 353.50000000000006 15.500000000000002 19.500000000000004 1059.5000000000002 1141.5000000000002
decision_type=2 2 2 2 2 2 2 2 2 2 2
left_child=9 2 4 -3 5 -2 10 -5 -8 -1 -4
right_child=1 3 6 7 -6 -7 8 -9 -10 -11 -12
leaf_value=-0.10533107019524895 -0.0078149783995761207 -0.015994512248049469 -0.025141285798019605 0.046660429439762306 0.058839156992872392 0.030917492132110286 -0.027141435410285342 0.069416618356159851 0.010529571923339254 -0.041913868060769043 9.4837635353015533e-05
leaf_weight=203 53 20 24 20 20 32 113 20 20 34 44
leaf_count=203 53 20 24 20 20 32 113 20 20 34 44
internal_value=-0.0014345 0.000601092 -0.000261439 0.005 0.00309524 0.00147059 -0.00201493 0.00875 -0.00349624 -0.00457806 0.000882352
internal_weight=603 366 306 60 105 85 201 40 133 237 68
internal_count=603 366 306 60 105 85 201 40 133 237 68
is_linear=0
shrinkage=0.05


Tree=19
num_leaves=8
num_cat=0
split_feature=15 7 16 0 7 0 7
split_gain=1.46309 0.563895 0.487539 0.42254 0.461092 0.280229 0.100769
threshold=7.5000000000000009 1536.5000000000002 301.00000000000006 9.5000000000000018 1290.5000000000002 1.5000000000000002 1059.5000000000002
decision_type=2 2 2 2 2 2 2
left_child=6 2 -2 5 -5 -4 -1
right_child=1 -3 3 4 -6 -7 -8
leaf_value=-0.10006451668548651 0.0032806287480850074 0.062025497698408871 0.040321702155564049 -0.015194786635646999 0.062078281386858059 -0.015638919538644987 -0.039818174657730583
leaf_weight=203 26 23 31 20 33 233 34
leaf_count=203 26 23 31 20 33 233 34
internal_value=-0.00151741 0.00046448 -4.3733e-05 -0.000583597 0.00349056 -0.00140152 -0.00457806
internal_weight=603 366 343 317 53 264 237
internal_count=603 366 343 317 53 264 237
is_linear=0
shrinkage=0.05


Tree=20
num_leaves=13
num_cat=0
split_feature=15 0 0 15 16 16 0 7 7 7 4 15
split_gain=1.3158 0.59171 0.668794 0.543233 0.412454 0.393608 0.543642 0.227725 0.174297 0.152206 0.145833 0.0354239
threshold=8.5000000000000018 3.5000000000000004 9.5000000000000018 12.500000000000002 435.00000000000006 409.50000000000006 2.5000000000000004 1347.5000000000002 1278.0000000000002 1059.5000000000002 2.5000000000000004 18.500000000000004
decision_type=2 2 2 2 2 2 2 2 2 2 2 2
left_child=9 4 7 -4 5 6 -2 8 -3 -1 -11 -9
right_child=1 2 3 -5 -6 -7 -8 11 -10 10 -12 -13
leaf_value=-0.095061290851212177 -0.0043567034308835189 -0.013182961312777476 -0.036374814334001387 0.051811895730521342 0.052795924258308306 -0.015970904842636368 0.056411786713172068 -0.023470101150125749 0.0052039283388726461 -0.063466354602158589 -0.016167071541377843 -0.101002816893282
leaf_weight=207 30 74 21 36 20 26 23 61 36 21 27 21
leaf_count=207 30 74 21 36 20 26 23 61 36 21 27 21
internal_value=-0.00168325 0.000316091 -0.000983937 0.00377193 0.00358586 0.00196202 0.00443396 -0.00239583 -0.000909092 -0.00441177 -0.001875 -0.00439025
internal_weight=603 348 249 57 99 79 53 192 110 255 48 82
internal_count=603 348 249 57 99 79 53 192 110 255 48 82
is_linear=0
shrinkage=0.05


Tree=21
num_leaves=8
num_cat=0
split_feature=15 7 16 0 7 15 7
split_gain=1.54344 0.54375 0.466184 0.390457 0.461092 0.28665 0.100769
threshold=7.5000000000000009 1536.5000000000002 301.00000000000006 9.5000000000000018 1290.5000000000002 10.500000000000002 1059.5000000000002
decision_type=2 2 2 2 2 2 2
left_child=6 2 -2 5 -5 -4 -1
right_child=1 -3 3 4 -6 -7 -8
leaf_value=-0.090308226308651568 0.0028213788835050641 0.056323787715877309 -0.032989543930212299 -0.017025642090390706 0.059911237569513977 -0.0049927367074090344 -0.036489403324006534
leaf_weight=203 26 23 42 20 33 222 34
leaf_count=203 26 23 42 20 33 222 34
internal_value=-0.0014345 0.000601092 0.00010204 -0.000425869 0.00349056 -0.00121212 -0.00457806
internal_weight=603 366 343 317 53 264 237
internal_count=603 366 343 317 53 264 237
is_linear=0
shrinkage=0.05


Tree=22
num_leaves=13
num_cat=0
split_feature=15 15 16 7 1 7 4 0 1 7 7 7
split_gain=1.48061 0.545977 0.554003 0.435556 0.611506 0.573061 0.242624 0.236021 0.161939 0.152206 0.2625 0.034127
threshold=8.5000000000000018 15.500000000000002 301.00000000000006 1434.0000000000002 3.5000000000000004 1359.5000000000002 3.5000000000000004 3.5000000000000004 2.5000000000000004 1059.5000000000002 1161.0000000000002 1261.5000000000002
decision_type=2 2 2 2 2 2 2 2 2 2 2 2
left_child=9 2 -2 5 -5 8 7 -4 -3 -1 -11 -8
right_child=1 3 6 4 -6 -7 11 -9 -10 10 -12 -13
leaf_value=-0.085792814993218988 0.0023801509109904126 0.073301161277846416 0.012498529134052092 0.012313734005045143 0.070931506369955211 -0.018171676837121637 -0.0081949138954297805 -0.01779664227543273 -0.0015426451466404305 0.0059942909558742931 -0.077379901042785054 -0.033252543295469075
leaf_weight=207 21 25 38 23 22 26 20 106 24 20 28 43
leaf_count=207 21 25 38 23 22 26 20 106 24 20 28 43
internal_value=-0.00151741 0.000603447 -0.000833335 0.00333333 0.00722222 0.000999999 -0.00161836 -0.000486112 0.00418367 -0.00441177 -0.001875 -0.00420635
internal_weight=603 348 228 120 45 75 207 144 49 255 48 63
internal_count=603 348 228 120 45 75 207 144 49 255 48 63
is_linear=0
shrinkage=0.05


Tree=23
num_leaves=8
num_cat=0
split_feature=15 15 16 0 7 0 7
split_gain=1.54344 0.781509 0.495157 0.461893 0.492308 0.407421 0.100769
threshold=7.5000000000000009 20.500000000000004 301.00000000000006 9.5000000000000018 1290.5000000000002 3.5000000000000004 1059.5000000000002
decision_type=2 2 2 2 2 2 2
left_child=6 2 -2 5 -5 -4 -1
right_child=1 -3 3 4 -6 -7 -8
leaf_value=-0.081503174243558033 0.0024709490003679852 0.077763453348358977 0.003184048715367527 -0.015332536296522654 0.049618736797053142 -0.018306893740400659 -0.034964647705599892
leaf_weight=203 26 30 88 20 32 170 34
leaf_count=203 26 30 88 20 32 170 34
internal_value=-0.0014345 0.000601092 -8.92869e-05 -0.000645162 0.00365384 -0.00151163 -0.00457806
internal_weight=603 366 336 310 52 258 237
internal_count=603 366 336 310 52 258 237
is_linear=0
shrinkage=0.05


Tree=24
num_leaves=8
num_cat=0
split_feature=15 7 16 15 1 7 7
split_gain=1.39699 0.566561 0.437733 0.378649 0.249155 0.152206 0.2625
threshold=8.5000000000000018 1536.5000000000002 301.00000000000006 19.500000000000004 1.5000000000000002 1059.5000000000002 1161.0000000000002
decision_type=2 2 2 2 2 2 2
left_child=5 2 -2 4 -4 -1 -7
right_child=1 -3 3 -5 -6 6 -8
leaf_value=-0.077428015531380123 0.0021375959154225229 0.04719863826809538 0.0061220221248096673 0.064876882033867767 -0.018323506910804973 0.0057582060936845758 -0.072334902823806987
leaf_weight=207 21 23 116 31 157 20 28
leaf_count=207 21 23 116 31 157 20 28
internal_value=-0.00160033 0.000459769 -7.69243e-05 -0.000559212 -0.00115385 -0.00441177 -0.001875
internal_weight=603 348 325 304 273 255 48
internal_count=603 348 325 304 273 255 48
is_linear=0
shrinkage=0.05


Tree=25
num_leaves=7
num_cat=0
split_feature=15 15 16 16 16 7
split_gain=1.30883 0.548097 0.540625 0.192352 0.377588 0.100769
threshold=7.5000000000000009 20.500000000000004 301.00000000000006 440.50000000000006 425.50000000000006 1059.5000000000002
decision_type=2 2 2 2 2 2
left_child=5 2 -2 4 -4 -1
right_child=1 -3 3 -5 -6 -7
leaf_value=-0.073556614754811123 0.0021500066080245195 0.071426958159856516 -0.007383069780929394 -0.010492549434949375 0.027941928321245948 -0.033504325625004126
leaf_weight=203 26 30 259 27 24 34
leaf_count=203 26 30 259 27 24 34
internal_value=-0.00168325 0.000191256 -0.000386906 -0.000967743 -0.00058304 -0.00457806
internal_weight=603 366 336 310 283 237
internal_count=603 366 336 310 283 237
is_linear=0
shrinkage=0.05


Tree=26
num_leaves=7
num_cat=0
split_feature=15 15 16 15 16 0
split_gain=1.24246 0.60645 0.411625 0.271339 0.247719 0.0802518
threshold=1.0000000180025095e-35 20.500000000000004 295.50000000000006 10.500000000000002 440.50000000000006 7.5000000000000009
decision_type=2 2 2 2 2 2
left_child=-1 2 -2 5 -5 -4
right_child=1 -3 3 4 -6 -7
leaf_value=-0.06987878401707058 0.012299622076727851 0.067855610251863707 -0.055632741611457794 -0.00039410482158754322 -0.0099679219632019117 -0.0062984265958960341
leaf_weight=199 38 30 51 227 27 31
leaf_count=199 38 30 51 227 27 31
internal_value=-0.00176617 -0.000173269 -0.000721926 -0.00127976 -0.000472442 -0.00378049
internal_weight=603 404 374 336 254 82
internal_count=603 404 374 336 254 82
is_linear=0
shrinkage=0.05


Tree=27
num_leaves=7
num_cat=0
split_feature=15 15 16 16 16 7
split_gain=1.30883 0.548097 0.540625 0.192352 0.377588 0.100769
threshold=7.5000000000000009 20.500000000000004 301.00000000000006 440.50000000000006 425.50000000000006 1059.5000000000002
decision_type=2 2 2 2 2 2
left_child=5 2 -2 4 -4 -1
right_child=1 -3 3 -5 -6 -7
leaf_value=-0.066384844816217051 0.00142752517378691 0.064462829739270561 -0.0067026274774854983 -0.0094695258650417981 0.026564537146263046 -0.029047472263181041
leaf_weight=203 26 30 259 27 24 34
leaf_count=203 26 30 259 27 24 34
internal_value=-0.00168325 0.000191256 -0.000386906 -0.000967743 -0.00058304 -0.00457806
internal_weight=603 366 336 310 283 237
internal_count=603 366 336 310 283 237
is_linear=0
shrinkage=0.05


Tree=28
num_leaves=7
num_cat=0
split_feature=15 7 16 15 1 4
split_gain=1.37316 0.619549 0.707449 0.289817 0.193774 0.157792
threshold=1.0000000180025095e-35 1536.5000000000002 301.00000000000006 20.500000000000004 1.5000000000000002 3.5000000000000004
decision_type=2 2 2 2 2 2
left_child=-1 2 5 4 -4 -2
right_child=1 -3 3 -5 -6 -7
leaf_value=-0.063065602575406207 0.0059076749505120874 0.0406367540230613 -0.0018402029964457172 0.051445776782524183 -0.014857603686498978 0.0011310781882003344
leaf_weight=199 20 23 132 21 186 22
leaf_count=199 20 23 132 21 186 22
internal_value=-0.00160033 7.42562e-05 -0.000406825 -0.00116519 -0.00154088 0.00571428
internal_weight=603 404 381 339 318 42
internal_count=603 404 381 339 318 42
is_linear=0
shrinkage=0.05


Tree=29
num_leaves=7
num_cat=0
split_feature=15 15 16 0 7 0
split_gain=1.37316 0.563351 0.531769 0.49109 0.545455 0.23885
threshold=1.0000000180025095e-35 20.500000000000004 293.00000000000006 9.5000000000000018 1290.5000000000002 3.5000000000000004
decision_type=2 2 2 2 2 2
left_child=-1 2 -2 5 -5 -4
right_child=1 -3 3 4 -6 -7
leaf_value=-0.059912322446635892 0.029624423026470503 0.059153805811032072 0.00070834552310431939 -0.0054664651293288916 0.040801146612317575 -0.016019427771739921
leaf_weight=199 33 30 97 22 32 190
leaf_count=199 33 30 97 22 32 190
internal_value=-0.00160033 7.42562e-05 -0.000454547 -0.00104106 0.00333333 -0.00186411
internal_weight=603 404 374 341 54 287
internal_count=603 404 374 341 54 287
is_linear=0
shrinkage=0.05


Tree=30
num_leaves=9
num_cat=0
split_feature=7 15 0 0 0 15 16 1
split_gain=1.19735 0.624627 0.222321 0.339426 0.328134 0.172847 0.30303 0.143961
threshold=962.50000000000011 20.500000000000004 8.5000000000000018 3.5000000000000004 2.5000000000000004 13.500000000000002 378.50000000000006 2.5000000000000004
decision_type=2 2 2 2 2 2 2 2
left_child=-1 2 3 4 -2 6 -4 -5
right_child=1 -3 5 7 -6 -7 -8 -9
leaf_value=-0.056916706324304102 -0.0065809002567922686 0.056196115520480455 0.0020178492976286799 -0.019481266505082834 0.020821167056042311 0.042907816850403041 -0.047458862393321519 -0.0085993904265970322
leaf_weight=201 66 30 24 120 36 32 20 74
leaf_count=201 66 30 24 120 36 32 20 74
internal_value=-0.00184909 -0.000273633 -0.000833335 -0.0014527 0.000882352 0.00157895 -0.000454547 -0.00268041
internal_weight=603 402 372 296 102 76 44 194
internal_count=603 402 372 296 102 76 44 194
is_linear=0
shrinkage=0.05


Tree=31
num_leaves=7
num_cat=0
split_feature=15 15 16 16 16 7
split_gain=1.38489 0.525215 0.517641 0.208047 0.355677 0.100769
threshold=7.5000000000000009 20.500000000000004 301.00000000000006 440.50000000000006 425.50000000000006 1059.5000000000002
decision_type=2 2 2 2 2 2
left_child=5 2 -2 4 -4 -1
right_child=1 -3 3 -5 -6 -7
leaf_value=-0.054070871008088897 0.0019491805455276665 0.053386309744456441 -0.0054728869448568765 -0.0090042709821862299 0.026554012675916578 -0.026870070725454494
leaf_weight=203 26 30 259 27 24 34
leaf_count=203 26 30 259 27 24 34
internal_value=-0.00160033 0.000327868 -0.000238096 -0.000806453 -0.000406362 -0.00457806
internal_weight=603 366 336 310 283 237
internal_count=603 366 336 310 283 237
is_linear=0
shrinkage=0.05


Tree=32
num_leaves=8
num_cat=0
split_feature=15 16 15 15 1 4 0
split_gain=1.37316 0.59641 0.687134 0.251429 0.282838 0.157792 0.0820513
threshold=1.0000000180025095e-35 301.00000000000006 20.500000000000004 10.500000000000002 1.5000000000000002 3.5000000000000004 7.5000000000000009
decision_type=2 2 2 2 2 2 2
left_child=-1 5 3 6 -5 -2 -3
right_child=1 2 -4 4 -6 -7 -8
leaf_value=-0.051367327457684457 0.0050442748611827072 -0.046737367713215308 0.050716994257233652 0.012891527881274945 -0.0059330437502154694 0.0023777665908236061 -0.012560114705585946
leaf_weight=199 20 48 30 98 156 22 30
leaf_count=199 20 48 30 98 156 22 30
internal_value=-0.00160033 7.42562e-05 -0.000580112 -0.00123494 -0.000472442 0.00571428 -0.00371795
internal_weight=603 404 362 332 254 42 78
internal_count=603 404 362 332 254 42 78
is_linear=0
shrinkage=0.05


Tree=33
num_leaves=7
num_cat=0
split_feature=15 15 16 0 16 0
split_gain=1.307 0.584702 0.555488 0.182842 0.297361 0.199404
threshold=1.0000000180025095e-35 20.500000000000004 293.00000000000006 9.5000000000000018 371.00000000000006 3.5000000000000004
decision_type=2 2 2 2 2 2
left_child=-1 2 -2 5 -5 -4
right_child=1 -3 3 4 -6 -7
leaf_value=-0.048798961084800231 0.029912028463474839 0.048181144544371945 0.0003081083541552961 -0.0040213649232230626 0.037410280930961951 -0.013595056899468109
leaf_weight=199 33 30 97 23 31 190
leaf_count=199 33 30 97 23 31 190
internal_value=-0.00168325 -4.95061e-05 -0.000588236 -0.00118768 0.00148148 -0.0016899
internal_weight=603 404 374 341 54 287
internal_count=603 404 374 341 54 287
is_linear=0
shrinkage=0.05


Tree=34
num_leaves=6
num_cat=0
split_feature=15 16 7 16 15
split_gain=1.37316 0.413397 0.372589 0.251528 0.271718
threshold=1.0000000180025095e-35 284.50000000000006 1536.5000000000002 437.50000000000006 7.5000000000000009
decision_type=2 2 2 2 2
left_child=-1 -2 3 4 -3
right_child=1 2 -4 -5 -6
leaf_value=-0.046359013030560225 0.035312307624953819 -0.052956652657532334 0.03116380458269255 -0.018470159333840972 0.0001554433721421773
leaf_weight=199 21 28 23 31 301
leaf_count=199 21 28 23 31 301
internal_value=-0.00160033 7.42562e-05 -0.000300262 -0.000694446 -0.000288755
internal_weight=603 404 383 360 329
internal_count=603 404 383 360 329
is_linear=0
shrinkage=0.05


Tree=35
num_leaves=6
num_cat=0
split_feature=7 7 16 16 0
split_gain=1.26119 0.353506 0.271707 0.251501 0.296422
threshold=962.50000000000011 1536.5000000000002 437.50000000000006 423.50000000000006 8.5000000000000018
decision_type=2 2 2 2 2
left_child=-1 2 3 4 -2
right_child=1 -3 -4 -5 -6
leaf_value=-0.044041062379032214 -0.0076383358047880561 0.029605614353557935 -0.017546651367148922 0.020286657516307725 0.024955072342235995
leaf_weight=201 255 23 31 26 67
leaf_count=201 255 23 31 26 67
internal_value=-0.00176617 -0.000149255 -0.000514513 -0.000114944 -0.000496896
internal_weight=603 402 379 348 322
internal_count=603 402 379 348 322
is_linear=0
shrinkage=0.05


Tree=36
num_leaves=6
num_cat=0
split_feature=15 15 16 15 16
split_gain=1.24246 0.60645 0.2449 0.19879 0.225177
threshold=1.0000000180025095e-35 20.500000000000004 284.50000000000006 7.5000000000000009 407.50000000000006
decision_type=2 2 2 2 2
left_child=-1 2 -2 -4 -5
right_child=1 -3 3 4 -6
leaf_value=-0.041839009260080599 0.033928609901854166 0.042982120097416691 -0.050302910747810806 0.00049100043327683087 -0.007473801113228676
leaf_weight=199 21 30 29 220 104
leaf_count=199 21 30 29 220 104
internal_value=-0.00176617 -0.000173269 -0.000721926 -0.001034 -0.000679014
internal_weight=603 404 374 353 324
internal_count=603 404 374 353 324
is_linear=0
shrinkage=0.05


Tree=37
num_leaves=8
num_cat=0
split_feature=7 7 1 0 7 16 1
split_gain=1.13516 0.383331 0.24327 0.296115 0.226229 0.179196 0.192102
threshold=962.50000000000011 1536.5000000000002 1.5000000000000002 8.5000000000000018 1413.0000000000002 301.00000000000006 3.5000000000000004
decision_type=2 2 2 2 2 2 2
left_child=-1 2 3 4 -2 -4 -7
right_child=1 -3 5 -5 -6 6 -8
leaf_value=-0.039747058797076573 0.0012493618148230387 0.027747440299880223 0.0081795736078835168 0.042106764887327341 -0.0197537533800041 -0.016843313120660827 -0.00094289732365209855
leaf_weight=201 96 23 29 29 21 130 74
leaf_count=201 96 23 29 29 21 130 74
internal_value=-0.00193201 -0.000398011 -0.000778365 0.000821917 -0.000299146 -0.00178112 -0.00230392
internal_weight=603 402 379 146 117 233 204
internal_count=603 402 379 146 117 233 204
is_linear=0
shrinkage=0.05


Tree=38
num_leaves=6
num_cat=0
split_feature=15 7 16 16 16
split_gain=1.24246 0.356226 0.268736 0.25436 0.228932
threshold=1.0000000180025095e-35 1536.5000000000002 437.50000000000006 423.50000000000006 284.50000000000006
decision_type=2 2 2 2 2
left_child=-1 2 3 4 -2
right_child=1 -3 -4 -5 -6
leaf_value=-0.037759705857222742 0.031823201869027283 0.02636006828488623 -0.015307941746858483 0.01969315956233636 -0.0044615120697848567
leaf_weight=199 21 23 31 26 303
leaf_count=199 21 23 31 26 303
internal_value=-0.00176617 -0.000173269 -0.000538059 -0.000142858 -0.000524693
internal_weight=603 404 381 350 324
internal_count=603 404 381 350 324
is_linear=0
shrinkage=0.05


Tree=39
num_leaves=7
num_cat=0
split_feature=7 15 16 0 0 0
split_gain=1.19735 0.624627 0.210271 0.18231 0.36277 0.230561
threshold=962.50000000000011 20.500000000000004 440.50000000000006 3.5000000000000004 2.5000000000000004 8.5000000000000018
decision_type=2 2 2 2 2 2
left_child=-1 2 3 4 -2 -5
right_child=1 -3 -4 5 -6 -7
leaf_value=-0.035871720564361602 -0.0044859752350658137 0.039124727280646726 -0.01129557379993492 -0.011699378805662358 0.022841525375830035 0.012121311332565511
leaf_weight=201 61 30 28 177 33 73
leaf_count=201 61 30 28 177 33 73
internal_value=-0.00184909 -0.000273633 -0.000833335 -0.000494187 0.00138298 -0.0012
internal_weight=603 402 372 344 94 250
internal_count=603 402 372 344 94 250
is_linear=0
shrinkage=0.05


Tree=40
num_leaves=12
num_cat=0
split_feature=15 0 0 15 16 7 16 0 1 4 7
split_gain=1.17956 0.212714 0.296812 0.252624 0.245788 0.243751 0.280189 0.210193 0.100595 0.1 0.0350746
threshold=1.0000000180025095e-35 3.5000000000000004 2.5000000000000004 17.500000000000004 394.50000000000006 1256.5000000000002 425.50000000000006 7.5000000000000009 3.5000000000000004 2.5000000000000004 1353.5000000000002
decision_type=2 2 2 2 2 2 2 2 2 2 2
left_child=-1 2 5 4 7 -2 -7 -3 -5 -4 -6
right_child=1 3 9 8 10 6 -8 -9 -10 -11 -12
leaf_value=-0.034078134536143521 0.027586980763042224 -0.020556510483369969 0.025630606941991138 0.015582531635210199 -0.015193812162243737 -0.011401162608069927 0.032840813182170171 0.0010445672509291296 0.0077052284194286729 0.0090104574467309694 -0.022239137235674469
leaf_weight=199 22 104 20 20 20 33 20 70 28 20 47
leaf_count=199 22 104 20 20 20 33 20 70 28 20 47
internal_value=-0.00184909 -0.000297031 0.00152174 -0.00102076 -0.0016805 -0.000333335 -0.00216981 -0.000689656 0.00229167 0.005 -0.00425373
internal_weight=603 404 115 289 241 75 53 174 48 40 67
internal_count=603 404 115 289 241 75 53 174 48 40 67
is_linear=0
shrinkage=0.05


Tree=41
num_leaves=7
num_cat=0
split_feature=15 16 15 16 16 0
split_gain=1.24246 0.195487 0.262019 0.152709 0.48263 0.101587
threshold=1.0000000180025095e-35 284.50000000000006 7.5000000000000009 440.50000000000006 425.50000000000006 4.5000000000000009
decision_type=2 2 2 2 2 2
left_child=-1 -2 -3 4 -4 -5
right_child=1 2 3 5 -6 -7
leaf_value=-0.032374227809336346 0.029076992247471595 -0.046777568449322952 -0.0022342486240538475 -0.0023554746783680824 0.030178296559609064 -0.014889449256395647
leaf_weight=199 21 29 284 21 25 24
leaf_count=199 21 29 284 21 25 24
internal_value=-0.00176617 -0.000173269 -0.000430811 -5.64984e-05 0.000339805 -0.00277778
internal_weight=603 404 383 354 309 45
internal_count=603 404 383 354 309 45
is_linear=0
shrinkage=0.05


Tree=42
num_leaves=11
num_cat=0
split_feature=7 15 1 16 7 16 7 16 7 0
split_gain=1.13516 0.185839 0.225 0.2 0.408333 0.198444 0.325952 0.144048 0.115244 0.025
threshold=962.50000000000011 15.500000000000002 1.5000000000000002 440.50000000000006 1405.5000000000002 394.50000000000006 1325.0000000000002 312.50000000000006 1414.5000000000002 5.5000000000000009
decision_type=2 2 2 2 2 2 2 2 2 2
left_child=-1 5 -3 4 -4 6 7 -2 9 -7
right_child=1 2 3 -5 -6 8 -8 -9 -10 -11
leaf_value=-0.030755516418869529 0.0027091848385392085 0.031553388116916659 -0.0045250047825048005 -0.0033402111256148059 0.044024562055529161 -0.0025004072471026401 0.0030009892200575953 -0.010950713189343375 -0.025731266702195069 -0.031354614669830819
leaf_weight=201 60 30 40 30 20 20 32 108 42 20
leaf_count=201 60 30 40 30 20 20 32 108 42 20
internal_value=-0.00193201 -0.000398011 0.00125 -1.19209e-09 0.00166667 -0.00109929 -0.000250001 -0.00113095 -0.00317073 -0.00125
internal_weight=603 402 120 90 60 282 200 168 82 40
internal_count=603 402 120 90 60 282 200 168 82 40
is_linear=0
shrinkage=0.05


Tree=43
num_leaves=12
num_cat=0
split_feature=15 0 0 7 16 0 15 15 15 16 4
split_gain=1.17956 0.212714 0.296812 0.243751 0.280189 0.216618 0.294302 0.224026 0.153214 0.237376 0.1
threshold=1.0000000180025095e-35 3.5000000000000004 2.5000000000000004 1256.5000000000002 425.50000000000006 8.5000000000000018 13.500000000000002 10.500000000000002 8.5000000000000018 312.50000000000006 2.5000000000000004
decision_type=2 2 2 2 2 2 2 2 2 2 2
left_child=-1 2 3 -2 -5 8 7 -7 -3 -10 -4
right_child=1 5 10 4 -6 6 -8 -9 9 -11 -12
leaf_value=-0.029217740597926051 0.024785647214630314 -0.044795098044407962 0.024970878475144676 -0.01243512262884087 0.027721253385038287 0.0007849975227635737 0.029849133705499992 -0.0092197287539905592 0.0030788827419538588 -0.010628308681916625 0.0085215975445941845
leaf_weight=199 22 33 20 33 20 21 37 23 24 151 20
leaf_count=199 22 33 20 33 20 21 37 23 24 151 20
internal_value=-0.00184909 -0.000297031 0.00152174 -0.000333335 -0.00216981 -0.00102076 0.00117284 -0.00159091 -0.001875 -0.00128572 0.005
internal_weight=603 404 115 75 53 289 81 44 208 175 40
internal_count=603 404 115 75 53 289 81 44 208 175 40
is_linear=0
shrinkage=0.05


Tree=44
num_leaves=6
num_cat=0
split_feature=7 15 16 16 16
split_gain=1.19735 0.168713 0.238278 0.325969 0.299205
threshold=962.50000000000011 20.500000000000004 440.50000000000006 425.50000000000006 407.50000000000006
decision_type=2 2 2 2 2
left_child=-1 2 3 4 -2
right_child=1 -3 -4 -5 -6
leaf_value=-0.02775685356802975 0.00026759678801303269 0.034207021256451843 -0.011811438845014753 0.018909744140634642 -0.012311580048217049
leaf_weight=201 267 30 28 24 53
leaf_count=201 267 30 28 24 53
internal_value=-0.00184909 -0.000273633 -0.000564517 -0.00020349 -0.000625001
internal_weight=603 402 372 344 320
internal_count=603 402 372 344 320
is_linear=0
shrinkage=0.05


Tree=45
num_leaves=6
num_cat=0
split_feature=15 16 15 15 16
split_gain=1.24246 0.261368 0.212089 0.166947 0.23179
threshold=1.0000000180025095e-35 293.00000000000006 7.5000000000000009 20.500000000000004 440.50000000000006
decision_type=2 2 2 2 2
left_child=-1 -2 -3 4 -4
right_child=1 2 3 -5 -6
leaf_value=-0.026369010889628265 0.021402648326089103 -0.043575162274454717 -0.0011078033418079364 0.032496670193629278 -0.010849516093567929
leaf_weight=199 33 25 289 30 27
leaf_count=199 33 25 289 30 27
internal_value=-0.00176617 -0.000173269 -0.000552562 -0.000231215 -0.000569621
internal_weight=603 404 371 346 316
internal_count=603 404 371 346 316
is_linear=0
shrinkage=0.05


Tree=46
num_leaves=6
num_cat=0
split_feature=7 15 16 16 16
split_gain=1.19735 0.168713 0.238278 0.325969 0.299205
threshold=962.50000000000011 20.500000000000004 440.50000000000006 425.50000000000006 407.50000000000006
decision_type=2 2 2 2 2
left_child=-1 2 3 4 -2
right_child=1 -3 -4 -5 -6
leaf_value=-0.025050560345146852 0.00030960711570281142 0.030871836683947843 -0.010678391098085625 0.018019647100693346 -0.011640610878715782
leaf_weight=201 267 30 28 24 53
leaf_count=201 267 30 28 24 53
internal_value=-0.00184909 -0.000273633 -0.000564517 -0.00020349 -0.000625001
internal_weight=603 402 372 344 320
internal_count=603 402 372 344 320
is_linear=0
shrinkage=0.05


Tree=47
num_leaves=6
num_cat=0
split_feature=15 16 15 16 15
split_gain=1.17956 0.276759 0.211055 0.191244 0.193418
threshold=1.0000000180025095e-35 293.00000000000006 20.500000000000004 440.50000000000006 7.5000000000000009
decision_type=2 2 2 2 2
left_child=-1 -2 3 4 -3
right_child=1 2 -4 -5 -6
leaf_value=-0.023798032327889507 0.020317035553999496 -0.041146094631543798 0.02932824484975043 -0.010144471543181332 -0.00075965244041772278
leaf_weight=199 33 24 30 28 289
leaf_count=199 33 24 30 28 289
internal_value=-0.00184909 -0.000297031 -0.000687333 -0.00104106 -0.000686902
internal_weight=603 404 371 341 313
internal_count=603 404 371 341 313
is_linear=0
shrinkage=0.05


Tree=48
num_leaves=11
num_cat=0
split_feature=7 15 1 16 7 16 7 16 7 0
split_gain=1.13516 0.185839 0.225 0.2 0.408333 0.198444 0.325952 0.144048 0.115244 0.025
threshold=962.50000000000011 15.500000000000002 1.5000000000000002 440.50000000000006 1405.5000000000002 394.50000000000006 1325.0000000000002 312.50000000000006 1414.5000000000002 5.5000000000000009
decision_type=2 2 2 2 2 2 2 2 2 2
left_child=-1 5 -3 4 -4 6 7 -2 9 -7
right_child=1 2 3 -5 -6 8 -8 -9 -10 -11
leaf_value=-0.022608130711495034 0.0024842940534400559 0.02280343017666896 -0.0054016674709120565 -0.009525527974494399 0.038977941689027157 -0.00077232399469854976 0.0025426403196853464 -0.010726533229312872 -0.022533983879827451 -0.029068309489749707
leaf_weight=201 60 30 40 30 20 20 32 108 42 20
leaf_count=201 60 30 40 30 20 20 32 108 42 20
internal_value=-0.00193201 -0.000398011 0.00125 -1.19209e-09 0.00166667 -0.00109929 -0.000250001 -0.00113095 -0.00317073 -0.00125
internal_weight=603 402 120 90 60 282 200 168 82 40
internal_count=603 402 120 90 60 282 200 168 82 40
is_linear=0
shrinkage=0.05


Tree=49
num_leaves=10
num_cat=0
split_feature=15 15 0 16 0 0 16 15 7
split_gain=1.24246 0.211249 0.260548 0.258261 0.570372 0.168474 0.172001 0.170025 0.147422
threshold=1.0000000180025095e-35 19.500000000000004 3.5000000000000004 409.50000000000006 2.5000000000000004 7.5000000000000009 353.50000000000006 9.5000000000000018 1434.0000000000002
decision_type=2 2 2 2 2 2 2 2 2
left_child=-1 2 3 4 -2 6 -4 -7 -3
right_child=1 8 5 -5 -6 7 -8 -9 -10
leaf_value=-0.021477724175920282 -0.00084628597294871997 0.0013217610236806233 -0.0084928602148302713 -0.0073254417702110306 0.04715225657376082 0.00097367571835405345 -0.017409944156722711 -0.0035192833444677041 0.12105858346967097
leaf_weight=199 41 20 67 33 24 30 89 77 23
leaf_count=199 41 20 67 33 24 30 89 77 23
internal_value=-0.00176617 -0.000173269 -0.000567868 0.00163265 0.00346154 -0.00138783 -0.0024359 0.000140186 0.00313953
internal_weight=603 404 361 98 65 263 156 107 43
internal_count=603 404 361 98 65 263 156 107 43
is_linear=0
shrinkage=0.05


Tree=50
num_leaves=6
num_cat=0
split_feature=15 16 15 15 16
split_gain=1.05867 0.227613 0.22486 0.184844 0.229365
threshold=1.0000000180025095e-35 284.50000000000006 20.500000000000004 7.5000000000000009 394.50000000000006
decision_type=2 2 2 2 2
left_child=-1 -2 3 -3 -5
right_child=1 2 -4 4 -6
leaf_value=-0.020403837967124267 0.024051658908123906 -0.040517839285023102 0.026241241903349057 0.00031423155783543859 -0.0044655393826370749
leaf_weight=199 21 29 30 189 135
leaf_count=199 21 29 30 189 135
internal_value=-0.00201493 -0.000544556 -0.000822456 -0.00117564 -0.000833335
internal_weight=603 404 383 353 324
internal_count=603 404 383 353 324
is_linear=0
shrinkage=0.05


Tree=51
num_leaves=10
num_cat=0
split_feature=7 15 16 0 1 4 0 0 7
split_gain=1.07463 0.192786 0.217639 0.295586 0.227629 0.646998 0.220588 0.180185 0.109402
threshold=962.50000000000011 20.500000000000004 394.50000000000006 3.5000000000000004 3.5000000000000004 2.5000000000000004 2.5000000000000004 7.5000000000000009 1381.5000000000002
decision_type=2 2 2 2 2 2 2 2 2
left_child=-1 2 3 6 8 -6 -2 -5 -4
right_child=1 -3 4 7 5 -7 -8 -9 -10
leaf_value=-0.019383646068768055 -0.005102818420373148 0.024929179808181625 -0.0059587637160414516 -0.015102133864705939 -0.0028470380761519004 0.020672937726541503 0.055269590754595137 0.00070625317721868938 -0.013291744754530486
leaf_weight=201 34 30 26 107 25 21 20 75 64
leaf_count=201 34 30 26 107 25 21 20 75 64
internal_value=-0.00201493 -0.000522389 -0.000833335 8.47446e-05 -0.00242647 0.000434781 0.00333333 -0.000879122 -0.00388889
internal_weight=603 402 372 236 136 46 54 182 90
internal_count=603 402 372 236 136 46 54 182 90
is_linear=0
shrinkage=0.05


Tree=52
num_leaves=7
num_cat=0
split_feature=15 16 15 0 1 16
split_gain=1.17956 0.205924 0.197493 0.166051 0.325682 0.211674
threshold=1.0000000180025095e-35 284.50000000000006 20.500000000000004 8.5000000000000018 1.5000000000000002 394.50000000000006
decision_type=2 2 2 2 2 2
left_child=-1 -2 3 5 -5 -3
right_child=1 2 -4 4 -6 -7
leaf_value=-0.018414463765329649 0.023104217224217845 -0.0024602528024413942 0.023682720817772531 0.039704489859579806 -0.0048496952970663969 -0.007458917581346286
leaf_weight=199 21 172 30 29 43 109
leaf_count=199 21 172 30 29 43 109
internal_value=-0.00184909 -0.000297031 -0.000561359 -0.000892352 0.00125 -0.00144128
internal_weight=603 404 383 353 72 281
internal_count=603 404 383 353 72 281
is_linear=0
shrinkage=0.05


Tree=53
num_leaves=9
num_cat=0
split_feature=7 15 7 16 16 4 3 7
split_gain=1.19735 0.224375 0.257511 0.29835 0.187305 0.161306 0.358163 0.118881
threshold=962.50000000000011 19.500000000000004 1345.5000000000002 384.50000000000006 445.50000000000006 3.5000000000000004 1.0000000180025095e-35 1128.5000000000002
decision_type=2 2 2 2 2 2 2 2
left_child=-1 2 3 7 -3 6 -4 -2
right_child=1 4 5 -5 -6 -7 -8 -9
leaf_value=-0.017493740577063169 0.015844313757589813 0.096751709351813833 -0.010846695968090452 0.0075631449168497072 -0.0054231867219937989 -0.0006575422843929287 0.033242069231935741 -0.0055951905551854609
leaf_weight=201 44 22 78 37 21 37 20 143
leaf_count=201 44 22 78 37 21 37 20 143
internal_value=-0.00184909 -0.000273633 -0.000682452 0.000357142 0.00313953 -0.00240741 -0.00346939 -0.000454547
internal_weight=603 402 359 224 43 135 98 187
internal_count=603 402 359 224 43 135 98 187
is_linear=0
shrinkage=0.05


Tree=54
num_leaves=6
num_cat=0
split_feature=15 16 15 16 16
split_gain=1.24246 0.261368 0.197144 0.205672 0.367324
threshold=1.0000000180025095e-35 293.00000000000006 20.500000000000004 440.50000000000006 425.50000000000006
decision_type=2 2 2 2 2
left_child=-1 -2 3 4 -3
right_child=1 2 -4 -5 -6
leaf_value=-0.01661905354821001 0.017013672124474612 -0.0036262887646333606 0.018880871906918329 -0.0064112773428059641 0.015993590211141894
leaf_weight=199 33 289 30 28 24
leaf_count=199 33 289 30 28 24
internal_value=-0.00176617 -0.000173269 -0.000552562 -0.000894429 -0.000527158
internal_weight=603 404 371 341 313
internal_count=603 404 371 341 313
is_linear=0
shrinkage=0.05


Tree=55
num_leaves=6
num_cat=0
split_feature=7 15 16 16 16
split_gain=1.13516 0.180549 0.224056 0.343047 0.272578
threshold=962.50000000000011 20.500000000000004 440.50000000000006 425.50000000000006 407.50000000000006
decision_type=2 2 2 2 2
left_child=-1 2 3 4 -2
right_child=1 -3 -4 -5 -6
leaf_value=-0.015788100870799512 -0.00047112155511238023 0.01793682831157245 -0.0060907134756656737 0.01519391070058479 -0.010094539946660023
leaf_weight=201 267 30 28 24 53
leaf_count=201 267 30 28 24 53
internal_value=-0.00193201 -0.000398011 -0.000698926 -0.000348838 -0.000781251
internal_weight=603 402 372 344 320
internal_count=603 402 372 344 320
is_linear=0
shrinkage=0.05


Tree=56
num_leaves=12
num_cat=0
split_feature=15 0 1 3 15 16 0 4 1 7 7
split_gain=1.17956 0.212714 0.268292 0.448615 0.252624 0.245788 0.210193 0.106206 0.100595 0.0350746 0.0256098
threshold=1.0000000180025095e-35 3.5000000000000004 2.5000000000000004 1.0000000180025095e-35 17.500000000000004 394.50000000000006 7.5000000000000009 2.5000000000000004 3.5000000000000004 1353.5000000000002 1417.0000000000002
decision_type=2 2 2 2 2 2 2 2 2 2 2
left_child=-1 2 3 10 5 6 -3 -4 -6 -7 -2
right_child=1 4 7 -5 8 9 -8 -9 -10 -11 -12
leaf_value=-0.014998695827259535 -0.008839364522976078 -0.016002028984036899 -7.8414788195317091e-05 0.054702014703805993 0.0066747515346243184 -0.0086626498415173399 0.001457873817407627 0.020389394709672212 0.0027750477227623028 -0.017894763580350789 -0.010073515943043881
leaf_weight=199 20 104 22 26 20 20 70 26 28 47 21
leaf_count=199 20 104 22 26 20 20 70 26 28 47 21
internal_value=-0.00184909 -0.000297031 0.00152174 -0.000522389 -0.00102076 -0.0016805 -0.000689656 0.004375 0.00229167 -0.00425373 -0.00378049
internal_weight=603 404 115 67 289 241 174 48 48 67 41
internal_count=603 404 115 67 289 241 174 48 48 67 41
is_linear=0
shrinkage=0.05


Tree=57
num_leaves=13
num_cat=0
split_feature=7 15 1 16 1 7 16 7 7 4 15 0
split_gain=1.19735 0.18393 0.294189 0.278457 0.235574 0.270239 0.1947 0.23605 0.305079 0.0882353 0.0822092 0.0214286
threshold=962.50000000000011 13.500000000000002 1.5000000000000002 390.50000000000006 3.5000000000000004 1434.0000000000002 312.50000000000006 1290.5000000000002 1342.5000000000002 2.5000000000000004 9.5000000000000018 4.5000000000000009
decision_type=2 2 2 2 2 2 2 2 2 2 2 2
left_child=-1 6 3 -3 9 -6 10 11 -9 -4 -2 -8
right_child=1 2 4 -5 5 -7 7 8 -10 -11 -12 -13
leaf_value=-0.014248761035896557 0.0056895952977917032 0.047217506627422565 -0.0155512505015342 -0.0050358422262871136 -0.0045417204949465889 0.019187022446358209 -0.027298709366941155 0.013637744963452506 -0.0032295740027197708 -0.026869651702896596 -0.011904858184795808 -0.020887083548796644
leaf_weight=201 31 34 24 22 47 23 28 28 72 27 24 42
leaf_count=201 31 34 24 22 47 23 28 28 72 27 24 42
internal_value=-0.00184909 -0.000273633 0.000932202 0.00392857 -0.000454547 0.00142857 -0.00122222 -0.00205882 -0.000500001 -0.00303922 0.00136364 -0.00428572
internal_weight=603 402 177 56 121 70 225 170 100 51 55 70
internal_count=603 402 177 56 121 70 225 170 100 51 55 70
is_linear=0
shrinkage=0.05


Tree=58
num_leaves=7
num_cat=0
split_feature=15 7 16 16 1 16
split_gain=1.37316 0.32764 0.301282 0.323505 0.502087 0.226655
threshold=1.0000000180025095e-35 1536.5000000000002 437.50000000000006 414.50000000000006 3.5000000000000004 284.50000000000006
decision_type=2 2 2 2 2 2
left_child=-1 2 3 5 -5 -2
right_child=1 -3 -4 4 -6 -7
leaf_value=-0.013536322984101729 0.019025715281680011 0.0057862463695889212 -0.014585298056277077 -0.015328021713004597 0.032623178510177091 -0.0029338080795224012
leaf_weight=199 21 23 31 31 20 278
leaf_count=199 21 23 31 31 20 278
internal_value=-0.00160033 7.42562e-05 -0.000275592 0.000142856 0.00382353 -0.000484951
internal_weight=603 404 381 350 51 299
internal_count=603 404 381 350 51 299
is_linear=0
shrinkage=0.05


Tree=59
num_leaves=7
num_cat=0
split_feature=7 15 16 0 0 16
split_gain=1.13516 0.180549 0.224056 0.155171 0.212808 0.163918
threshold=962.50000000000011 20.500000000000004 440.50000000000006 3.5000000000000004 7.5000000000000009 409.50000000000006
decision_type=2 2 2 2 2 2
left_child=-1 2 3 5 -5 -2
right_child=1 -3 -4 4 -6 -7
leaf_value=-0.012859506834896643 0.013103548084162251 0.016040739370745107 -0.0055514593570203793 -0.0095144010114115839 0.0010761703508220589 -0.0075365667528471047
leaf_weight=201 64 30 28 145 105 30
leaf_count=201 64 30 28 145 105 30
internal_value=-0.00193201 -0.000398011 -0.000698926 -0.000348838 -0.001 0.00138298
internal_weight=603 402 372 344 250 94
internal_count=603 402 372 344 250 94
is_linear=0
shrinkage=0.05


Tree=60
num_leaves=7
num_cat=0
split_feature=7 7 16 16 16 0
split_gain=1.19735 0.368268 0.255959 0.107568 0.200096 0.131808
threshold=962.50000000000011 1536.5000000000002 437.50000000000006 414.50000000000006 407.50000000000006 4.5000000000000009
decision_type=2 2 2 2 2 2
left_child=-1 2 3 4 -2 -5
right_child=1 -3 -4 5 -6 -7
leaf_value=-0.01221653149315181 -0.001068803291451042 0.0047242690724690018 -0.01357846018561221 -0.0018869628032206068 -0.01490222606384509 0.042779101404246817
leaf_weight=201 273 23 31 24 24 27
leaf_count=201 273 23 31 24 24 27
internal_value=-0.00184909 -0.000273633 -0.000646439 -0.000258622 -0.000622897 0.00186274
internal_weight=603 402 379 348 297 51
internal_count=603 402 379 348 297 51
is_linear=0
shrinkage=0.05


Tree=61
num_leaves=6
num_cat=0
split_feature=15 16 15 16 16
split_gain=1.05867 0.227613 0.22486 0.177921 0.181065
threshold=1.0000000180025095e-35 284.50000000000006 20.500000000000004 440.50000000000006 425.50000000000006
decision_type=2 2 2 2 2
left_child=-1 -2 3 4 -3
right_child=1 2 -4 -5 -6
leaf_value=-0.01160570491849422 0.017472693162750474 -0.0021476289164639394 0.014812216102507526 -0.005415543221212649 0.012469755553748045
leaf_weight=199 21 301 30 28 24
leaf_count=199 21 301 30 28 24
internal_value=-0.00201493 -0.000544556 -0.000822456 -0.00117564 -0.000846155
internal_weight=603 404 383 353 325
internal_count=603 404 383 353 325
is_linear=0
shrinkage=0.05


Tree=62
num_leaves=7
num_cat=0
split_feature=7 7 16 16 7 15
split_gain=1.19735 0.368268 0.255959 0.164484 0.275831 0.206847
threshold=962.50000000000011 1536.5000000000002 437.50000000000006 315.50000000000006 1185.0000000000002 10.500000000000002
decision_type=2 2 2 2 2 2
left_child=-1 2 3 5 -5 -2
right_child=1 -3 -4 4 -6 -7
leaf_value=-0.011025419672569509 0.010352627564311568 0.0039170437086995403 -0.012628760015270949 -0.024320470441683544 -0.000635589218900667 -0.039415243117003028
leaf_weight=201 37 23 31 34 250 27
leaf_count=201 37 23 31 34 250 27
internal_value=-0.00184909 -0.000273633 -0.000646439 -0.000258622 -0.000774649 0.00203125
internal_weight=603 402 379 348 284 64
internal_count=603 402 379 348 284 64
is_linear=0
shrinkage=0.05


Tree=63
num_leaves=8
num_cat=0
split_feature=15 16 0 15 1 15 0
split_gain=1.1183 0.283342 0.317409 0.274022 0.219139 0.198019 0.244309
threshold=1.0000000180025095e-35 315.50000000000006 9.5000000000000018 10.500000000000002 1.5000000000000002 20.500000000000004 1.5000000000000002
decision_type=2 2 2 2 2 2 2
left_child=-1 3 5 -2 -4 6 -3
right_child=1 2 4 -5 -6 -7 -8
leaf_value=-0.010474148688941034 0.0077528523039007216 0.020435084572819413 0.028892152397564336 -0.037444480961152875 -0.0030370511036170453 0.041570771536357104 -0.0054176912608638952
leaf_weight=199 39 27 22 27 31 27 231
leaf_count=199 39 27 22 27 31 27 231
internal_value=-0.00193201 -0.000420793 -0.00100592 0.00257576 0.00254717 -0.00166667 -0.00209302
internal_weight=603 404 338 66 53 285 258
internal_count=603 404 338 66 53 285 258
is_linear=0
shrinkage=0.05


Tree=64
num_leaves=7
num_cat=0
split_feature=7 7 16 16 7 15
split_gain=1.19735 0.368268 0.255959 0.164484 0.275831 0.206847
threshold=962.50000000000011 1536.5000000000002 437.50000000000006 315.50000000000006 1185.0000000000002 10.500000000000002
decision_type=2 2 2 2 2 2
left_child=-1 2 3 5 -5 -2
right_child=1 -3 -4 4 -6 -7
leaf_value=-0.0099504412544939823 0.009447353570900964 0.0021125388067403934 -0.013019075318581097 -0.023203559778667716 -0.0010410272655079875 -0.035572256913095256
leaf_weight=201 37 23 31 34 250 27
leaf_count=201 37 23 31 34 250 27
internal_value=-0.00184909 -0.000273633 -0.000646439 -0.000258622 -0.000774649 0.00203125
internal_weight=603 402 379 348 284 64
internal_count=603 402 379 348 284 64
is_linear=0
shrinkage=0.05


Tree=65
num_leaves=7
num_cat=0
split_feature=15 7 16 15 16 7
split_gain=1.17956 0.370967 0.302499 0.214286 0.200705 0.247675
threshold=1.0000000180025095e-35 1536.5000000000002 301.00000000000006 8.5000000000000018 437.50000000000006 1185.0000000000002
decision_type=2 2 2 2 2 2
left_child=-1 2 3 -2 5 -4
right_child=1 -3 4 -5 -6 -7
leaf_value=-0.0094529191917692833 -0.0021578654332108501 0.0020069118664033932 -0.021055590799614769 0.0056584220010572235 -0.012368121552652024 -0.00083832065591992226
leaf_weight=199 21 23 50 21 31 258
leaf_count=199 21 23 50 21 31 258
internal_value=-0.00184909 -0.000297031 -0.000669293 0.00333333 -0.00116519 -0.000779222
internal_weight=603 404 381 42 339 308
internal_count=603 404 381 42 339 308
is_linear=0
shrinkage=0.05


Tree=66
num_leaves=9
num_cat=0
split_feature=7 0 16 16 15 15 0 16
split_gain=1.07463 0.226689 0.339003 0.286185 0.325159 0.198019 0.244309 0.1
threshold=962.50000000000011 9.5000000000000018 353.50000000000006 315.50000000000006 10.500000000000002 20.500000000000004 1.5000000000000002 394.50000000000006
decision_type=2 2 2 2 2 2 2 2
left_child=-1 3 -3 4 -2 6 -5 -4
right_child=1 2 7 5 -6 -7 -8 -9
leaf_value=-0.0089802732321808184 0.012186301763740302 -0.016553073770716839 0.032446028583735541 0.019507297740249792 -0.036355894984434936 0.039406236211844275 -0.0043709254446078474 0.0076586364868760958
leaf_weight=201 34 22 20 27 21 27 231 20
leaf_count=201 34 22 20 27 21 27 231 20
internal_value=-0.00201493 -0.000522389 0.00225806 -0.00102941 0.00227273 -0.00166667 -0.00209302 0.005
internal_weight=603 402 62 340 55 285 258 40
internal_count=603 402 62 340 55 285 258 40
is_linear=0
shrinkage=0.05


Tree=67
num_leaves=7
num_cat=0
split_feature=15 7 16 15 7 16
split_gain=1.1183 0.386007 0.363995 0.274022 0.185912 0.291548
threshold=1.0000000180025095e-35 1536.5000000000002 315.50000000000006 10.500000000000002 1185.0000000000002 356.50000000000006
decision_type=2 2 2 2 2 2
left_child=-1 2 3 -2 -4 -6
right_child=1 -3 4 -5 5 -7
leaf_value=-0.0085312595705717784 0.0063386383427677731 0.00037402722715731458 -0.020589323273397249 -0.031319125588735473 0.049851305803661414 -0.0027216216609569203
leaf_weight=199 39 23 34 27 56 225
leaf_count=199 39 23 34 27 56 225
internal_value=-0.00193201 -0.000420793 -0.000800526 0.00257576 -0.00150794 -0.00108541
internal_weight=603 404 381 66 315 281
internal_count=603 404 381 66 315 281
is_linear=0
shrinkage=0.05


Tree=68
num_leaves=8
num_cat=0
split_feature=15 15 7 16 4 7 7
split_gain=1.26549 0.433156 0.442847 0.214843 0.221922 0.0676471 0.116667
threshold=8.5000000000000018 9.5000000000000018 1536.5000000000002 437.50000000000006 1.5000000000000002 1059.5000000000002 1161.0000000000002
decision_type=2 2 2 2 2 2 2
left_child=5 -2 3 4 -3 -1 -7
right_child=1 2 -4 -5 -6 6 -8
leaf_value=-0.0081046965920431903 0.0028807014299778448 0.0083248637793882883 0.00037814921523541954 -0.011684155010699474 -0.0049881734149629028 0.0012237800048933657 -0.041633731475474334
leaf_weight=207 27 64 22 30 205 20 28
leaf_count=207 27 64 22 30 205 20 28
internal_value=-0.00193201 2.87344e-05 -0.000482867 -0.000986623 -0.000539035 -0.00460784 -0.00291667
internal_weight=603 348 321 299 269 255 48
internal_count=603 348 321 299 269 255 48
is_linear=0
shrinkage=0.05


Tree=69
num_leaves=6
num_cat=0
split_feature=7 7 16 16 0
split_gain=1.01575 0.414363 0.211537 0.128557 0.24291
threshold=962.50000000000011 1536.5000000000002 437.50000000000006 423.50000000000006 8.5000000000000018
decision_type=2 2 2 2 2
left_child=-1 2 3 4 -2
right_child=1 -3 -4 -5 -6
leaf_value=-0.0076994617624410308 -0.0035954644268390633 0.00033641840503765105 -0.012004790674497339 0.0091145054285305619 0.0072610760736453624
leaf_weight=201 255 23 31 26 67
leaf_count=201 255 23 31 26 67
internal_value=-0.00209785 -0.000646767 -0.00104222 -0.000689656 -0.000962734
internal_weight=603 402 379 348 322
internal_count=603 402 379 348 322
is_linear=0
shrinkage=0.05


Tree=70
num_leaves=7
num_cat=0
split_feature=15 7 16 15 16 7
split_gain=1.1183 0.386007 0.32266 0.214286 0.185563 0.223337
threshold=1.0000000180025095e-35 1536.5000000000002 301.00000000000006 8.5000000000000018 437.50000000000006 1185.0000000000002
decision_type=2 2 2 2 2 2
left_child=-1 2 3 -2 5 -4
right_child=1 -3 4 -5 -6 -7
leaf_value=-0.0073144886743189801 -0.0028576347233701749 0.00031959748478577009 -0.016706154858865292 0.0076554642833584503 -0.011404551140772462 -0.00028027901200591924
leaf_weight=199 21 23 50 21 31 258
leaf_count=199 21 23 50 21 31 258
internal_value=-0.00193201 -0.000420793 -0.000800526 0.00333333 -0.00131269 -0.00094156
internal_weight=603 404 381 42 339 308
internal_count=603 404 381 42 339 308
is_linear=0
shrinkage=0.05


Tree=71
num_leaves=7
num_cat=0
split_feature=7 7 7 16 7 7
split_gain=1.13516 0.383331 0.277461 0.190249 0.182191 0.0613636
threshold=962.50000000000011 1536.5000000000002 1128.5000000000002 437.50000000000006 1185.0000000000002 1075.5000000000002
decision_type=2 2 2 2 2 2
left_child=-1 2 5 4 -4 -2
right_child=1 -3 3 -5 -6 -7
leaf_value=-0.0069487642406030311 0.012377809259210322 0.00030361761054646539 -0.014623522398342408 -0.010834323583733823 -0.00027818072190562062 0.0021084296819221834
leaf_weight=201 24 23 44 31 260 20
leaf_count=201 24 23 44 31 260 20
internal_value=-0.00193201 -0.000398011 -0.000778365 -0.00126866 -0.000888159 0.00295454
internal_weight=603 402 379 335 304 44
internal_count=603 402 379 335 304 44
is_linear=0
shrinkage=0.05


Tree=72
num_leaves=7
num_cat=0
split_feature=15 7 7 0 7 0
split_gain=1.307 0.341784 0.352201 0.303246 0.209921 0.204849
threshold=1.0000000180025095e-35 1536.5000000000002 1128.5000000000002 11.500000000000002 1461.5000000000002 5.5000000000000009
decision_type=2 2 2 2 2 2
left_child=-1 2 5 4 -4 -2
right_child=1 -3 3 -5 -6 -7
leaf_value=-0.0066013260285728795 0.021994169287031209 0.00028843673001914414 -0.0012028943949032092 0.006579272739665791 -0.020199042947723646 -0.0071539246001795856
leaf_weight=199 20 23 280 20 35 26
leaf_count=199 20 23 280 20 35 26
internal_value=-0.00168325 -4.95061e-05 -0.000406825 -0.00097015 -0.00134921 0.00369565
internal_weight=603 404 381 335 315 46
internal_count=603 404 381 335 315 46
is_linear=0
shrinkage=0.05


Tree=73
num_leaves=7
num_cat=0
split_feature=7 7 0 4 16 15
split_gain=1.26119 0.353506 0.256832 0.18743 0.281495 0.200684
threshold=962.50000000000011 1536.5000000000002 11.500000000000002 1.5000000000000002 301.00000000000006 11.500000000000002
decision_type=2 2 2 2 2 2
left_child=-1 2 3 5 -5 -2
right_child=1 -3 -4 4 -6 -7
leaf_value=-0.006271259727144235 -0.025219607163255931 0.00027401489351820224 0.0062503091026824987 0.013459398018043637 -0.010101915575033081 0.017869628744033639
leaf_weight=201 22 23 20 31 249 57
leaf_count=201 22 23 20 31 249 57
internal_value=-0.00176617 -0.000149255 -0.000514513 -0.000821728 -0.00142857 0.00132911
internal_weight=603 402 379 359 280 79
internal_count=603 402 379 359 280 79
is_linear=0
shrinkage=0.05


Tree=74
num_leaves=10
num_cat=0
split_feature=7 7 1 7 15 7 3 4 7
split_gain=1.26119 0.353506 0.267759 0.326558 0.446948 0.264813 0.187546 0.120008 0.106514
threshold=962.50000000000011 1536.5000000000002 1.5000000000000002 1271.5000000000002 10.500000000000002 1146.5000000000002 1.0000000180025095e-35 2.5000000000000004 1085.5000000000002
decision_type=2 2 2 2 2 2 2 2 2
left_child=-1 2 3 6 -5 8 -2 -7 -4
right_child=1 -3 5 4 -6 7 -8 -9 -10
leaf_value=-0.0059576967407870239 0.0045552718205006176 0.00026031414884227595 -0.015878137443642134 -0.037888095435821202 0.018220722349232867 -0.0054841698118032745 -0.022196703200666117 -0.0069874348458346756 0.007362388122406179
leaf_weight=201 21 23 22 23 63 83 39 107 21
leaf_count=201 21 23 22 23 63 83 39 107 21
internal_value=-0.00176617 -0.000149255 -0.000514513 0.00116438 0.00313953 -0.00156652 -0.00166667 -0.00236842 0.00197674
internal_weight=603 402 379 146 86 233 60 190 43
internal_count=603 402 379 146 86 233 60 190 43
is_linear=0
shrinkage=0.05


Tree=75
num_leaves=7
num_cat=0
split_feature=7 7 0 16 16 0
split_gain=1.19735 0.368268 0.269267 0.147842 0.218428 0.156908
threshold=962.50000000000011 1536.5000000000002 11.500000000000002 394.50000000000006 420.50000000000006 8.5000000000000018
decision_type=2 2 2 2 2 2
left_child=-1 2 3 5 -5 -2
right_child=1 -3 -4 4 -6 -7
leaf_value=-0.005659811903747672 -0.00085436171651044786 0.00024729844140014155 0.0050810489552821237 -0.007987801969426455 -0.0018298895051563899 0.024045661551763683
leaf_weight=201 190 23 20 68 62 39
leaf_count=201 190 23 20 68 62 39
internal_value=-0.00184909 -0.000273633 -0.000646439 -0.000961004 -0.00230769 -0.000196508
internal_weight=603 402 379 359 130 229
internal_count=603 402 379 359 130 229
is_linear=0
shrinkage=0.05


Tree=76
num_leaves=8
num_cat=0
split_feature=15 7 16 15 7 7 7
split_gain=1.17956 0.370967 0.302499 0.214286 0.188529 0.244797 0.03
threshold=1.0000000180025095e-35 1536.5000000000002 301.00000000000006 8.5000000000000018 1185.0000000000002 1212.0000000000002 1146.5000000000002
decision_type=2 2 2 2 2 2 2
left_child=-1 2 3 -2 6 -6 -4
right_child=1 -3 4 -5 5 -7 -8
leaf_value=-0.0053768213085602888 -0.0014438494551073711 0.00023493351933015868 -0.00078552419213381527 0.0067402166812914784 0.043247623835899765 -0.0018697565156530164 -0.01855844654846326
leaf_weight=199 21 23 20 21 21 268 30
leaf_count=199 21 23 20 21 21 268 30
internal_value=-0.00184909 -0.000297031 -0.000669293 0.00333333 -0.00116519 -0.000674742 -0.004
internal_weight=603 404 381 42 339 289 50
internal_count=603 404 381 42 339 289 50
is_linear=0
shrinkage=0.05


Tree=77
num_leaves=7
num_cat=0
split_feature=7 7 16 7 7 16
split_gain=1.07463 0.398696 0.12967 0.210303 0.244797 0.0314815
threshold=962.50000000000011 1536.5000000000002 295.50000000000006 1185.0000000000002 1212.0000000000002 315.50000000000006
decision_type=2 2 2 2 2 2
left_child=-1 2 -2 5 -5 -4
right_child=1 -3 3 4 -6 -7
leaf_value=-0.0051079802431322737 0.0094682136100957565 0.00022318684336365233 -0.00025358739957218003 0.041085242644104791 -0.001776268689870371 -0.014901821649280198
leaf_weight=201 36 23 20 21 268 34
leaf_count=201 36 23 20 21 268 34
internal_value=-0.00201493 -0.000522389 -0.000910291 -0.00120991 -0.000674742 -0.00407408
internal_weight=603 402 379 343 289 54
internal_count=603 402 379 343 289 54
is_linear=0
shrinkage=0.05


Tree=78
num_leaves=7
num_cat=0
split_feature=7 7 16 7 7 16
split_gain=1.07463 0.398696 0.12967 0.210303 0.244797 0.0314815
threshold=962.50000000000011 1536.5000000000002 295.50000000000006 1185.0000000000002 1212.0000000000002 315.50000000000006
decision_type=2 2 2 2 2 2
left_child=-1 2 -2 5 -5 -4
right_child=1 -3 3 4 -6 -7
leaf_value=-0.0048525812309756604 0.0089948029295909629 0.00021202750119545352 -0.00024090802959356129 0.039030980511899564 -0.001687455255376831 -0.014156730566816187
leaf_weight=201 36 23 20 21 268 34
leaf_count=201 36 23 20 21 268 34
internal_value=-0.00201493 -0.000522389 -0.000910291 -0.00120991 -0.000674742 -0.00407408
internal_weight=603 402 379 343 289 54
internal_count=603 402 379 343 289 54
is_linear=0
shrinkage=0.05


Tree=79
num_leaves=7
num_cat=0
split_feature=15 7 0 7 16 15
split_gain=1.17956 0.370967 0.271372 0.272085 0.269462 0.125259
threshold=1.0000000180025095e-35 1536.5000000000002 11.500000000000002 1128.5000000000002 326.50000000000006 8.5000000000000018
decision_type=2 2 2 2 2 2
left_child=-1 2 3 5 -5 -2
right_child=1 -3 -4 4 -6 -7
leaf_value=-0.0046099521694268767 -0.00024812773586869416 0.0002014261261356824 0.0049409876538030438 -0.011104564625567021 -0.0016030824926079837 0.052952036492117042
leaf_weight=199 21 23 20 47 268 25
leaf_count=199 21 23 20 47 268 25
internal_value=-0.00184909 -0.000297031 -0.000669293 -0.000983381 -0.00150794 0.00260869
internal_weight=603 404 381 361 315 46
internal_count=603 404 381 361 315 46
is_linear=0
shrinkage=0.05


Tree=80
num_leaves=9
num_cat=0
split_feature=7 4 7 16 0 0 0 7
split_gain=1.07463 0.234353 0.590696 0.437769 0.225 0.193107 0.177785 0.0508093
threshold=962.50000000000011 1.5000000000000002 1340.5000000000002 301.00000000000006 5.5000000000000009 10.500000000000002 1.5000000000000002 1230.5000000000002
decision_type=2 2 2 2 2 2 2 2
left_child=-1 2 7 -3 -4 6 -5 -2
right_child=1 3 4 5 -6 -7 -8 -9
leaf_value=-0.0043794545609555325 -0.016702095621702162 0.010983531815074199 0.0064891242407655427 0.013789293106821586 0.0010495081163516746 0.0023748049813963009 -0.0097499455299301357 0.0013412737494256867
leaf_weight=201 29 32 20 32 20 28 221 20
leaf_count=201 29 32 20 32 20 28 221 20
internal_value=-0.00201493 -0.000522389 0.00174157 -0.00116614 0.00625 -0.00179715 -0.0022332 -0.00193878
internal_weight=603 402 89 313 40 281 253 49
internal_count=603 402 89 313 40 281 253 49
is_linear=0
shrinkage=0.05


Tree=81
num_leaves=11
num_cat=0
split_feature=7 0 0 14 7 1 4 1 15 7
split_gain=1.13516 0.194274 0.309031 0.278161 0.354286 0.196369 0.43573 0.183511 0.127205 0.156735
threshold=962.50000000000011 8.5000000000000018 3.5000000000000004 12.930232558139537 1315.5000000000002 1.5000000000000002 2.5000000000000004 3.5000000000000004 8.5000000000000018 1435.5000000000002
decision_type=2 2 2 2 2 2 2 2 2 2
left_child=-1 2 3 4 -2 -3 -7 -5 -4 -10
right_child=1 5 8 7 -6 6 -8 -9 9 -11
leaf_value=-0.0041604818329077564 -0.0061951228890380298 0.02833607142627911 -0.034328921286183124 -0.010005950623231043 0.029687004758186277 -0.010734041592811848 0.0091008040688908345 0.00040253854640737684 -0.00099714530149167891 -0.012939155520850211
leaf_weight=201 39 30 32 23 28 24 27 24 147 28
leaf_count=201 39 30 32 23 28 24 27 24 147 28
internal_value=-0.00193201 -0.000398011 -0.000950157 0.00114035 0.00320895 0.00179012 -9.80404e-05 -0.00180851 -0.00210145 -0.00157143
internal_weight=603 402 321 114 67 81 51 47 207 175
internal_count=603 402 321 114 67 81 51 47 207 175
is_linear=0
shrinkage=0.05


Tree=82
num_leaves=7
num_cat=0
split_feature=7 0 16 16 4 7
split_gain=1.13516 0.245313 0.193119 0.335303 0.188632 0.0267442
threshold=962.50000000000011 11.500000000000002 440.50000000000006 425.50000000000006 1.5000000000000002 1487.5000000000002
decision_type=2 2 2 2 2 2
left_child=-1 2 3 4 -2 -4
right_child=1 -3 5 -5 -6 -7
leaf_value=-0.0039524577412623687 0.0003069487703401122 0.00321152691265905 -0.010504801995740186 0.015372909787939646 -0.0080975090783434629 -0.00085427950350337148
leaf_weight=201 68 20 23 24 247 20
leaf_count=201 68 20 23 24 247 20
internal_value=-0.00193201 -0.000398011 -0.000680629 -0.000280237 -0.000714287 -0.00383721
internal_weight=603 402 382 339 315 43
internal_count=603 402 382 339 315 43
is_linear=0
shrinkage=0.05


Tree=83
num_leaves=9
num_cat=0
split_feature=7 0 4 7 16 16 0 0
split_gain=1.26119 0.223224 0.166556 0.439387 0.236549 0.268132 0.157924 0.0428094
threshold=962.50000000000011 11.500000000000002 1.5000000000000002 1340.5000000000002 392.50000000000006 420.50000000000006 3.5000000000000004 6.5000000000000009
decision_type=2 2 2 2 2 2 2 2
left_child=-1 2 3 7 6 -6 -4 -2
right_child=1 -3 4 -5 5 -7 -8 -9
leaf_value=-0.0037548348541992503 -0.0016737156562737197 0.0030509505670261155 0.016146634506356766 0.0033741096143071955 -0.043350583369245972 -0.0010429464277381818 -0.0013892506013314452 -0.0041528135601748284
leaf_weight=201 26 20 45 38 61 65 127 20
leaf_count=201 26 20 45 38 61 65 127 20
internal_value=-0.00176617 -0.000149255 -0.000418849 0.00154762 -0.000973156 -0.00261905 0.000232557 -0.00173913
internal_weight=603 402 382 84 298 126 172 46
internal_count=603 402 382 84 298 126 172 46
is_linear=0
shrinkage=0.05


Tree=84
num_leaves=8
num_cat=0
split_feature=7 0 0 15 15 16 16
split_gain=1.19735 0.234138 0.185658 0.181323 0.206757 0.160355 0.267383
threshold=962.50000000000011 11.500000000000002 3.5000000000000004 18.500000000000004 14.500000000000002 440.50000000000006 420.50000000000006
decision_type=2 2 2 2 2 2 2
left_child=-1 2 3 4 -2 6 -4
right_child=1 -3 5 -5 -6 -7 -8
leaf_value=-0.0035670931114892878 0.00016800991864478771 0.0028984030386748163 -0.0039866340503046886 -0.0088263694919977573 0.039551335854113995 -0.0066571592444154854 0.01455473556532021
leaf_weight=201 69 20 221 23 22 26 21
leaf_count=201 69 20 221 23 22 26 21
internal_value=-0.00184909 -0.000273633 -0.000549739 0.00114035 0.00214286 -0.00126866 -0.00086777
internal_weight=603 402 382 114 91 268 242
internal_count=603 402 382 114 91 268 242
is_linear=0
shrinkage=0.05


Tree=85
num_leaves=10
num_cat=0
split_feature=7 16 4 7 0 0 0 0 4
split_gain=1.26119 0.270147 0.234493 0.325685 0.144326 0.122413 0.1 0.0281069 0.025
threshold=962.50000000000011 301.00000000000006 1.5000000000000002 1340.5000000000002 10.500000000000002 1.5000000000000002 5.5000000000000009 6.5000000000000009 3.5000000000000004
decision_type=2 2 2 2 2 2 2 2 2
left_child=-1 8 3 7 5 -4 -5 -3 -2
right_child=1 2 4 6 -6 -7 -8 -9 -10
leaf_value=-0.0033887384559148238 0.0021959741987559261 -0.00084089150439570388 0.010766572103796121 0.0049616510965801389 0.0018466524389293825 -0.0085389171263904034 0.0010621687588915824 -0.0037458411796508218 0.0044908905416848931
leaf_weight=201 20 21 32 20 28 221 20 20 20
leaf_count=201 20 21 32 20 28 221 20 20 20
internal_value=-0.00176617 -0.000149255 -0.000580112 0.00179012 -0.00126335 -0.00164032 0.005 -0.00134146 0.00375
internal_weight=603 402 362 81 281 253 40 41 40
internal_count=603 402 362 81 281 253 40 41 40
is_linear=0
shrinkage=0.05


Tree=86
num_leaves=8
num_cat=0
split_feature=7 16 16 16 16 0 7
split_gain=1.13516 0.256716 0.262874 0.188069 0.179682 0.126635 0.0282609
threshold=962.50000000000011 440.50000000000006 425.50000000000006 394.50000000000006 384.50000000000006 5.5000000000000009 1487.5000000000002
decision_type=2 2 2 2 2 2 2
left_child=-1 2 3 4 -2 -5 -3
right_child=1 6 -4 5 -6 -7 -8
leaf_value=-0.0032193015331190827 -0.00016651968517630554 -0.0044201257369176107 0.013426004519881119 -0.0067144569222835175 0.013392317520885941 -0.017701106207302458 -7.8356101790302363e-05
leaf_weight=201 213 26 25 49 27 42 20
leaf_count=201 213 26 25 49 27 42 20
internal_value=-0.00193201 -0.000398011 5.61786e-05 -0.000317222 0.000416665 -0.00225275 -0.00391304
internal_weight=603 402 356 331 240 91 46
internal_count=603 402 356 331 240 91 46
is_linear=0
shrinkage=0.05


Tree=87
num_leaves=9
num_cat=0
split_feature=7 0 16 16 16 7 7 7
split_gain=1.26119 0.223224 0.176046 0.202724 0.183106 0.181818 0.163468 0.0291005
threshold=962.50000000000011 11.500000000000002 394.50000000000006 384.50000000000006 414.50000000000006 1399.0000000000002 1325.0000000000002 1413.0000000000002
decision_type=2 2 2 2 2 2 2 2
left_child=-1 2 3 6 7 -6 -2 -4
right_child=1 -3 4 -5 5 -7 -8 -9
leaf_value=-0.0030583364564631282 -0.0067027298129066805 0.0034453119090809754 -0.032908544026778154 0.013601257658815681 0.002233987204612378 -0.0026508463390923966 0.0017999691246594306 -0.0070385039714563032
leaf_weight=201 173 20 33 26 24 75 30 21
leaf_count=201 173 20 33 26 24 75 30 21
internal_value=-0.00176617 -0.000149255 -0.000418849 0.000458514 -0.00173203 -0.000454547 -7.38928e-05 -0.00407408
internal_weight=603 402 382 229 153 99 203 54
internal_count=603 402 382 229 153 99 203 54
is_linear=0
shrinkage=0.05


Tree=88
num_leaves=12
num_cat=0
split_feature=7 1 7 15 16 1 7 7 1 7 7
split_gain=1.46269 0.277256 0.29796 0.567882 0.280986 0.224724 0.240168 0.222426 0.15 0.119757 0.111111
threshold=962.50000000000011 1.5000000000000002 1271.5000000000002 10.500000000000002 315.50000000000006 3.5000000000000004 1413.0000000000002 1355.5000000000002 1.0000000180025095e-35 1399.0000000000002 1085.5000000000002
decision_type=2 2 2 2 2 2 2 2 2 2 2
left_child=-1 2 8 -4 10 9 -7 -5 -2 -6 -3
right_child=1 4 3 7 5 6 -8 -9 -10 -11 -12
leaf_value=-0.0029054196336399719 -0.025637539426262363 -0.0092913084555451223 -0.035250729149559873 0.016435416737130722 -0.0075679492879620744 -0.0037523005203163786 0.0073229987652325308 0.010118796350604633 0.00037539620541255075 -0.022135350749473134 0.0023977930573844735
leaf_weight=201 30 20 24 32 77 48 35 36 30 45 25
leaf_count=201 30 20 24 32 77 48 35 36 30 45 25
internal_value=-0.00151741 0.000223879 0.00190789 0.00369565 -0.000800001 -0.00158537 0.000421686 0.00602941 -0.000833335 -0.00295082 0.00277778
internal_weight=603 402 152 92 250 205 83 68 60 122 45
internal_count=603 402 152 92 250 205 83 68 60 122 45
is_linear=0
shrinkage=0.05


Tree=89
num_leaves=8
num_cat=0
split_feature=7 16 15 7 16 16 7
split_gain=1.13516 0.313832 0.315378 0.241222 0.243868 0.272549 0.0282609
threshold=962.50000000000011 315.50000000000006 10.500000000000002 1185.0000000000002 440.50000000000006 425.50000000000006 1487.5000000000002
decision_type=2 2 2 2 2 2 2
left_child=-1 2 -2 -3 5 -5 -6
right_child=1 3 -4 4 6 -7 -8
leaf_value=-0.0027601486519579733 0.0048692058453829561 -0.011844052002943745 -0.025281546966433744 -0.00095502711088325722 -0.0045533373791832761 0.012521096672580063 -0.00043385687267370938
leaf_weight=201 37 34 27 233 26 25 20
leaf_count=201 37 34 27 233 26 25 20
internal_value=-0.00193201 -0.000398011 0.0028125 -0.00100592 -0.000559212 3.87585e-05 -0.00391304
internal_weight=603 402 64 338 304 258 46
internal_count=603 402 64 338 304 258 46
is_linear=0
shrinkage=0.05


Tree=90
num_leaves=10
num_cat=0
split_feature=7 7 7 4 7 7 7 7 7
split_gain=1.3267 0.26208 0.234416 0.2099 0.316113 0.429501 0.180081 0.51755 0.200784
threshold=962.50000000000011 1146.5000000000002 1104.5000000000002 1.5000000000000002 1335.5000000000002 1426.0000000000002 1331.5000000000002 1290.5000000000002 1380.5000000000002
decision_type=2 2 2 2 2 2 2 2 2
left_child=-1 2 -2 4 -3 -6 7 -5 -8
right_child=1 3 -4 6 5 -7 8 -9 -10
leaf_value=-0.002622141219360075 0.0014497929660456114 -0.0037098593775222867 0.00095460985549531004 -0.0077395277471334961 0.011470278607508794 -0.00024833408750427532 -0.026067728999272038 0.002439881487132119 -0.0031107126868007719
leaf_weight=201 35 32 20 91 20 21 48 33 102
leaf_count=201 35 32 20 91 20 21 48 33 102
internal_value=-0.00168325 -2.48768e-05 0.00318182 -0.000533142 0.00184931 0.0047561 -0.00116788 0.000241934 -0.00233333
internal_weight=603 402 55 347 73 41 274 124 150
internal_count=603 402 55 347 73 41 274 124 150
is_linear=0
shrinkage=0.05


Tree=91
num_leaves=10
num_cat=0
split_feature=7 7 1 4 15 0 0 7 16
split_gain=1.26119 0.284545 0.329795 0.505536 0.225257 0.181096 0.162079 0.155556 0.154582
threshold=962.50000000000011 1161.0000000000002 1.5000000000000002 2.5000000000000004 12.500000000000002 1.5000000000000002 6.5000000000000009 1104.5000000000002 414.50000000000006
decision_type=2 2 2 2 2 2 2 2 2
left_child=-1 7 3 6 -5 -4 -3 -2 -7
right_child=1 2 5 4 -6 8 -8 -9 -10
leaf_value=-0.0024910341583920712 0.0013773033177433239 0.0010450137863733174 0.017582523769583493 -0.023351610752588851 0.0080037180185408563 -0.0080441007618059553 0.048179156763204146 0.0006019824552892149 -0.00026498141189723118
leaf_weight=201 35 33 20 43 39 112 23 28 69
leaf_count=201 35 33 20 43 39 112 23 28 69
internal_value=-0.00176617 -0.000149255 -0.000722715 0.00115942 -0.00134146 -0.00201493 0.00482143 0.00293651 -0.00251381
internal_weight=603 402 339 138 82 201 56 63 181
internal_count=603 402 339 138 82 201 56 63 181
is_linear=0
shrinkage=0.05


Tree=92
num_leaves=8
num_cat=0
split_feature=7 16 16 7 4 7 7
split_gain=1.13516 0.256716 0.262874 0.217282 0.200584 0.0613636 0.0282609
threshold=962.50000000000011 440.50000000000006 425.50000000000006 1128.5000000000002 1.5000000000000002 1075.5000000000002 1487.5000000000002
decision_type=2 2 2 2 2 2 2
left_child=-1 2 3 5 -5 -2 -3
right_child=1 6 -4 4 -6 -7 -8
leaf_value=-0.0023664824504724675 0.011170108220859051 -0.0037387669876423005 0.011706875929635138 0.0004124218988981786 -0.0058865059929469601 0.001490557279163847 -0.00062978281392325232
leaf_weight=201 24 26 25 59 228 20 20
leaf_count=201 24 26 25 59 228 20 20
internal_value=-0.00193201 -0.000398011 5.61786e-05 -0.000317222 -0.000818817 0.00295454 -0.00391304
internal_weight=603 402 356 331 287 44 46
internal_count=603 402 356 331 287 44 46
is_linear=0
shrinkage=0.05


Tree=93
num_leaves=10
num_cat=0
split_feature=7 7 7 1 4 7 15 16 16
split_gain=1.39386 0.242144 0.234416 0.200234 0.460946 0.245372 0.225257 0.221183 0.287913
threshold=962.50000000000011 1146.5000000000002 1104.5000000000002 1.5000000000000002 2.5000000000000004 1290.5000000000002 12.500000000000002 440.50000000000006 425.50000000000006
decision_type=2 2 2 2 2 2 2 2 2
left_child=-1 2 -2 4 5 -3 -6 8 -5
right_child=1 3 -4 7 6 -7 -8 -9 -10
leaf_value=-0.002248158327948844 0.0010403188767406674 -0.0031757724201890939 0.00083913752526971553 -0.0058405973070196583 -0.021889704915312041 0.017158862741895538 0.007897857417261173 -0.010257253155297377 0.0096404147570768386
leaf_weight=201 35 20 20 152 43 38 39 35 20
leaf_count=201 35 20 20 152 43 38 39 35 20
internal_value=-0.00160033 9.95013e-05 0.00318182 -0.00038905 0.00107143 0.00448276 -0.00134146 -0.00137681 -0.000639536
internal_weight=603 402 55 347 140 58 82 207 172
internal_count=603 402 55 347 140 58 82 207 172
is_linear=0
shrinkage=0.05


Tree=94
num_leaves=9
num_cat=0
split_feature=7 4 15 16 7 0 14 16
split_gain=1.46269 0.31898 0.76745 0.595853 0.341414 0.125855 0.206195 0.205788
threshold=962.50000000000011 1.5000000000000002 11.500000000000002 301.00000000000006 1335.5000000000002 3.5000000000000004 12.930232558139537 373.50000000000006
decision_type=2 2 2 2 2 2 2 2
left_child=-1 2 -2 -3 -4 6 -5 -7
right_child=1 3 4 5 -6 7 -8 -9
leaf_value=-0.002135750411551402 -0.011222094977615638 0.0098839833859873955 0.0025967311144770968 0.0084132334550912173 0.0024138128529324052 -0.0009727429459684356 -0.012702561808993141 -0.010396146746644153
leaf_weight=201 23 32 30 46 36 80 38 117
leaf_count=201 23 32 30 46 36 80 38 117
internal_value=-0.00151741 0.000223879 0.00286517 -0.000527158 0.00560606 -0.00126335 0.000357142 -0.00195432
internal_weight=603 402 89 313 66 281 84 197
internal_count=603 402 89 313 66 281 84 197
is_linear=0
shrinkage=0.05


Tree=95
num_leaves=10
num_cat=0
split_feature=15 4 7 15 7 0 4 1 7
split_gain=1.39699 0.472851 0.429244 0.305871 0.152206 0.148663 0.145833 0.133919 0.1
threshold=8.5000000000000018 1.5000000000000002 1335.5000000000002 9.5000000000000018 1059.5000000000002 1.5000000000000002 2.5000000000000004 1.5000000000000002 1426.0000000000002
decision_type=2 2 2 2 2 2 2 2 2
left_child=4 2 -2 -3 -1 -5 -6 -7 -4
right_child=1 3 8 5 6 7 -8 -9 -10
leaf_value=-0.0020289628909738316 -0.0023182194974653335 0.005097528720863706 0.0077242216115937234 0.012516048202470721 -0.025014955995231833 -2.1160744243004743e-05 0.0010351769521655112 -0.015932608048013549 0.00021290472911284438
leaf_weight=207 39 26 20 27 21 78 27 138 20
leaf_count=207 39 26 20 27 21 78 27 138 20
internal_value=-0.00160033 0.000459769 0.00386076 -0.000539035 -0.00441177 -0.00109054 -0.001875 -0.00152778 0.0075
internal_weight=603 348 79 269 255 243 48 216 40
internal_count=603 348 79 269 255 243 48 216 40
is_linear=0
shrinkage=0.05


Tree=96
num_leaves=10
num_cat=0
split_feature=7 16 4 7 7 7 16 0 4
split_gain=1.39386 0.236778 0.462445 0.328824 0.223288 0.224768 0.107375 0.025 0.025
threshold=962.50000000000011 301.00000000000006 1.5000000000000002 1340.5000000000002 1185.0000000000002 1225.5000000000002 350.50000000000006 5.5000000000000009 3.5000000000000004
decision_type=2 2 2 2 2 2 2 2 2
left_child=-1 8 3 6 -4 -6 -3 -5 -2
right_child=1 2 4 7 5 -7 -8 -9 -10
leaf_value=-0.0019275147464251402 0.0029239374511082468 0.0090433200484008498 -0.015733369729889462 0.0044615045385912487 0.035516684720917971 -0.0040425180648021516 -0.00282962695365673 0.00072327210984154684 0.0054944689541660081
leaf_weight=201 20 20 35 20 22 224 21 20 20
leaf_count=201 20 20 35 20 22 224 21 20 20
internal_value=-0.00160033 9.95013e-05 -0.000303869 0.00302469 -0.00126335 -0.000731709 -0.000121952 0.00625 0.00375
internal_weight=603 402 362 81 281 246 41 40 40
internal_count=603 402 362 81 281 246 41 40 40
is_linear=0
shrinkage=0.05


Tree=97
num_leaves=10
num_cat=0
split_feature=7 16 1 7 16 3 16 16 4
split_gain=1.26119 0.270147 0.239016 0.325679 0.453215 0.236014 0.135747 0.378857 0.025
threshold=962.50000000000011 301.00000000000006 1.5000000000000002 1278.0000000000002 371.00000000000006 1.0000000180025095e-35 446.50000000000006 414.50000000000006 3.5000000000000004
decision_type=2 2 2 2 2 2 2 2 2
left_child=-1 8 3 5 -5 -3 7 -4 -2
right_child=1 2 6 4 -6 -7 -8 -9 -10
leaf_value=-0.0018311390091038831 0.002777740578552854 0.0012836889270391517 -0.0067665191425171998 0.050909737958859891 0.00018202324922594762 -0.023449239549270987 -0.0096211129153868542 0.001933364327367565 0.0052197455064577165
leaf_weight=201 20 22 141 21 68 30 26 54 20
leaf_count=201 20 22 141 21 68 30 26 54 20
internal_value=-0.00176617 -0.000149255 -0.000580112 0.00102837 0.00286517 -0.00211539 -0.00160634 -0.00115385 0.00375
internal_weight=603 402 362 141 89 52 221 195 40
internal_count=603 402 362 141 89 52 221 195 40
is_linear=0
shrinkage=0.05


Tree=98
num_leaves=8
num_cat=0
split_feature=7 4 15 16 7 0 0
split_gain=1.53317 0.289646 0.76745 0.566769 0.341414 0.129641 0.162943
threshold=962.50000000000011 1.5000000000000002 11.500000000000002 301.00000000000006 1335.5000000000002 10.500000000000002 3.5000000000000004
decision_type=2 2 2 2 2 2 2
left_child=-1 2 -2 -3 -4 6 -5
right_child=1 3 4 5 -6 -7 -8
leaf_value=-0.0017395820586486891 -0.01191720296513598 0.0088871541980919209 0.0024880790508400837 -0.00054709742701123027 0.001894761115923361 0.0010230942697435328 -0.004428787154063708
leaf_weight=201 23 32 30 84 36 28 169
leaf_count=201 23 32 30 84 36 28 169
internal_value=-0.0014345 0.000348258 0.00286517 -0.000367413 0.00560606 -0.00108541 -0.00144269
internal_weight=603 402 89 313 66 281 253
internal_count=603 402 89 313 66 281 253
is_linear=0
shrinkage=0.05


Tree=99
num_leaves=10
num_cat=0
split_feature=7 4 7 16 7 16 7 16 0
split_gain=1.60531 0.39907 0.756463 0.417154 0.140011 0.619132 0.254118 0.0701449 0.0392567
threshold=962.50000000000011 1.5000000000000002 1335.5000000000002 295.50000000000006 1331.5000000000002 384.50000000000006 1380.5000000000002 339.50000000000006 5.5000000000000009
decision_type=2 2 2 2 2 2 2 2 2
left_child=-1 2 7 -3 5 -5 -6 -2 -4
right_child=1 3 8 4 6 -7 -8 -9 -10
leaf_value=-0.0016526029557162548 -0.015506071970081779 0.011042080927220173 0.0043220940182731151 -0.0042373121586830884 -0.021721082420128265 0.0020683516377249661 -0.0024192184677218685 -0.0011224487323124109 0.00028672324387919083
leaf_weight=201 23 29 20 110 48 24 102 25 21
leaf_count=201 23 29 20 110 48 24 102 25 21
internal_value=-0.00135158 0.000472636 0.00342697 -0.000367413 -0.000950705 0.000223879 -0.002 -0.000833335 0.00841463
internal_weight=603 402 89 313 284 134 150 48 41
internal_count=603 402 89 313 284 134 150 48 41
is_linear=0
shrinkage=0.05


Tree=100
num_leaves=10
num_cat=0
split_feature=7 16 7 7 7 7 7 0 0
split_gain=1.3267 0.318146 0.257225 0.208333 0.153071 0.246951 0.0613636 0.0272727 0.025
threshold=962.50000000000011 430.50000000000006 1128.5000000000002 1463.5000000000002 1185.0000000000002 1209.5000000000002 1075.5000000000002 6.5000000000000009 3.5000000000000004
decision_type=2 2 2 2 2 2 2 2 2
left_child=-1 2 6 -3 7 -6 -2 -4 -5
right_child=1 3 4 8 5 -7 -8 -9 -10
leaf_value=-0.0015699728079304422 0.0087028571890840137 0.0040300502032389806 -0.02437233092132457 2.2488970077973485e-05 0.037699205521859777 -0.0021500796226807868 0.0019678698947711128 -0.000264336935396189 -0.0030288991944797347
leaf_weight=201 24 20 24 20 21 233 20 20 20
leaf_count=201 24 20 24 20 21 233 20 20 20
internal_value=-0.00168325 -2.48768e-05 -0.000614036 0.00333333 -0.00114094 -0.000669293 0.00295454 -0.00386364 0.00125
internal_weight=603 402 342 60 298 254 44 44 40
internal_count=603 402 342 60 298 254 44 44 40
is_linear=0
shrinkage=0.05


Tree=101
num_leaves=8
num_cat=0
split_feature=15 7 7 16 1 0 16
split_gain=1.5104 0.30025 0.287845 0.2744 0.260455 0.204849 0.0295918
threshold=1.0000000180025095e-35 1536.5000000000002 1128.5000000000002 326.50000000000006 1.5000000000000002 5.5000000000000009 310.50000000000006
decision_type=2 2 2 2 2 2 2
left_child=-1 2 5 6 -5 -2 -4
right_child=1 -3 3 4 -6 -7 -8
leaf_value=-0.0014914741675339201 0.016232252941979133 0.00016272342483229289 -0.00012590562670385493 0.00080387286952902459 -0.0046968080668332926 -0.0077763159917404569 -0.022821934546297211
leaf_weight=199 20 23 20 116 170 26 29
leaf_count=199 20 23 20 116 170 26 29
internal_value=-0.0014345 0.000321781 -1.31246e-05 -0.000522389 6.99289e-05 0.00369565 -0.00397959
internal_weight=603 404 381 335 286 46 49
internal_count=603 404 381 335 286 46 49
is_linear=0
shrinkage=0.05


Tree=102
num_leaves=6
num_cat=0
split_feature=7 7 7 16 7
split_gain=1.53317 0.29748 0.292246 0.228003 0.241615
threshold=962.50000000000011 1536.5000000000002 1471.5000000000002 430.50000000000006 1389.0000000000002
decision_type=2 2 2 2 2
left_child=-1 2 3 4 -2
right_child=1 -3 -4 -5 -6
leaf_value=-0.001416900459157224 -0.00025815509372565461 0.00015458725359066897 -0.025427412550234604 0.0017116811106624122 0.0043551683111992838
leaf_weight=201 271 23 27 25 56
leaf_count=201 271 23 27 25 56
internal_value=-0.0014345 0.000348258 1.31914e-05 0.000397726 4.58704e-05
internal_weight=603 402 379 352 327
internal_count=603 402 379 352 327
is_linear=0
shrinkage=0.05


Tree=103
num_leaves=9
num_cat=0
split_feature=7 4 7 16 16 7 16 0
split_gain=1.60531 0.39907 0.756463 0.203337 0.117243 0.25353 0.0701449 0.0392567
threshold=962.50000000000011 1.5000000000000002 1335.5000000000002 295.50000000000006 322.50000000000006 1320.5000000000002 339.50000000000006 5.5000000000000009
decision_type=2 2 2 2 2 2 2 2
left_child=-1 2 6 -3 -5 -6 -2 -4
right_child=1 3 7 4 5 -7 -8 -9
leaf_value=-0.0013460554361993627 -0.013957124618611698 0.0097656137335340367 0.005106062613241708 -0.0062642456698125326 0.00013084919596872301 -0.0035538948180597902 -0.00074222737460108738 0.00031004329932857871
leaf_weight=201 23 29 20 34 89 161 25 21
leaf_count=201 23 29 20 34 89 161 25 21
internal_value=-0.00135158 0.000472636 0.00342697 -0.000367413 -0.000774649 -0.000400001 -0.000833335 0.00841463
internal_weight=603 402 89 313 284 250 48 41
internal_count=603 402 89 313 284 250 48 41
is_linear=0
shrinkage=0.05


Tree=104
num_leaves=12
num_cat=0
split_feature=7 14 15 0 0 16 3 7 15 16 16
split_gain=1.46269 0.304003 0.317677 0.373028 0.370614 0.418176 0.363037 0.153952 0.189356 0.12868 0.241598
threshold=962.50000000000011 12.930232558139537 11.500000000000002 8.5000000000000018 2.5000000000000004 310.50000000000006 1.0000000180025095e-35 1347.5000000000002 15.500000000000002 440.50000000000006 414.50000000000006
decision_type=2 2 2 2 2 2 2 2 2 2 2
left_child=-1 2 4 6 -2 -6 -4 8 -3 10 -9
right_child=1 7 3 -5 5 -7 -8 9 -10 -11 -12
leaf_value=-0.0012787526643893946 0.004591600989567529 -0.036630667489685236 0.00083745247098055266 0.023191754209405807 0.0002490264274451207 -0.0077157396020606358 -0.0091629463672458847 -0.0067411675486322986 0.048622455702555939 -0.01423274338741954 0.0030344362734922681
leaf_weight=201 25 30 44 21 32 63 50 44 21 34 38
leaf_count=201 25 30 44 21 32 63 50 44 21 34 38
internal_value=-0.00151741 0.000223879 0.00138298 0.00326087 -0.000416668 -0.00184211 0.00191489 -0.00140719 0.000882352 -0.00241379 -0.00134146
internal_weight=603 402 235 115 120 95 94 167 51 116 82
internal_count=603 402 235 115 120 95 94 167 51 116 82
is_linear=0
shrinkage=0.05


Tree=105
num_leaves=10
num_cat=0
split_feature=7 4 7 16 0 0 14 16 16
split_gain=1.46269 0.31898 0.624283 0.342628 0.1 0.0997338 0.206195 0.155807 0.0631015
threshold=962.50000000000011 1.5000000000000002 1340.5000000000002 301.00000000000006 5.5000000000000009 3.5000000000000004 12.930232558139537 373.50000000000006 339.50000000000006
decision_type=2 2 2 2 2 2 2 2 2
left_child=-1 2 8 -3 -4 6 -5 -7 -2
right_child=1 3 4 5 -6 7 -8 -9 -10
leaf_value=-0.0012148150311699249 -0.012901125319971974 0.0062756843790533617 0.0046899518583480519 0.0082313698175712786 0.00096580034400814765 2.5650181386720206e-06 -0.010239204292493956 -0.0083356881195055157 -0.00071413445324126446
leaf_weight=201 23 32 20 46 20 80 38 117 26
leaf_count=201 23 32 20 46 20 80 38 117 26
internal_value=-0.00151741 0.000223879 0.00286517 -0.000527158 0.0075 -0.00108541 0.000357142 -0.00170051 -0.000918369
internal_weight=603 402 89 313 40 281 84 197 49
internal_count=603 402 89 313 40 281 84 197 49
is_linear=0
shrinkage=0.05


Tree=106
num_leaves=9
num_cat=0
split_feature=7 7 1 7 15 0 16 7
split_gain=1.3267 0.175436 0.270346 0.390003 0.313707 0.279349 0.175478 0.0613636
threshold=962.50000000000011 1128.5000000000002 1.5000000000000002 1199.5000000000002 10.500000000000002 10.500000000000002 414.50000000000006 1075.5000000000002
decision_type=2 2 2 2 2 2 2 2
left_child=-1 7 3 -3 -5 6 -4 -2
right_child=1 2 5 4 -6 -7 -8 -9
leaf_value=-0.0011540742796114286 0.0078549216569014941 -0.014315993903155974 -0.0068606859698607126 -0.0079063815262282629 0.015204617722717924 0.0013662445013983286 -0.0016528886476424053 0.0010585154651363983
leaf_weight=201 24 21 119 32 90 23 73 20
leaf_count=201 24 21 119 32 90 23 73 20
internal_value=-0.00168325 -2.48768e-05 -0.000391063 0.00129371 0.00237705 -0.00151163 -0.00213542 0.00295454
internal_weight=603 402 358 143 122 215 192 44
internal_count=603 402 358 143 122 215 192 44
is_linear=0
shrinkage=0.05


Tree=107
num_leaves=8
num_cat=0
split_feature=7 4 15 16 7 7 7
split_gain=1.26119 0.275039 0.66173 0.388743 0.269809 0.139012 0.448994
threshold=962.50000000000011 1.5000000000000002 11.500000000000002 301.00000000000006 1340.5000000000002 1172.5000000000002 1207.5000000000002
decision_type=2 2 2 2 2 2 2
left_child=-1 2 -2 -3 -4 -5 -7
right_child=1 3 4 5 -6 6 -8
leaf_value=-0.0010963705656308572 -0.0093690688273536642 0.0059074357302904513 0.00040620374119194175 -0.022392481291230299 0.0017058057821763076 0.024675846913925284 -0.0033324556076211919
leaf_weight=201 23 32 31 25 35 24 232
leaf_count=201 23 32 31 25 35 24 232
internal_value=-0.00176617 -0.000149255 0.00230337 -0.000846647 0.00484848 -0.00144128 -0.00109375
internal_weight=603 402 89 313 66 281 256
internal_count=603 402 89 313 66 281 256
is_linear=0
shrinkage=0.05


Tree=108
num_leaves=10
num_cat=0
split_feature=7 4 7 16 1 7 0 0 16
split_gain=1.19735 0.450463 0.624283 0.29294 0.140254 0.182729 0.123214 0.1 0.0631015
threshold=962.50000000000011 1.5000000000000002 1340.5000000000002 295.50000000000006 3.5000000000000004 1434.0000000000002 3.5000000000000004 5.5000000000000009 339.50000000000006
decision_type=2 2 2 2 2 2 2 2 2
left_child=-1 2 8 -3 6 -6 -5 -4 -2
right_child=1 3 7 4 5 -7 -8 -9 -10
leaf_value=-0.0010415520373493142 -0.011714325042770667 0.008361132984263938 0.0042082746671369192 -0.00094739290966050222 -0.030250070101937171 0.013978379795291178 -0.0033459101083226864 0.00069471625995830809 -0.00068387850727002857
leaf_weight=201 23 29 20 66 43 22 153 20 26
leaf_count=201 23 29 20 66 43 22 153 20 26
internal_value=-0.00184909 -0.000273633 0.00286517 -0.00116614 -0.00165493 0.000384614 -0.00226028 0.0075 -0.000918369
internal_weight=603 402 89 313 284 65 219 40 49
internal_count=603 402 89 313 284 65 219 40 49
is_linear=0
shrinkage=0.05


Tree=109
num_leaves=9
num_cat=0
split_feature=7 7 4 7 0 0 16 7
split_gain=1.13516 0.22213 0.220263 0.395322 0.145142 0.139726 0.1 0.0613636
