tree
version=v4
num_class=1
num_tree_per_iteration=1
label_index=0
max_feature_idx=15
objective=regression
feature_names=month dow is_holiday is_after_holiday week_of_month hour minute total_outpatient rain temp is_晴 is_曇 is_雨 is_雪 actual_arrivals daily_cum_arrivals
feature_infos=[1:12] [0:6] [0:1] [0:1] [1:5] none none [2:1699] none none none none none none [0:65] [0:459]
tree_sizes=1017 1409 1062 1153 1232 1246 1331 1160 1328 1153 909 910 1000 999 1156 909 995 1082 1091 828 910 1083 993 919 1085 1007 1089 750 1005 751 758 834 920 760 1012 1019 1017 1115 845 937 1103 1102 850 1018 847 1023 1026 1110 1113 933 1192 1194 1459 1106 1372 1193 1373 1193 1374 1204 1115 1378 1370 1378 1193 1387 1380 1380 1031 1464 1118 1201 1368 1285 1379 1291 1455 1297 1452 1362 1021 1118 1271 1023 1195 1356 940 1033 932 848 1125 853 1207 1025 1121 853 1114 1635 1121 1278 1645 763 1638 1294 1127 854 766 1203 1116 848 930 766 851 1202 1456 1115 851 1460 927 767 1290 849 1286 926 853 1199 850 1118 765 852 1206 1550 1026 1726 1811 928 1120 1114 854 851 849 1115 854 1020 856 1022 857 1646 1117 940 1017 1287 1026 1638 1023 1026 1118 1110 1648 1026 854 1119 941 938 1112 851 934 1026 1117 1033 1028 935 855 1114 940 1382 1560 1030 1120 853 938 1027 943 1552 939 933 1288 857 1119 857 1024 853 1201 940 938 857 1026 1738 852 1119 1109 948 1727 1024 1028 1113 1122 944 1643 1730 856 858 1471 1114 1813 1201 938 853 1113 1110 857 684 1109 1034 1644 861 1115 1645 945 1114 853 683 858 854 1203 1645 1115 684 767 858 1116 1736 854 950 769 1383 941 1555 1029 951 1112 682 859 1559 853 947 1030 943 1562 942 940 940 854 854 850 1557 1646 1301 1027 1127 1211 1117 1030 1215 857 941 856 1029 1029 856 856 858 854 1296 1210 939 943 1110 858 1209 1025 857 1031 857 1385 1122 855 773 861 1301

Tree=0
num_leaves=11
num_cat=0
split_feature=14 14 7 14 7 7 0 14 15 15
split_gain=362.367 11.7062 3.82339 1.58579 0.612783 0.660834 0.612114 0.452869 0.405881 0.305608
threshold=1.0000000180025095e-35 20.500000000000004 1473.5000000000002 16.500000000000004 1346.5000000000002 1256.5000000000002 9.5000000000000018 22.500000000000004 287.50000000000006 349.50000000000006
decision_type=2 2 2 2 2 2 2 2 2 2
left_child=-1 3 7 6 5 -5 8 -3 -2 -9
right_child=1 2 -4 4 -6 -7 -8 9 -10 -11
leaf_value=1.049309617063497 1.1179315687416338 1.133445877515397 1.1562647120519058 1.1318491083422191 1.1357547927801506 1.1213715569390579 1.1294198112250313 1.1373754841232577 1.1234824434091226 1.1435561767363824
leaf_weight=199 69 37 38 34 32 27 23 45 63 36
leaf_count=199 69 37 38 34 32 27 23 45 63 36
internal_value=1.10454 1.13174 1.14247 1.12499 1.13015 1.12721 1.12189 1.13803 1.12058 1.14012
internal_weight=603 404 156 248 93 61 155 118 132 81
internal_count=603 404 156 248 93 61 155 118 132 81
is_linear=0
shrinkage=1


Tree=1
num_leaves=15
num_cat=0
split_feature=14 14 7 15 7 7 15 14 14 0 1 1 0 0
split_gain=327.037 10.5648 3.45061 1.46172 0.694423 0.552134 0.422947 0.347782 0.25556 0.164363 0.119849 0.0113352 2.84217e-14 2.84217e-14
threshold=1.0000000180025095e-35 20.500000000000004 1473.5000000000002 287.50000000000006 1399.0000000000002 1261.5000000000002 335.50000000000006 14.500000000000002 23.500000000000004 5.5000000000000009 2.5000000000000004 1.5000000000000002 10.500000000000002 7.5000000000000009
decision_type=2 2 2 2 2 2 2 2 2 2 2 2 2 2
left_child=12 3 6 7 5 -5 11 9 -8 -2 -9 -3 13 -1
right_child=1 2 -4 4 -6 -7 8 10 -10 -11 -12 -13 -14 -15
leaf_value=-0.052465480566024784 0.015230547737854067 0.028479460254311563 0.049141860321948408 0.02535833520133321 0.028917641828165336 0.018051775810973985 0.030241327809876414 0.015237843050133615 0.036163303681782319 0.0097815701737999916 0.02031638617358672 0.02679607402533293 -0.052465480566024784 -0.052465480566024784
leaf_weight=139 25 20 38 41 34 70 29 21 49 31 26 20 21 39
leaf_count=139 25 20 38 41 34 70 29 21 49 31 26 20 21 39
internal_value=1.95128e-10 0.0258431 0.0360378 0.0194304 0.0226656 0.0207506 0.0318179 0.0148759 0.0339615 0.0122141 0.0180472 0.0276378 -0.0524655 -0.0524655
internal_weight=603 404 156 248 145 111 118 103 78 56 47 40 199 178
internal_count=603 404 156 248 145 111 118 103 78 56 47 40 199 178
is_linear=0
shrinkage=0.05


Tree=2
num_leaves=11
num_cat=0
split_feature=14 14 7 14 0 7 7 14 0 15
split_gain=295.151 9.53475 3.11418 1.3644 0.54787 0.51791 0.577562 0.382874 0.341679 0.253143
threshold=1.0000000180025095e-35 20.500000000000004 1473.5000000000002 16.500000000000004 9.5000000000000018 1346.5000000000002 1256.5000000000002 22.500000000000004 6.5000000000000009 349.50000000000006
decision_type=2 2 2 2 2 2 2 2 2 2
left_child=-1 3 7 4 8 6 -5 -3 -2 -9
right_child=1 2 -4 5 -6 -7 -8 9 -10 -11
leaf_value=-0.049842205643653874 0.015784312212374061 0.026012955530471095 0.046684767697986802 0.024879745432340047 0.022707553369843442 0.028398311417549851 0.01508455696274285 0.029651840064260693 0.0098483504800242379 0.03527703554266029
leaf_weight=199 100 37 38 34 23 32 27 45 32 36
leaf_count=199 100 37 38 34 23 32 27 45 32 36
internal_value=3.29438e-10 0.024551 0.0342359 0.0184588 0.0155861 0.0232467 0.0205442 0.030227 0.0143453 0.0321519
internal_weight=603 404 156 248 155 93 61 118 132 81
internal_count=603 404 156 248 155 93 61 118 132 81
is_linear=0
shrinkage=0.05


Tree=3
num_leaves=12
num_cat=0
split_feature=14 14 7 15 7 14 15 15 15 14 1
split_gain=266.373 8.60511 2.81054 1.27402 0.606504 0.637673 0.360737 0.30541 0.3609 0.207091 0.0104641
threshold=1.0000000180025095e-35 20.500000000000004 1473.5000000000002 287.50000000000006 1419.0000000000002 16.500000000000004 335.50000000000006 251.50000000000003 276.50000000000006 23.500000000000004 1.5000000000000002
decision_type=2 2 2 2 2 2 2 2 2 2 2
left_child=-1 3 6 7 5 -5 10 -2 -9 -8 -3
right_child=1 2 -4 4 -6 -7 9 8 -10 -11 -12
leaf_value=-0.047350096702575686 0.0089346575518620425 0.025663866586983206 0.044350529128783629 0.015767161417036102 0.028003958734157293 0.023012435861624242 0.027346476141748757 0.01718623309927764 0.0094410523228968188 0.032677386366591163 0.024046455388888718
leaf_weight=199 29 20 38 65 23 57 29 53 21 49 20
leaf_count=199 29 20 38 65 23 57 29 53 21 49 20
internal_value=-7.98932e-11 0.0233234 0.0325241 0.0175359 0.0205563 0.0191522 0.0287156 0.0132839 0.0149883 0.0306954 0.0248552
internal_weight=603 404 156 248 145 122 118 103 74 78 40
internal_count=603 404 156 248 145 122 118 103 74 78 40
is_linear=0
shrinkage=0.05


Tree=4
num_leaves=13
num_cat=0
split_feature=14 14 7 15 7 14 15 14 14 0 4 1
split_gain=240.402 7.76611 2.53652 1.1498 0.54737 0.5755 0.325565 0.284427 0.1869 0.094782 0.0500379 0.00944383
threshold=1.0000000180025095e-35 20.500000000000004 1473.5000000000002 287.50000000000006 1419.0000000000002 16.500000000000004 335.50000000000006 15.500000000000002 23.500000000000004 5.5000000000000009 2.5000000000000004 1.5000000000000002
decision_type=2 2 2 2 2 2 2 2 2 2 2 2
left_child=-1 3 6 7 5 -5 11 9 -8 -2 -9 -3
right_child=1 2 -4 4 -6 -7 8 10 -10 -11 -12 -13
leaf_value=-0.044982591271400453 0.012579129401793971 0.024380672946572306 0.042133001708670667 0.014978803212109669 0.026603761167548923 0.021861814142188483 0.02597915295768401 0.017596204327419401 0.031043516221095104 0.0086239896241970589 0.014140647811688146 0.022844132573809475
leaf_weight=199 28 20 38 65 23 57 29 20 49 33 22 20
leaf_count=199 28 20 38 65 23 57 29 20 49 33 22 20
internal_value=-2.66423e-11 0.0221573 0.0308979 0.0166591 0.0195285 0.0181946 0.0272799 0.0126197 0.0291606 0.0104395 0.0157862 0.0236124
internal_weight=603 404 156 248 145 122 118 103 78 61 42 40
internal_count=603 404 156 248 145 122 118 103 78 61 42 40
is_linear=0
shrinkage=0.05


Tree=5
num_leaves=13
num_cat=0
split_feature=14 14 7 15 7 14 14 15 15 15 0 0
split_gain=216.963 7.00892 2.2892 1.0377 0.494002 0.519389 0.304155 0.267583 0.328781 0.192397 2.84217e-14 2.84217e-14
threshold=1.0000000180025095e-35 20.500000000000004 1473.5000000000002 287.50000000000006 1419.0000000000002 16.500000000000004 22.500000000000004 251.50000000000003 276.50000000000006 349.50000000000006 10.500000000000002 1.5000000000000002
decision_type=2 2 2 2 2 2 2 2 2 2 2 2
left_child=10 3 6 7 5 -5 -3 -2 -9 -8 11 -1
right_child=1 2 -4 4 -6 -7 9 8 -10 -11 -12 -13
leaf_value=-0.042733460664749146 0.0079177173914323599 0.022159933794692561 0.040026351770288071 0.014229863197453178 0.02527357302606106 0.020768723324382385 0.025451969173219471 0.01568193425301392 0.0082894302815908483 0.030356015275335976 -0.042733460664749146 -0.042733460664749146
leaf_weight=21 29 37 38 65 23 57 45 53 21 36 21 157
leaf_count=21 29 37 38 65 23 57 45 53 21 36 21 157
internal_value=4.65497e-10 0.0210494 0.029353 0.0158261 0.0185521 0.0172849 0.0259159 0.0119887 0.0135841 0.0276315 -0.0427335 -0.0427335
internal_weight=603 404 156 248 145 122 118 103 74 81 199 178
internal_count=603 404 156 248 145 122 118 103 74 81 199 178
is_linear=0
shrinkage=0.05


Tree=6
num_leaves=14
num_cat=0
split_feature=14 14 7 14 0 7 7 0 15 7 1 0 0
split_gain=195.809 6.32555 2.06601 0.938603 0.477657 0.377995 0.579269 0.285884 0.277646 0.191184 0.00871635 2.84217e-14 1.42109e-14
threshold=1.0000000180025095e-35 20.500000000000004 1473.5000000000002 16.500000000000004 9.5000000000000018 1346.5000000000002 1256.5000000000002 6.5000000000000009 335.50000000000006 1435.5000000000002 1.5000000000000002 10.500000000000002 8.5000000000000018
decision_type=2 2 2 2 2 2 2 2 2 2 2 2 2
left_child=11 3 8 4 7 6 -5 -2 10 -10 -3 12 -1
right_child=1 2 -4 5 -6 -7 -8 -9 9 -11 -12 -13 -14
leaf_value=-0.040596789121627813 0.012809867858886721 0.021971341930329801 0.038025035277793287 0.021039133371018315 0.019301629053307293 0.023407031496753918 0.011229478395371527 0.0073801535705570135 0.027908456598275472 0.022407511226430706 0.02049516840837896 -0.040596789121627813 -0.040596789121627813
leaf_weight=158 100 20 38 34 23 32 27 32 56 22 20 21 20
leaf_count=158 100 20 38 34 23 32 27 32 56 22 20 21 20
internal_value=-7.26872e-11 0.0199969 0.0278854 0.0150348 0.0126522 0.0190059 0.0166972 0.0114936 0.0246201 0.0263569 0.0212333 -0.0405968 -0.0405968
internal_weight=603 404 156 248 155 93 61 132 118 78 40 199 178
internal_count=603 404 156 248 155 93 61 132 118 78 40 199 178
is_linear=0
shrinkage=0.05


Tree=7
num_leaves=12
num_cat=0
split_feature=14 14 7 15 7 14 14 15 15 15 1
split_gain=176.718 5.70881 1.86457 0.9064 0.423096 0.432406 0.270561 0.238318 0.296085 0.166553 2.84217e-14
threshold=1.0000000180025095e-35 20.500000000000004 1473.5000000000002 287.50000000000006 1419.0000000000002 16.500000000000004 22.500000000000004 251.50000000000003 276.50000000000006 349.50000000000006 4.5000000000000009
decision_type=2 2 2 2 2 2 2 2 2 2 2
left_child=10 3 6 7 5 -5 -3 -2 -9 -8 -1
right_child=1 2 -4 4 -6 -7 9 8 -10 -11 -12
leaf_value=-0.038566949963569644 0.006854706569093056 0.019846623884262268 0.036123783121767804 0.012870523953953614 0.023051185922130294 0.018836779268295096 0.022979320337375007 0.014193048807880228 0.0071777500145669502 0.027542113907273031 -0.038566949963569644
leaf_weight=27 29 37 38 65 23 57 45 53 21 36 172
leaf_count=27 29 37 38 65 23 57 45 53 21 36 172
internal_value=-1.74835e-10 0.0189971 0.0264911 0.0142831 0.0168307 0.015658 0.0233891 0.0106966 0.0122022 0.0250072 -0.0385669
internal_weight=603 404 156 248 145 122 118 103 74 81 199
internal_count=603 404 156 248 145 122 118 103 74 81 199
is_linear=0
shrinkage=0.05


Tree=8
num_leaves=14
num_cat=0
split_feature=14 14 15 0 15 7 7 14 0 0 4 0 1
split_gain=159.488 5.1522 1.73756 0.889819 0.818026 0.381844 0.399132 0.23175 0.153838 0.0759279 0.0455436 1.42109e-14 1.42109e-14
threshold=1.0000000180025095e-35 20.500000000000004 386.50000000000006 2.5000000000000004 287.50000000000006 1419.0000000000002 1261.5000000000002 15.500000000000002 5.5000000000000009 5.5000000000000009 2.5000000000000004 9.5000000000000018 4.5000000000000009
decision_type=2 2 2 2 2 2 2 2 2 2 2 2 2
left_child=11 4 3 -3 7 6 -6 9 -5 -2 -9 12 -1
right_child=1 2 -4 8 5 -7 -8 10 -10 -11 -12 -13 -14
leaf_value=-0.036638602614402771 0.01010886589564117 0.03084615142694835 0.038545923859679275 0.023795129883695733 0.018894885830217745 0.02189862658472165 0.012840446534589579 0.014746889024972915 0.019681390970052309 0.0065688953657324122 0.011450168380344456 -0.036638602614402771 -0.036638602614402771
leaf_weight=23 28 29 21 33 41 23 81 20 73 33 22 30 146
leaf_count=23 28 29 21 33 41 23 81 20 73 33 22 30 146
internal_value=-2.05725e-10 0.0180472 0.0251666 0.0230853 0.0135689 0.0159892 0.0148751 0.0101618 0.0209621 0.0081938 0.01302 -0.0366386 -0.0366386
internal_weight=603 404 156 135 248 145 122 103 106 61 42 199 169
internal_count=603 404 156 135 248 145 122 103 106 61 42 199 169
is_linear=0
shrinkage=0.05


Tree=9
num_leaves=12
num_cat=0
split_feature=14 14 14 14 0 7 0 7 7 0 7
split_gain=143.938 4.64986 1.63331 0.742617 0.658176 0.494096 0.420622 0.306096 0.528975 0.243119 0.173032
threshold=1.0000000180025095e-35 20.500000000000004 29.500000000000004 16.500000000000004 6.5000000000000009 1452.5000000000002 9.5000000000000018 1346.5000000000002 1256.5000000000002 6.5000000000000009 1405.5000000000002
decision_type=2 2 2 2 2 2 2 2 2 2 2
left_child=-1 3 4 6 5 -3 9 8 -5 -2 -6
right_child=1 2 -4 7 10 -7 -8 -9 -10 -11 -12
leaf_value=-0.034806671738624576 0.010897763362387196 0.022299248175512928 0.037249478679150343 0.018494323104181708 0.020234124689690165 0.030999170802533629 0.017010982690945916 0.020383219321956858 0.0091201881498650279 0.0058906005971948623 0.01478293635106335
leaf_weight=199 100 51 20 34 37 24 23 32 27 32 24
leaf_count=199 100 51 20 34 37 24 23 32 27 32 24
internal_value=-3.17005e-11 0.0171449 0.0239082 0.0128905 0.0219463 0.0250832 0.0107711 0.0164227 0.0143451 0.00968391 0.0180894
internal_weight=603 404 156 248 136 75 155 93 61 132 61
internal_count=603 404 156 248 136 75 155 93 61 132 61
is_linear=0
shrinkage=0.05


Tree=10
num_leaves=9
num_cat=0
split_feature=14 15 14 0 15 0 15 4
split_gain=129.904 4.34123 2.7992 1.16154 1.06678 0.425549 0.312419 0.176884
threshold=1.0000000180025095e-35 388.50000000000006 16.500000000000004 2.5000000000000004 347.50000000000006 9.5000000000000018 287.50000000000006 1.5000000000000002
decision_type=2 2 2 2 2 2 2 2
left_child=-1 2 5 4 -4 7 -5 -2
right_child=1 -3 3 6 -6 -7 -8 -9
leaf_value=-0.033066338300704955 0.0052625340226638527 0.038998624039813884 0.017962424899451435 0.011342116663846272 0.034097675544520221 0.016160433601749982 0.017680809606064645 0.0097443345930761874
leaf_weight=199 28 20 20 22 21 23 167 103
leaf_count=199 28 20 20 22 21 23 167 103
internal_value=4.57553e-12 0.0162876 0.0151048 0.0185979 0.0262268 0.00988771 0.016943 0.00878639
internal_weight=603 404 384 230 41 154 189 131
internal_count=603 404 384 230 41 154 189 131
is_linear=0
shrinkage=0.05


Tree=11
num_leaves=9
num_cat=0
split_feature=14 15 14 0 15 0 14 0
split_gain=117.238 3.91796 2.52628 1.04829 0.962773 0.384058 0.285691 0.171514
threshold=1.0000000180025095e-35 388.50000000000006 16.500000000000004 2.5000000000000004 347.50000000000006 9.5000000000000018 20.500000000000004 6.5000000000000009
decision_type=2 2 2 2 2 2 2 2
left_child=-1 2 5 4 -4 7 -5 -2
right_child=1 -3 3 6 -6 -7 -8 -9
leaf_value=-0.031413021683692935 0.0093756615194830716 0.037048693150281913 0.017064303606748581 0.013851131597694792 0.032392791960211026 0.015352412037875341 0.017779342613303689 0.0051648764099809343
leaf_weight=199 99 20 20 81 21 23 108 32
leaf_count=199 99 20 20 81 21 23 108 32
internal_value=-1.23848e-10 0.0154732 0.0143495 0.017668 0.0249155 0.00939332 0.0160958 0.00834707
internal_weight=603 404 384 230 41 154 189 131
internal_count=603 404 384 230 41 154 189 131
is_linear=0
shrinkage=0.05


Tree=12
num_leaves=10
num_cat=0
split_feature=14 15 14 0 15 0 15 4 1
split_gain=105.807 3.53596 2.27997 0.946081 0.868903 0.346612 0.272974 0.158807 1.42109e-14
threshold=1.0000000180025095e-35 388.50000000000006 16.500000000000004 2.5000000000000004 347.50000000000006 9.5000000000000018 287.50000000000006 1.5000000000000002 5.5000000000000009
decision_type=2 2 2 2 2 2 2 2 2
left_child=8 2 5 4 -4 7 -5 -2 -1
right_child=1 -3 3 6 -6 -7 -8 -9 -10
leaf_value=-0.029842370748519899 0.0045907782883399971 0.035196258418727665 0.016211088304407897 0.010055671158162031 0.030773152251328741 0.01458479127360751 0.015980720842845492 0.0088373924884719117 -0.029842370748519899
leaf_weight=113 28 20 20 22 21 23 167 103 86
leaf_count=113 28 20 20 22 21 23 167 103 86
internal_value=-1.38144e-10 0.0146996 0.013632 0.0167846 0.0236697 0.00892366 0.015291 0.00792972 -0.0298424
internal_weight=603 404 384 230 41 154 189 131 199
internal_count=603 404 384 230 41 154 189 131 199
is_linear=0
shrinkage=0.05


Tree=13
num_leaves=10
num_cat=0
split_feature=14 15 14 0 15 0 15 0 0
split_gain=95.4911 3.1912 2.05767 0.853838 0.784185 0.312818 0.266907 0.154004 7.10543e-15
threshold=1.0000000180025095e-35 388.50000000000006 16.500000000000004 2.5000000000000004 347.50000000000006 9.5000000000000018 364.50000000000006 6.5000000000000009 10.500000000000002
decision_type=2 2 2 2 2 2 2 2 2
left_child=8 2 5 4 -4 7 -5 -2 -1
right_child=1 -3 3 6 -6 -7 -8 -9 -10
leaf_value=-0.028350251913070681 0.0085079039991456992 0.033436444918625061 0.015400533990468829 0.01534265247136999 0.029234494251154722 0.013855551741511117 0.010200771593178313 0.0045178456006397033 -0.028350251913070681
leaf_weight=178 99 20 20 159 21 23 30 32 21
leaf_count=178 99 20 20 159 21 23 30 32 21
internal_value=-6.18758e-11 0.0139646 0.0129504 0.0159454 0.0224862 0.00847748 0.0145265 0.00753323 -0.0283503
internal_weight=603 404 384 230 41 154 189 131 199
internal_count=603 404 384 230 41 154 189 131 199
is_linear=0
shrinkage=0.05


Tree=14
num_leaves=12
num_cat=0
split_feature=14 14 14 15 0 7 7 7 15 15 7
split_gain=86.1807 2.91621 1.13088 0.564853 0.473664 0.409802 0.27093 0.454952 0.196041 0.264698 0.188027
threshold=1.0000000180025095e-35 20.500000000000004 29.500000000000004 287.50000000000006 6.5000000000000009 1452.5000000000002 1399.0000000000002 1261.5000000000002 251.50000000000003 276.50000000000006 1405.5000000000002
decision_type=2 2 2 2 2 2 2 2 2 2 2
left_child=-1 3 4 8 5 -3 7 -5 -2 -10 -6
right_child=1 2 -4 6 10 -7 -8 -9 9 -11 -12
leaf_value=-0.026932740211486818 0.0035814305833653257 0.017115737642070243 0.029723721158225094 0.014894796834077415 0.015953805637420031 0.025038868011324669 0.015813491343835587 0.0082623581457716821 0.010313850143080894 0.0036807960874977565 0.010271321330219508
leaf_weight=199 29 51 20 41 37 24 34 70 53 21 24
leaf_count=199 29 51 20 41 37 24 34 70 53 21 24
internal_value=-3.28299e-10 0.0132664 0.0186225 0.00989719 0.01699 0.0196511 0.0119083 0.0107122 0.00706594 0.0084315 0.0137181
internal_weight=603 404 156 248 136 75 145 111 103 74 61
internal_count=603 404 156 248 136 75 145 111 103 74 61
is_linear=0
shrinkage=0.05


Tree=15
num_leaves=9
num_cat=0
split_feature=14 15 14 0 15 0 15 4
split_gain=77.7781 2.72623 1.70764 0.743104 0.677792 0.280221 0.259402 0.142162
threshold=1.0000000180025095e-35 388.50000000000006 16.500000000000004 2.5000000000000004 347.50000000000006 9.5000000000000018 364.50000000000006 1.5000000000000002
decision_type=2 2 2 2 2 2 2 2
left_child=-1 2 5 4 -4 7 -5 -2
right_child=1 -3 3 6 -6 -7 -8 -9
leaf_value=-0.025586101412773135 0.0035380779004689045 0.030600514505058532 0.01390848828945309 0.013874935991890032 0.026769808861648755 0.012681061098271091 0.0088058632315369326 0.0075559905582549538
leaf_weight=199 28 20 20 159 21 23 30 103
leaf_count=199 28 20 20 159 21 23 30 103
internal_value=3.2251e-10 0.0126031 0.0116657 0.014394 0.020496 0.00759089 0.0130703 0.0066972
internal_weight=603 404 384 230 41 154 189 131
internal_count=603 404 384 230 41 154 189 131
is_linear=0
shrinkage=0.05


Tree=16
num_leaves=10
num_cat=0
split_feature=14 15 14 0 14 7 15 4 4
split_gain=70.1947 2.46042 1.5853 0.693096 0.496296 0.216028 0.152155 0.115373 7.10543e-15
threshold=1.0000000180025095e-35 388.50000000000006 21.500000000000004 2.5000000000000004 14.500000000000002 1175.5000000000002 360.50000000000006 2.5000000000000004 3.5000000000000004
decision_type=2 2 2 2 2 2 2 2 2
left_child=8 2 4 -4 7 -6 -5 -2 -1
right_child=1 -3 3 6 5 -7 -8 -9 -10
leaf_value=-0.024306796491146088 0.0036710649961605672 0.029070487988647076 0.023932489100843668 0.015476265332108597 0.0067594159903819678 0.011295525922299657 0.011208462875877177 0.007356470454855029 -0.024306796491146088
leaf_weight=140 35 20 22 64 32 146 31 54 59
leaf_count=140 35 20 22 64 32 146 31 54 59
internal_value=2.06362e-10 0.0119729 0.0110824 0.0159355 0.00895575 0.01048 0.0140836 0.00590715 -0.0243068
internal_weight=603 404 384 117 267 178 95 89 199
internal_count=603 404 384 117 267 178 95 89 199
is_linear=0
shrinkage=0.05


Tree=17
num_leaves=11
num_cat=0
split_feature=14 15 0 14 15 14 15 14 7 0
split_gain=63.3507 2.22798 1.5702 1.17772 0.374408 0.190809 0.162624 0.283495 0.0342131 7.10543e-15
threshold=1.0000000180025095e-35 372.50000000000006 3.5000000000000004 19.500000000000004 255.50000000000003 14.500000000000002 335.50000000000006 26.500000000000004 1320.5000000000002 6.5000000000000009
decision_type=2 2 2 2 2 2 2 2 2 2
left_child=9 3 -3 4 -2 -6 8 -8 -5 -1
right_child=1 2 -4 6 5 -7 7 -9 -10 -11
leaf_value=-0.023091457784175873 0.0033582362000168747 0.031381353907371783 0.012888249083577344 0.010157200609418479 0.0065130740148766388 0.0098882388807255625 0.017255149815146895 0.010742330500215759 0.012792080020465488 -0.023091457784175873
leaf_weight=121 38 22 24 22 62 129 55 24 28 78
leaf_count=121 38 22 24 22 62 129 55 24 28 78
internal_value=-2.14142e-10 0.0113743 0.0217328 0.0100433 0.00789086 0.00879264 0.0138642 0.0152766 0.0116327 -0.0230915
internal_weight=603 404 46 358 229 191 129 79 50 199
internal_count=603 404 46 358 229 191 129 79 50 199
is_linear=0
shrinkage=0.05


Tree=18
num_leaves=11
num_cat=0
split_feature=14 15 14 0 15 1 7 15 0 0
split_gain=57.174 2.07586 1.32245 0.65004 0.45519 0.530357 0.241316 0.159455 7.10543e-15 7.10543e-15
threshold=1.0000000180025095e-35 388.50000000000006 22.500000000000004 3.5000000000000004 287.50000000000006 1.0000000180025095e-35 1401.5000000000002 251.50000000000003 10.500000000000002 8.5000000000000018
decision_type=2 2 2 2 2 2 2 2 2 2
left_child=8 2 4 -4 7 -6 -5 -2 9 -1
right_child=1 -3 3 6 5 -7 -8 -9 -10 -11
leaf_value=-0.021936884522438051 0.0024967375757365393 0.026510223646182569 0.021958744294941428 0.015018332244958297 0.016253151975710086 0.008655991764662049 0.0091754182878260818 0.0068546428596355808 -0.021936884522438051 -0.021936884522438051
leaf_weight=158 29 20 25 43 27 154 30 76 21 20
leaf_count=158 29 20 25 43 27 154 30 76 21 20
internal_value=-3.70965e-11 0.0108055 0.00998759 0.0150002 0.00826999 0.00978927 0.0126171 0.00565103 -0.0219369 -0.0219369
internal_weight=603 404 384 98 286 181 73 105 199 178
internal_count=603 404 384 98 286 181 73 105 199 178
is_linear=0
shrinkage=0.05


Tree=19
num_leaves=8
num_cat=0
split_feature=14 15 14 0 7 15 7
split_gain=51.5996 1.87346 1.19351 0.586661 0.430957 0.305256 0.217788
threshold=1.0000000180025095e-35 388.50000000000006 22.500000000000004 3.5000000000000004 1419.0000000000002 255.50000000000003 1401.5000000000002
decision_type=2 2 2 2 2 2 2
left_child=-1 2 4 -4 5 -2 -5
right_child=1 -3 3 6 -6 -7 -8
leaf_value=-0.020840039849281313 0.0030138807444784203 0.025184712496120483 0.020860806703567505 0.014267415568492439 0.013140511141596912 0.0078768712272606449 0.0087166473238418501
leaf_weight=199 38 20 25 43 34 214 30
leaf_count=199 38 20 25 43 34 214 30
internal_value=1.10122e-10 0.0102653 0.00948821 0.0142502 0.00785649 0.00714356 0.0119863
internal_weight=603 404 384 98 286 252 73
internal_count=603 404 384 98 286 252 73
is_linear=0
shrinkage=0.05


Tree=20
num_leaves=9
num_cat=0
split_feature=14 15 14 0 15 15 0 0
split_gain=46.5686 1.6908 1.10784 0.521073 0.466668 0.257832 0.244202 0.130258
threshold=1.0000000180025095e-35 388.50000000000006 16.500000000000004 2.5000000000000004 347.50000000000006 364.50000000000006 9.5000000000000018 6.5000000000000009
decision_type=2 2 2 2 2 2 2 2
left_child=-1 2 6 4 -4 -5 7 -2
right_child=1 -3 3 5 -6 -7 -8 -9
leaf_value=-0.019798038899898531 0.0057938395582217105 0.023925477173179388 0.010854957033880057 0.010905084544086226 0.021526847903927171 0.0058513758238404991 0.010483508220995251 0.0021242686911136844
leaf_weight=199 99 20 20 159 21 30 23 32
leaf_count=199 99 20 20 159 21 30 23 32
internal_value=-2.16034e-10 0.009752 0.0090138 0.0112114 0.016321 0.0101029 0.00573174 0.00489746
internal_weight=603 404 384 230 41 189 154 131
internal_count=603 404 384 230 41 189 154 131
is_linear=0
shrinkage=0.05


Tree=21
num_leaves=11
num_cat=0
split_feature=14 15 0 14 15 0 7 14 15 1
split_gain=42.0282 1.56008 1.29194 0.811062 0.264884 0.169716 0.144615 0.30176 0.236969 7.10543e-15
threshold=1.0000000180025095e-35 372.50000000000006 3.5000000000000004 19.500000000000004 255.50000000000003 10.500000000000002 1419.0000000000002 24.500000000000004 349.50000000000006 4.5000000000000009
decision_type=2 2 2 2 2 2 2 2 2 2
left_child=9 3 -3 4 -2 -6 8 -8 -5 -1
right_child=1 2 -4 6 5 -7 7 -9 -10 -11
leaf_value=-0.018808136880397799 0.0025519817442584197 0.026684324964034285 0.0099096813045131682 0.0086808092281871457 0.0065579186359118581 0.011054514177764457 0.018169594923965634 0.0095879950427583283 0.014672834272708067 -0.018808136880397799
leaf_weight=27 38 22 24 66 167 24 20 21 22 172
leaf_count=27 38 22 24 66 167 24 20 21 22 172
internal_value=-2.0315e-10 0.0092644 0.0179323 0.00815065 0.00636444 0.00712294 0.0113215 0.0137741 0.0101788 -0.0188081
internal_weight=603 404 46 358 229 191 129 41 88 199
internal_count=603 404 46 358 229 191 129 41 88 199
is_linear=0
shrinkage=0.05


Tree=22
num_leaves=10
num_cat=0
split_feature=14 15 14 0 14 7 7 4 0
split_gain=37.9304 1.4253 0.942444 0.456145 0.340336 0.196741 0.19246 0.111504 3.55271e-15
threshold=1.0000000180025095e-35 388.50000000000006 22.500000000000004 3.5000000000000004 14.500000000000002 1405.5000000000002 1419.0000000000002 2.5000000000000004 5.5000000000000009
decision_type=2 2 2 2 2 2 2 2 2
left_child=8 2 4 -4 7 -5 -6 -2 -1
right_child=1 -3 3 5 6 -7 -8 -9 -10
leaf_value=-0.017867729067802429 0.0019090204905452474 0.02181435303762555 0.01818407055735588 0.012406252404002267 0.0071445121508705509 0.007068072479783691 0.01138148969548638 0.0055321120018898343 -0.017867729067802429
leaf_weight=102 35 20 25 45 165 28 32 54 97
leaf_count=102 35 20 25 45 165 28 32 54 97
internal_value=1.13148e-10 0.00880118 0.00812341 0.012355 0.00667343 0.0103587 0.00783275 0.0041073 -0.0178677
internal_weight=603 404 384 98 286 73 197 89 199
internal_count=603 404 384 98 286 73 197 89 199
is_linear=0
shrinkage=0.05


Tree=23
num_leaves=9
num_cat=0
split_feature=14 15 14 0 15 1 7 15
split_gain=34.2322 1.28633 0.850556 0.411671 0.312271 0.477209 0.178217 0.111878
threshold=1.0000000180025095e-35 388.50000000000006 22.500000000000004 3.5000000000000004 287.50000000000006 1.0000000180025095e-35 1401.5000000000002 251.50000000000003
decision_type=2 2 2 2 2 2 2 2
left_child=-1 2 4 -4 7 -6 -5 -2
right_child=1 -3 3 6 5 -7 -8 -9
leaf_value=-0.01697434335947037 0.0015284389771264176 0.020723635298199955 0.017274867244064806 0.011904319484046726 0.013729583697945434 0.0065231361605193735 0.0068830759675862887 0.005178755041407912
leaf_weight=199 29 20 25 43 27 154 30 76
leaf_count=199 29 20 25 43 27 154 30 76
internal_value=-1.36947e-10 0.00836112 0.00771724 0.0117372 0.00633976 0.00759813 0.00984079 0.00417057
internal_weight=603 404 384 98 286 181 73 105
internal_count=603 404 384 98 286 181 73 105
is_linear=0
shrinkage=0.05


Tree=24
num_leaves=11
num_cat=0
split_feature=14 15 0 14 14 4 15 15 7 7
split_gain=30.8946 1.18221 1.47041 0.415447 0.361658 0.262067 0.164609 0.23687 0.151015 0.119729
threshold=1.0000000180025095e-35 334.50000000000006 1.5000000000000002 17.500000000000004 20.500000000000004 1.5000000000000002 317.50000000000006 251.50000000000003 1378.5000000000002 1258.0000000000002
decision_type=2 2 2 2 2 2 2 2 2 2
left_child=-1 3 -3 6 -4 -6 7 -2 9 -5
right_child=1 2 4 8 5 -7 -8 -9 -10 -11
leaf_value=-0.016125625371932985 0.00077887788001034007 0.023603580869911683 0.0051752637530601518 0.0093593732089643847 0.0068107516903962413 0.01247947270932491 0.00062300481905157756 0.0060148629941977564 0.012181889471089976 0.0048697836317673875
leaf_weight=199 27 21 37 33 28 75 26 108 22 27
leaf_count=199 27 21 37 33 28 75 26 108 22 27
internal_value=1.3664e-10 0.00794307 0.011266 0.00574147 0.00941533 0.0109385 0.00426604 0.00496767 0.00863835 0.00733906
internal_weight=603 404 161 243 140 103 161 135 82 60
internal_count=603 404 161 243 140 103 161 135 82 60
is_linear=0
shrinkage=0.05


Tree=25
num_leaves=10
num_cat=0
split_feature=14 15 14 0 15 7 0 0 0
split_gain=27.8824 1.11417 0.700764 0.358412 0.324366 0.272897 0.206213 0.113105 3.55271e-15
threshold=1.0000000180025095e-35 388.50000000000006 16.500000000000004 2.5000000000000004 347.50000000000006 1465.0000000000002 9.5000000000000018 6.5000000000000009 9.5000000000000018
decision_type=2 2 2 2 2 2 2 2 2
left_child=8 2 6 4 -4 -5 7 -2 -1
right_child=1 -3 3 5 -6 -7 -8 -9 -10
leaf_value=-0.015319344401359559 0.0044049827466634195 0.019051441110204907 0.0083750873152166599 0.0085840132538214688 0.01727232421925735 0.0033124285374752024 0.0087029066868126396 0.00098554716969374563 -0.015319344401359559
leaf_weight=169 99 20 20 160 21 29 23 32 30
leaf_count=169 99 20 20 160 21 29 23 32 30
internal_value=7.39421e-11 0.00754591 0.00694667 0.00869445 0.0129322 0.00777515 0.00433635 0.0035697 -0.0153193
internal_weight=603 404 384 230 41 189 154 131 199
internal_count=603 404 384 230 41 189 154 131 199
is_linear=0
shrinkage=0.05


Tree=26
num_leaves=11
num_cat=0
split_feature=14 15 0 14 4 0 15 3 1 0
split_gain=25.1638 1.01314 1.03499 0.500424 0.201646 0.196144 0.19331 0.209982 0.161888 3.55271e-15
threshold=1.0000000180025095e-35 372.50000000000006 3.5000000000000004 16.500000000000004 1.5000000000000002 9.5000000000000018 299.50000000000006 1.0000000180025095e-35 1.5000000000000002 8.5000000000000018
decision_type=2 2 2 2 2 2 2 2 2 2
left_child=9 3 -3 4 -2 -6 8 -8 -5 -1
right_child=1 2 -4 6 5 -7 7 -9 -10 -11
leaf_value=-0.01455337703227997 0.00051560267024943916 0.021987219971858644 0.0069731228606542579 0.0016167271300219 0.004148003882931961 0.0095589840179309254 0.0078561270970038018 0.012617003358900548 0.0078322210095145492 -0.01455337703227997
leaf_weight=158 31 22 24 20 103 20 134 28 22 41
leaf_count=158 31 22 24 20 103 20 134 28 22 41
internal_value=8.54871e-11 0.00716862 0.0141538 0.00627108 0.00411953 0.00502784 0.0078953 0.00867899 0.00487246 -0.0145534
internal_weight=603 404 46 358 154 123 204 162 42 199
internal_count=603 404 46 358 154 123 204 162 42 199
is_linear=0
shrinkage=0.05


Tree=27
num_leaves=7
num_cat=0
split_feature=14 15 0 14 0 4
split_gain=22.7104 0.939404 0.623032 0.60185 0.374 0.160783
threshold=1.0000000180025095e-35 388.50000000000006 11.500000000000002 16.500000000000004 2.5000000000000004 1.5000000000000002
decision_type=2 2 2 2 2 2
left_child=-1 2 3 5 -5 -2
right_child=1 -3 -4 4 -6 -7
leaf_value=-0.013825708627700807 4.075919277966023e-05 0.017374860951676965 0.014851962395478042 0.011754705691596539 0.0064549536612621477 0.0041473018798318792
leaf_weight=199 30 20 20 41 177 116
leaf_count=199 30 20 20 41 177 116
internal_value=-4.1006e-11 0.00681019 0.00625994 0.00578786 0.0074517 0.00330349
internal_weight=603 404 384 364 218 146
internal_count=603 404 384 364 218 146
is_linear=0
shrinkage=0.05


Tree=28
num_leaves=10
num_cat=0
split_feature=14 7 0 14 7 7 4 0 1
split_gain=20.4961 0.862007 0.53348 0.472033 0.188783 0.241846 0.14476 0.0970836 1.77636e-15
threshold=1.0000000180025095e-35 1473.5000000000002 3.5000000000000004 16.500000000000004 1177.5000000000002 1236.5000000000002 1.5000000000000002 3.5000000000000004 3.5000000000000004
decision_type=2 2 2 2 2 2 2 2 2
left_child=8 3 -3 6 -5 -6 -2 -8 -1
right_child=1 2 -4 4 5 -7 7 -9 -10
leaf_value=-0.013134422898292543 0.00046389545464227281 0.017815454792231324 0.0072639210250876529 0.0027031363065664967 0.012756941037341244 0.0070540154132169939 0.0019806135128336874 0.005160687789082824 -0.013134422898292543
leaf_weight=24 31 25 23 21 21 162 33 88 175
leaf_count=24 31 25 23 21 21 162 33 88 175
internal_value=8.00042e-11 0.00646968 0.0127595 0.00562161 0.0071932 0.00770845 0.00351238 0.00429339 -0.0131344
internal_weight=603 404 48 356 204 183 152 121 199
internal_count=603 404 48 356 204 183 152 121 199
is_linear=0
shrinkage=0.05


Tree=29
num_leaves=7
num_cat=0
split_feature=14 15 0 14 0 7
split_gain=18.4977 0.806497 0.561283 0.524294 0.331058 0.197103
threshold=1.0000000180025095e-35 388.50000000000006 11.500000000000002 22.500000000000004 3.5000000000000004 1421.5000000000002
decision_type=2 2 2 2 2 2
left_child=-1 2 3 5 -5 -2
right_child=1 -3 -4 4 -6 -7
leaf_value=-0.012477701902389527 0.0036098436973671516 0.015935039310716093 0.013791489762952552 0.01334756663441658 0.0066187432864406974 0.0079719382819944413
leaf_weight=199 242 20 20 25 68 29
leaf_count=199 242 20 20 25 68 29
internal_value=-4.68171e-12 0.00614619 0.00563636 0.00518827 0.00842757 0.00407664
internal_weight=603 404 384 364 93 271
internal_count=603 404 384 364 93 271
is_linear=0
shrinkage=0.05


Tree=30
num_leaves=7
num_cat=0
split_feature=14 14 0 14 0 4
split_gain=16.6942 0.754845 0.507722 0.360999 0.258136 0.152328
threshold=1.0000000180025095e-35 29.500000000000004 11.500000000000002 16.500000000000004 8.5000000000000018 1.5000000000000002
decision_type=2 2 2 2 2 2
left_child=-1 2 3 5 -5 -2
right_child=1 -3 -4 4 -6 -7
leaf_value=-0.011853817105293275 -0.0001722357701510191 0.015309080404695126 0.013101915493607522 0.0070226752727679661 0.0025312757746388135 0.0038213738973369889
leaf_weight=199 30 20 20 178 39 117
leaf_count=199 30 20 20 178 39 117
internal_value=-9.84076e-11 0.00583889 0.00534565 0.00491948 0.00621547 0.00300635
internal_weight=603 404 384 364 217 147
internal_count=603 404 384 364 217 147
is_linear=0
shrinkage=0.05


Tree=31
num_leaves=8
num_cat=0
split_feature=14 7 14 15 15 14 4
split_gain=15.0665 0.698976 0.485838 0.182186 0.165233 0.161961 0.10866
threshold=1.0000000180025095e-35 1518.0000000000002 22.500000000000004 255.50000000000003 366.50000000000006 26.500000000000004 3.5000000000000004
decision_type=2 2 2 2 2 2 2
left_child=-1 2 3 -2 5 -4 -5
right_child=1 -3 4 6 -6 -7 -8
leaf_value=-0.011261125653982164 0.0007282035020915301 0.01331834201571635 0.0085811360506340868 0.0051665740598884208 0.011772275487727831 0.0035505926158900061 0.0028962096354172738
leaf_weight=199 38 27 48 167 23 24 77
leaf_count=199 38 27 48 167 23 24 77
internal_value=1.02354e-10 0.00554694 0.00499037 0.00394857 0.00808285 0.00690429 0.00445011
internal_weight=603 404 377 282 95 72 244
internal_count=603 404 377 282 95 72 244
is_linear=0
shrinkage=0.05


Tree=32
num_leaves=9
num_cat=0
split_feature=14 0 0 14 0 7 7 0
split_gain=13.61 0.701646 0.45735 0.303587 0.236033 0.161174 0.128446 1.77636e-15
threshold=9.5000000000000018 1.5000000000000002 11.500000000000002 16.500000000000004 8.5000000000000018 22.500000000000004 1085.5000000000002 6.5000000000000009
decision_type=2 2 2 2 2 2 2 2
left_child=5 -2 3 6 -5 7 -3 -1
right_child=1 2 -4 4 -6 -7 -8 -9
leaf_value=-0.010698069632053376 0.012063495067854388 0.0060327858198434116 0.012173111084848642 0.0063183669995913964 0.0021013174717110102 -0.0060820028141495737 0.0016433813337935134 -0.010698069632053376
leaf_weight=119 37 20 20 174 41 21 100 71
leaf_count=119 37 20 20 174 41 21 100 71
internal_value=-4.3009e-11 0.00551111 0.00482819 0.00438968 0.00551419 -0.0102387 0.00237495 -0.0106981
internal_weight=603 392 355 335 215 211 120 190
internal_count=603 392 355 335 215 211 120 190
is_linear=0
shrinkage=0.05


Tree=33
num_leaves=7
num_cat=0
split_feature=14 14 0 15 14 7
split_gain=12.297 0.633229 0.414125 0.269904 0.226293 7.35151e-05
threshold=1.0000000180025095e-35 29.500000000000004 11.500000000000002 375.50000000000006 18.500000000000004 20.500000000000004
decision_type=2 2 2 2 2 2
left_child=5 2 3 4 -2 -1
right_child=1 -3 -4 -5 -6 -7
leaf_value=-0.010163166373968125 0.0026646402852978906 0.013685075556859376 0.011564455404877664 0.0088910454618079324 0.0052890338106211148 -0.010262082091399602
leaf_weight=178 193 20 20 28 143 21
leaf_count=178 193 20 20 28 143 21
internal_value=-6.02638e-11 0.00501126 0.00455949 0.00417461 0.00378157 -0.0101736
internal_weight=603 404 384 364 336 199
internal_count=603 404 384 364 336 199
is_linear=0
shrinkage=0.05


Tree=34
num_leaves=10
num_cat=0
split_feature=14 0 0 14 0 7 7 7 0
split_gain=11.1195 0.630543 0.375153 0.246075 0.20942 0.122271 0.115922 5.96748e-08 8.88178e-16
threshold=9.5000000000000018 1.5000000000000002 11.500000000000002 16.500000000000004 8.5000000000000018 22.500000000000004 1085.5000000000002 17.500000000000004 9.5000000000000018
decision_type=2 2 2 2 2 2 2 2 2
left_child=5 -2 3 6 -5 7 -3 8 -1
right_child=1 2 -4 4 -6 -7 -8 -9 -10
leaf_value=-0.0096550077199935927 0.011192915399835723 0.0055979143083095557 0.010986232701689006 0.0057067465930293985 0.0017345412077791082 -0.005634133437914508 0.0014279803277458996 -0.0096521816083363129 -0.0096550077199935927
leaf_weight=145 37 20 20 174 41 21 100 21 24
leaf_count=145 37 20 20 174 41 21 100 21 24
internal_value=3.12178e-11 0.0049814 0.004334 0.00393685 0.00494926 -0.00925454 0.00212297 -0.0096547 -0.00965501
internal_weight=603 392 355 335 215 211 120 190 169
internal_count=603 392 355 335 215 211 120 190 169
is_linear=0
shrinkage=0.05


Tree=35
num_leaves=10
num_cat=0
split_feature=14 7 14 15 15 14 7 7 7
split_gain=10.0369 0.573811 0.367924 0.146072 0.133474 0.1531 0.0907183 0.000243994 1.85443e-11
threshold=1.0000000180025095e-35 1518.0000000000002 22.500000000000004 251.50000000000003 366.50000000000006 26.500000000000004 1268.5000000000002 20.500000000000004 15.500000000000002
decision_type=2 2 2 2 2 2 2 2 2
left_child=7 2 3 -2 5 -4 -5 8 -1
right_child=1 -3 4 6 -6 -7 -8 -9 -10
leaf_value=-0.0091722577810287483 -0.00024466112673539542 0.011568681630133479 0.0072853424518446747 0.0045144820368431425 0.010030231098441976 0.0023943500981355708 0.0026165977846809526 -0.0093524697635855008 -0.0091723014825376963
leaf_weight=149 29 27 48 118 23 24 135 21 29
leaf_count=149 29 27 48 118 23 24 135 21 29
internal_value=-8.20506e-11 0.00452739 0.0040231 0.0031165 0.00671428 0.00565501 0.00350178 -0.00919128 -0.00917226
internal_weight=603 404 377 282 95 72 253 199 178
internal_count=603 404 377 282 95 72 253 199 178
is_linear=0
shrinkage=0.05


Tree=36
num_leaves=10
num_cat=0
split_feature=14 0 0 14 0 7 7 7 7
split_gain=9.08245 0.565358 0.340289 0.204834 0.185689 0.109622 0.0928857 4.5857e-07 3.4639e-14
threshold=9.5000000000000018 1.5000000000000002 11.500000000000002 16.500000000000004 8.5000000000000018 1085.5000000000002 22.500000000000004 17.500000000000004 15.500000000000002
decision_type=2 2 2 2 2 2 2 2 2
left_child=6 -2 3 5 -5 -3 7 8 -1
right_child=1 2 -4 4 -6 -7 -8 -9 -10
leaf_value=-0.0087136447429656989 0.010383744273142814 0.0052350690774619589 0.010224628709256649 0.0051477500532577138 0.0014073673522145285 0.0011800324735231698 -0.005208495294763929 -0.0087058102445943027 -0.0087136425077915195
leaf_weight=149 37 20 20 174 41 100 21 21 20
leaf_count=149 37 20 20 174 41 100 21 21 20
internal_value=-3.52962e-11 0.00450206 0.00388904 0.00351079 0.00443447 0.00185587 -0.00836401 -0.00871278 -0.00871364
internal_weight=603 392 355 335 215 120 211 190 169
internal_count=603 392 355 335 215 120 211 190 169
is_linear=0
shrinkage=0.05


Tree=37
num_leaves=11
num_cat=0
split_feature=14 0 0 14 3 1 7 7 7 0
split_gain=8.19691 0.510235 0.307111 0.186835 0.195705 0.190577 0.0838293 4.13838e-07 3.55271e-14 8.88178e-16
threshold=9.5000000000000018 1.5000000000000002 11.500000000000002 18.500000000000004 1.0000000180025095e-35 2.5000000000000004 22.500000000000004 17.500000000000004 15.500000000000002 9.5000000000000018
decision_type=2 2 2 2 2 2 2 2 2 2
left_child=6 -2 3 5 -5 -3 7 8 9 -1
right_child=1 2 -4 4 -6 -7 -8 -9 -10 -11
leaf_value=-0.0082779623568058017 0.0098645572890401698 0.00036373019831467283 0.0097133973147720109 0.0036503248397767654 0.0078915005796315035 0.0037653433863577158 -0.0049480705255908631 -0.0082705197589738027 -0.0082779601216316223 -0.0082779623568058017
leaf_weight=127 37 79 20 136 34 86 21 21 20 22
leaf_count=127 37 79 20 136 34 86 21 21 20 22
internal_value=-1.45471e-11 0.00427695 0.00369458 0.00333525 0.00449856 0.00213669 -0.00794581 -0.00827714 -0.00827796 -0.00827796
internal_weight=603 392 355 335 170 165 211 190 169 149
internal_count=603 392 355 335 170 165 211 190 169 149
is_linear=0
shrinkage=0.05


Tree=38
num_leaves=8
num_cat=0
split_feature=14 14 0 15 14 7 7
split_gain=7.4105 0.516682 0.278607 0.190365 0.1457 0.00076008 7.5702e-10
threshold=1.0000000180025095e-35 29.500000000000004 11.500000000000002 375.50000000000006 14.500000000000002 20.500000000000004 15.500000000000002
decision_type=2 2 2 2 2 2 2
left_child=5 2 3 4 -2 6 -1
right_child=1 -3 -4 -5 -6 -7 -8
leaf_value=-0.0078640639781951908 0.0010611271397697978 0.011725236698985101 0.0092277275584638132 0.0071274091888751312 0.003447013373626396 -0.0081821675811495111 -0.0078643431951259755
leaf_weight=149 86 20 20 28 250 21 29
leaf_count=149 86 20 20 28 250 21 29
internal_value=2.52909e-11 0.00389019 0.00348212 0.00316642 0.00283634 -0.00789767 -0.00786411
internal_weight=603 404 384 364 336 199 178
internal_count=603 404 384 364 336 199 178
is_linear=0
shrinkage=0.05


Tree=39
num_leaves=9
num_cat=0
split_feature=14 0 0 15 1 7 7 7
split_gain=6.69137 0.459119 0.252223 0.169406 0.174963 0.0642032 1.95211e-06 1.72706e-12
threshold=9.5000000000000018 1.5000000000000002 11.500000000000002 251.50000000000003 1.0000000180025095e-35 22.500000000000004 17.500000000000004 15.500000000000002
decision_type=2 2 2 2 2 2 2 2
left_child=5 -2 3 -3 -5 6 7 -1
right_child=1 2 -4 4 -6 -7 -8 -9
leaf_value=-0.0074708610773086548 0.0091645948538506359 -0.0013615843219061694 0.0087663411069661395 0.0059571984922513373 0.0027572313118783562 -0.004555652911464373 -0.0074546953397137787 -0.0074708454310894014
leaf_weight=149 37 21 20 51 263 21 21 20
leaf_count=149 37 21 20 51 263 21 21 20
internal_value=-5.49739e-12 0.00386427 0.00331184 0.0029862 0.00327697 -0.00717911 -0.00746907 -0.00747086
internal_weight=603 392 355 335 314 211 190 169
internal_count=603 392 355 335 314 211 190 169
is_linear=0
shrinkage=0.05


Tree=40
num_leaves=11
num_cat=0
split_feature=14 15 14 0 7 7 0 7 7 0
split_gain=6.04992 0.475027 0.266929 0.194252 0.166365 0.114425 0.127463 0.00100124 2.58992e-09 4.44089e-16
threshold=1.0000000180025095e-35 388.50000000000006 22.500000000000004 3.5000000000000004 1401.5000000000002 1421.5000000000002 3.5000000000000004 20.500000000000004 15.500000000000002 8.5000000000000018
decision_type=2 2 2 2 2 2 2 2 2 2
left_child=7 2 5 -4 -5 6 -2 8 9 -1
right_child=1 -3 3 4 -6 -7 -8 -9 -10 -11
leaf_value=-0.0070973180234432222 0.00013971200524418452 0.01102755330502987 0.0091796296443790205 0.0060667319190796723 0.0012153249761710566 0.0051211923078605627 0.0026712333141020624 -0.0074624467108930868 -0.0070978344771368751 -0.0070973180234432222
leaf_weight=118 68 20 25 43 30 33 185 21 29 31
leaf_count=118 68 20 25 43 30 33 185 21 29 31
internal_value=-1.92674e-11 0.00351497 0.00312369 0.00537571 0.004073 0.00235202 0.00199082 -0.00713592 -0.0070974 -0.00709732
internal_weight=603 404 384 98 73 286 253 199 178 149
internal_count=603 404 384 98 73 286 253 199 178 149
is_linear=0
shrinkage=0.05


Tree=41
num_leaves=11
num_cat=0
split_feature=14 7 14 15 14 7 15 7 7 7
split_gain=5.46953 0.419881 0.223069 0.102648 0.142306 0.0787741 0.223745 0.0473256 4.97163e-06 1.18434e-11
threshold=9.5000000000000018 1518.0000000000002 22.500000000000004 366.50000000000006 26.500000000000004 1085.5000000000002 261.50000000000006 22.500000000000004 17.500000000000004 15.500000000000002
decision_type=2 2 2 2 2 2 2 2 2 2
left_child=7 2 5 4 -4 -2 -7 8 9 -1
right_child=1 -3 3 -5 -6 6 -8 -9 -10 -11
leaf_value=-0.0067424520850181587 0.0050496939259270825 0.0095103368301082541 0.005775346792991817 0.0080403960917306977 0.001059908305372422 -0.0027629623390649531 0.0025212341924738474 -0.0042382542930898218 -0.006716651788779668 -0.0067424111068248756
leaf_weight=149 24 27 48 23 24 22 224 21 21 20
leaf_count=149 24 27 48 23 24 22 224 21 21 20
internal_value=-3.10634e-11 0.00349369 0.00304862 0.00513246 0.00420353 0.00231542 0.00204866 -0.00649065 -0.0067396 -0.00674245
internal_weight=603 392 365 95 72 270 246 211 190 169
internal_count=603 392 365 95 72 270 246 211 190 169
is_linear=0
shrinkage=0.05


Tree=42
num_leaves=8
num_cat=0
split_feature=14 14 0 7 14 7 7
split_gain=4.93938 0.411426 0.228612 0.141831 0.137779 0.00120894 7.73291e-09
threshold=1.0000000180025095e-35 29.500000000000004 11.500000000000002 1511.0000000000002 16.500000000000004 20.500000000000004 15.500000000000002
decision_type=2 2 2 2 2 2 2
left_child=5 2 3 4 -2 6 -1
right_child=1 -3 -4 -5 -6 -7 -8
leaf_value=-0.0064053297042846683 0.0011156672275432482 0.010167611492797733 0.0080165029410272839 0.0066191653010901066 0.003142089308540796 -0.0068066003067152846 -0.0064062221039985802
leaf_weight=149 145 20 20 20 199 21 29
leaf_count=149 145 20 20 20 199 21 29
internal_value=-9.66894e-11 0.00317602 0.00281188 0.00252591 0.00228793 -0.0064478 -0.00640548
internal_weight=603 404 384 364 344 199 178
internal_count=603 404 384 364 344 199 178
is_linear=0
shrinkage=0.05


Tree=43
num_leaves=10
num_cat=0
split_feature=14 0 0 0 7 14 7 7 7
split_gain=4.46626 0.411288 0.210374 0.141331 0.31432 0.249044 0.0355758 9.6749e-06 4.9114e-11
threshold=9.5000000000000018 1.5000000000000002 11.500000000000002 6.5000000000000009 1167.5000000000002 20.500000000000004 22.500000000000004 17.500000000000004 15.500000000000002
decision_type=2 2 2 2 2 2 2 2 2
left_child=6 -2 3 5 -5 -3 7 8 -1
right_child=1 2 -4 4 -6 -7 -8 -9 -10
leaf_value=-0.0060850631445646293 0.0081736955190757042 0.001732372379398118 0.0076156779518350955 -0.004083791561424732 0.0022023676902633805 0.0053722134511328392 -0.0039123618354400006 -0.0060490686446428299 -0.0060849796980619432
leaf_weight=149 37 116 20 24 116 79 21 21 20
leaf_count=149 37 116 20 24 116 79 21 21 20
internal_value=-5.98583e-11 0.00315705 0.00263419 0.00233679 0.00112474 0.00320697 -0.00586523 -0.00608108 -0.00608505
internal_weight=603 392 355 335 140 195 211 190 169
internal_count=603 392 355 335 140 195 211 190 169
is_linear=0
shrinkage=0.05


Tree=44
num_leaves=8
num_cat=0
split_feature=14 15 0 0 15 7 7
split_gain=4.03301 0.364684 0.187054 0.189317 0.212923 0.00138 1.92786e-08
threshold=1.0000000180025095e-35 388.50000000000006 11.500000000000002 1.5000000000000002 361.50000000000006 20.500000000000004 15.500000000000002
decision_type=2 2 2 2 2 2 2
left_child=5 2 3 -2 -5 6 -1
right_child=1 -3 -4 4 -6 -7 -8
leaf_value=-0.0057808097451925279 0.0058208383345866909 0.009452324612066151 0.0072348939583753245 0.0024134897275333474 -0.0012534188248379075 -0.0062096034841878081 -0.0057822187912875212
leaf_weight=149 34 20 20 284 46 21 29
leaf_count=149 34 20 20 284 46 21 29
internal_value=3.53445e-11 0.00286987 0.00252703 0.00226836 0.00190234 -0.00582626 -0.00578104
internal_weight=603 404 384 364 330 199 178
internal_count=603 404 384 364 330 199 178
is_linear=0
shrinkage=0.05


Tree=45
num_leaves=10
num_cat=0
split_feature=14 0 0 1 15 7 7 7 7
split_gain=3.65365 0.345642 0.171445 0.138274 0.422025 0.140617 0.0252167 1.61265e-05 1.58184e-10
threshold=9.5000000000000018 1.5000000000000002 11.500000000000002 1.0000000180025095e-35 304.50000000000006 1266.5000000000002 22.500000000000004 17.500000000000004 15.500000000000002
decision_type=2 2 2 2 2 2 2 2 2
left_child=6 -2 3 4 -3 -5 7 8 -1
right_child=1 2 -4 5 -6 -7 -8 -9 -10
leaf_value=-0.0054917693138122562 0.0074543392008824929 0.00074422513956532766 0.0068731492880760928 0.003141584214987234 0.0094040291015213984 0.00079604876102711279 -0.0036607503669247744 -0.0054452932306698395 -0.0054916195571422582
leaf_weight=149 37 34 20 100 24 177 21 21 20
leaf_count=149 37 34 20 100 24 177 21 21 20
internal_value=1.18177e-11 0.00285544 0.00237612 0.00210764 0.00432759 0.00164281 -0.0053049 -0.00548662 -0.00549175
internal_weight=603 392 355 335 58 277 211 190 169
internal_count=603 392 355 335 58 277 211 190 169
is_linear=0
shrinkage=0.05


Tree=46
num_leaves=10
num_cat=0
split_feature=14 14 0 14 7 7 7 7 0
split_gain=3.29742 0.334816 0.146005 0.152471 0.334305 0.0227581 1.45541e-05 1.42836e-10 2.22045e-16
threshold=9.5000000000000018 29.500000000000004 11.500000000000002 26.500000000000004 1443.5000000000002 22.500000000000004 17.500000000000004 15.500000000000002 9.5000000000000018
decision_type=2 2 2 2 2 2 2 2 2
left_child=5 2 3 4 -2 6 7 8 -1
right_child=1 -3 -4 -5 -6 -7 -8 -9 -10
leaf_value=-0.0052171807736158373 0.0018587016752094456 0.0090147831011563543 0.0065294918417930607 -0.0015470718105251972 0.0069064834211776784 -0.0034777130355082807 -0.0051730285265616013 -0.0052170384675264362 -0.0052171807736158373
leaf_weight=127 289 20 20 26 37 21 21 20 22
leaf_count=127 289 20 20 26 37 21 21 20 22
internal_value=4.15948e-11 0.00271267 0.00237385 0.00213773 0.00243161 -0.00503965 -0.00521229 -0.00521716 -0.00521718
internal_weight=603 392 372 352 326 211 190 169 149
internal_count=603 392 372 352 326 211 190 169 149
is_linear=0
shrinkage=0.05


Tree=47
num_leaves=11
num_cat=0
split_feature=14 7 14 15 14 14 7 7 7 0
split_gain=2.9798 0.320865 0.198793 0.0815198 0.124738 0.0715813 0.12554 0.00177471 7.36983e-08 2.22045e-16
threshold=1.0000000180025095e-35 1518.0000000000002 22.500000000000004 366.50000000000006 26.500000000000004 21.500000000000004 1333.5000000000002 20.500000000000004 15.500000000000002 9.5000000000000018
decision_type=2 2 2 2 2 2 2 2 2 2
left_child=7 2 5 4 -4 6 -2 8 9 -1
right_child=1 -3 3 -5 -6 -7 -8 -9 -10 -11
leaf_value=-0.0049563217908143997 0.00097896352992393092 0.0077322190317014863 0.0047116827394347643 0.0066593576870534734 0.0002969018591102213 -0.0013850406959785948 0.0034431645975646591 -0.0054427758391414373 -0.0049590767586025703 -0.0049563217908143997
leaf_weight=127 190 27 48 23 24 21 71 21 29 22
leaf_count=127 190 27 48 23 24 21 71 21 29 22
internal_value=-1.02587e-11 0.00246684 0.00208974 0.00406791 0.00324009 0.00142334 0.0016493 -0.00500806 -0.00495677 -0.00495632
internal_weight=603 404 377 95 72 282 261 199 178 149
internal_count=603 404 377 95 72 282 261 199 178 149
is_linear=0
shrinkage=0.05


Tree=48
num_leaves=11
num_cat=0
split_feature=14 0 0 1 15 7 7 7 7 0
split_gain=2.69287 0.307285 0.142598 0.128879 0.367875 0.154004 0.0167282 2.33223e-05 5.25918e-10 2.22045e-16
threshold=9.5000000000000018 1.5000000000000002 11.500000000000002 1.0000000180025095e-35 304.50000000000006 1504.5000000000002 22.500000000000004 17.500000000000004 15.500000000000002 8.5000000000000018
decision_type=2 2 2 2 2 2 2 2 2 2
left_child=6 -2 3 4 -3 -5 7 8 9 -1
right_child=1 2 -4 5 -6 -7 -8 -9 -10 -11
leaf_value=-0.0047085057944059377 0.0067876306035228682 0.00055224625941585094 0.0061007558414712549 0.0016435261843469108 0.0086374106360987465 -0.0028104377112218313 -0.0032151668399040194 -0.0046526033431291578 -0.0047082327306270603 -0.0047085057944059377
leaf_weight=118 37 34 20 256 24 21 21 21 20 31
leaf_count=118 37 34 20 256 24 21 21 21 20 31
internal_value=-5.50463e-12 0.00245142 0.00199947 0.00175462 0.00389783 0.00130586 -0.00455429 -0.0047023 -0.00470847 -0.00470851
internal_weight=603 392 355 335 58 277 211 190 169 149
internal_count=603 392 355 335 58 277 211 190 169 149
is_linear=0
shrinkage=0.05


Tree=49
num_leaves=9
num_cat=0
split_feature=14 14 0 14 7 7 7 7
split_gain=2.43366 0.30268 0.126968 0.1279 0.298325 0.0018422 1.18547e-07 2.22045e-16
threshold=1.0000000180025095e-35 29.500000000000004 11.500000000000002 26.500000000000004 1443.5000000000002 20.500000000000004 15.500000000000002 9.5000000000000018
decision_type=2 2 2 2 2 2 2 2
left_child=5 2 3 4 -2 6 7 -1
right_child=1 -3 -4 -5 -6 -7 -8 -9
leaf_value=-0.0044730804860591894 0.0014430352650221941 0.0082261698693037039 0.0057957179495133461 -0.0016754071281936307 0.0062006447036322713 -0.0049688089638948441 -0.004476574564288403 -0.0044730804860591894
leaf_weight=51 301 20 20 26 37 21 29 98
leaf_count=51 301 20 20 26 37 21 29 98
internal_value=-5.27296e-12 0.00222934 0.00191701 0.00170389 0.00196384 -0.0045259 -0.00447365 -0.00447308
internal_weight=603 404 384 364 338 199 178 149
internal_count=603 404 384 364 338 199 178 149
is_linear=0
shrinkage=0.05


Tree=50
num_leaves=12
num_cat=0
split_feature=15 15 1 7 7 15 4 0 4 7 7
split_gain=2.21258 0.266386 0.147287 0.454286 0.173016 0.154961 0.132902 0.015456 0.0143239 0.0452812 0.00805154
threshold=251.50000000000003 388.50000000000006 1.0000000180025095e-35 1378.5000000000002 1465.0000000000002 349.50000000000006 4.5000000000000009 9.5000000000000018 1.5000000000000002 20.500000000000004 15.500000000000002
decision_type=2 2 2 2 2 2 2 2 2 2 2
left_child=6 2 3 -2 5 -4 7 8 10 -10 -1
right_child=1 -3 4 -5 -6 -7 -8 -9 9 -11 -12
leaf_value=-0.0042494263499975203 0.0012271737749688328 0.0079761110525578254 0.0013718388150583752 0.010456402432173491 -0.0017689072691342411 0.0043023259210368172 -0.0003647930299242338 -0.0053464572379986449 -0.0042498095291797246 -0.0016578767658211294 -0.0055609532293270933
leaf_weight=25 40 20 203 20 34 58 24 30 107 20 22
leaf_count=25 40 20 203 20 34 58 24 30 107 20 22
internal_value=3.61988e-11 0.00236163 0.00204532 0.00430358 0.00158602 0.00202306 -0.00388427 -0.00429832 -0.00411761 -0.00384163 -0.00486333
internal_weight=603 375 355 60 295 261 228 204 174 127 47
internal_count=603 375 355 60 295 261 228 204 174 127 47
is_linear=0
shrinkage=0.05


Tree=51
num_leaves=12
num_cat=0
split_feature=14 0 15 1 15 7 1 4 7 0 4
split_gain=1.99851 0.270111 0.11598 0.133675 0.225654 0.213176 0.0125201 0.0121949 0.0152877 0.0123185 2.61988e-05
threshold=9.5000000000000018 1.5000000000000002 251.50000000000003 1.0000000180025095e-35 294.50000000000006 1266.5000000000002 2.5000000000000004 1.5000000000000002 19.500000000000004 4.5000000000000009 3.5000000000000004
decision_type=2 2 2 2 2 2 2 2 2 2 2
left_child=6 -2 -3 4 -4 -5 -1 9 10 -8 -9
right_child=1 2 3 5 -6 -7 7 8 -10 -11 -12
leaf_value=-0.0028728749901056291 0.0061773207818938275 -0.0019160952685134754 0.00052776979670549442 0.0034571440060172684 0.0069856000741222697 0.00050904629343347823 -0.0057061889208853247 -0.0040290418710257556 -0.0025553272897377612 -0.0040413582921028143 -0.004076777018131094
leaf_weight=25 37 21 24 91 31 188 20 74 20 25 47
leaf_count=25 37 21 24 91 31 188 20 74 20 25 47
internal_value=-3.5079e-11 0.00211185 0.00168812 0.00191473 0.00416764 0.00147061 -0.00392343 -0.00406463 -0.00383592 -0.00478128 -0.00404758
internal_weight=603 392 355 334 55 279 211 186 141 45 121
internal_count=603 392 355 334 55 279 211 186 141 45 121
is_linear=0
shrinkage=0.05


Tree=52
num_leaves=15
num_cat=0
split_feature=14 7 14 0 4 15 7 15 7 4 4 1 0 7
split_gain=1.80494 0.270163 0.170674 0.0826872 0.0924065 0.0875586 0.0752722 0.113048 0.00234025 5.71472e-05 2.55072e-05 4.68008e-06 3.48001e-06 8.64787e-07
threshold=1.0000000180025095e-35 1518.0000000000002 22.500000000000004 2.5000000000000004 3.5000000000000004 287.50000000000006 1347.5000000000002 366.50000000000006 20.500000000000004 3.5000000000000004 1.5000000000000002 5.5000000000000009 7.5000000000000009 12.500000000000002
decision_type=2 2 2 2 2 2 2 2 2 2 2 2 2 2
left_child=8 2 3 4 -2 -5 -4 -8 9 10 13 -11 -12 -1
right_child=1 -3 6 5 -6 -7 7 -9 -10 11 12 -13 -14 -15
leaf_value=-0.0037949609756469729 0.0010493885863710332 0.006751387914711679 0.0056403705677776431 0.00013825643659252059 -0.0033160320842977272 0.002124956988936133 0.0011100844586389546 0.005467861958525398 -0.0043968909020934794 -0.0038967833854258063 -0.0038425591215491294 -0.0038666939828544858 -0.0038206589623139458 -0.0037802573479712013
leaf_weight=20 27 27 27 91 22 142 46 22 21 28 60 24 26 20
leaf_count=20 27 27 27 91 22 142 46 22 21 28 60 24 26 20
internal_value=-7.89616e-12 0.0019199 0.00157388 0.000956404 -0.000910596 0.00134904 0.00340681 0.00251995 -0.00389769 -0.0038388 -0.0038206 -0.0038829 -0.00383594 -0.00378761
internal_weight=603 404 377 282 49 233 95 68 199 178 126 52 86 40
internal_count=603 404 377 282 49 233 95 68 199 178 126 52 86 40
is_linear=0
shrinkage=0.05


Tree=53
num_leaves=11
num_cat=0
split_feature=15 14 4 14 7 15 0 4 1 7
split_gain=1.63149 0.229301 0.114464 0.102387 0.206398 0.109639 0.0144825 0.012171 0.0368627 0.00832774
threshold=251.50000000000003 29.500000000000004 4.5000000000000009 26.500000000000004 1496.5000000000002 349.50000000000006 9.5000000000000018 1.5000000000000002 3.5000000000000004 15.500000000000002
decision_type=2 2 2 2 2 2 2 2 2 2
left_child=2 3 6 4 5 -2 7 9 -9 -1
right_child=1 -3 -4 -5 -6 -7 -8 8 -10 -11
leaf_value=-0.0036078143268823623 0.0011848913037882573 0.0072369623242411769 -6.9199083372950551e-05 -0.0012251294820560834 0.0069001512462273235 0.0035375801932434935 -0.0047342784081896155 -0.0015256501462620996 -0.0037015602679796589 -0.004941646365279502
leaf_weight=25 246 20 24 27 20 62 30 24 103 22
leaf_count=25 246 20 24 27 20 62 30 24 103 22
internal_value=-1.90053e-11 0.00202794 -0.00333543 0.00173447 0.0019781 0.00165848 -0.00371969 -0.00354476 -0.00329036 -0.00423216
internal_weight=603 375 228 355 328 308 204 174 127 47
internal_count=603 375 228 355 328 308 204 174 127 47
is_linear=0
shrinkage=0.05


Tree=54
num_leaves=14
num_cat=0
split_feature=14 0 0 0 15 1 0 1 7 7 0 4 1
split_gain=1.48123 0.247951 0.114312 0.113399 0.260674 0.193351 0.00980653 0.042202 0.00977494 0.000532602 9.21045e-05 8.55673e-05 8.83503e-06
threshold=9.5000000000000018 1.5000000000000002 11.500000000000002 6.5000000000000009 360.50000000000006 3.5000000000000004 4.5000000000000009 3.5000000000000004 15.500000000000002 16.500000000000004 9.5000000000000018 3.5000000000000004 5.5000000000000009
decision_type=2 2 2 2 2 2 2 2 2 2 2 2 2
left_child=6 -2 3 5 -5 -3 8 -8 11 10 -9 12 -1
right_child=1 2 -4 4 -6 -7 7 9 -10 -11 -12 -13 -14
leaf_value=-0.0034787613221190193 0.0057132518271336688 0.002784754698128476 0.0050841988995671272 0.0009880271562966907 -0.0051776042813435202 -0.0010789843182442936 -0.0011092869501391595 -0.0034925921309378843 -0.0047617075592279439 -0.0037429291400171462 -0.0033735110170461918 -0.0035810866579413419 -0.0034339510412378749
leaf_weight=22 37 154 20 120 20 41 22 62 20 21 22 20 22
leaf_count=22 37 154 20 120 20 41 22 62 20 21 22 20 22
internal_value=-8.06026e-13 0.00181811 0.00141214 0.00119291 0.000107223 0.00197238 -0.00337772 -0.0031005 -0.00379685 -0.00351771 -0.0034614 -0.00349533 -0.00345636
internal_weight=603 392 355 335 140 195 211 127 84 105 84 64 44
internal_count=603 392 355 335 140 195 211 127 84 105 84 64 44
is_linear=0
shrinkage=0.05


Tree=55
num_leaves=12
num_cat=0
split_feature=15 15 1 7 7 7 4 0 4 7 7
split_gain=1.34248 0.216283 0.120066 0.380872 0.170715 0.135284 0.0988034 0.0135405 0.0108725 0.0297982 0.00781085
threshold=251.50000000000003 388.50000000000006 1.0000000180025095e-35 1378.5000000000002 1465.0000000000002 1422.5000000000002 4.5000000000000009 9.5000000000000018 1.5000000000000002 20.500000000000004 15.500000000000002
decision_type=2 2 2 2 2 2 2 2 2 2 2
left_child=6 2 3 -2 5 -4 7 8 10 -10 -1
right_child=1 -3 4 -5 -6 -7 -8 -9 9 -11 -12
leaf_value=-0.0032585199475288398 0.00077660128357820218 0.0068985810130834579 0.0011873130004444563 0.0092272537492681297 -0.00219268070479088 0.0049251800402998931 8.9583763231833778e-06 -0.0043636661767959594 -0.003304162297711194 -0.0012015451525803657 -0.0045502946034751161
leaf_weight=25 40 20 234 20 34 27 24 30 107 20 22
leaf_count=25 40 20 234 20 34 27 24 30 107 20 22
internal_value=-4.53137e-11 0.00183958 0.00155456 0.00359349 0.00113986 0.00157399 -0.00302562 -0.00338263 -0.00321348 -0.00297304 -0.00386318
internal_weight=603 375 355 60 295 261 228 204 174 127 47
internal_count=603 375 355 60 295 261 228 204 174 127 47
is_linear=0
shrinkage=0.05


Tree=56
num_leaves=14
num_cat=0
split_feature=14 7 14 7 7 7 7 15 7 4 0 7 1
split_gain=1.21398 0.22057 0.146047 0.0921255 0.25005 0.249078 0.0681718 0.096516 0.00229646 0.000311571 0.000113476 9.28826e-05 2.44315e-05
threshold=1.0000000180025095e-35 1518.0000000000002 22.500000000000004 1268.5000000000002 1197.5000000000002 1333.5000000000002 1347.5000000000002 366.50000000000006 20.500000000000004 3.5000000000000004 9.5000000000000018 15.500000000000002 5.5000000000000009
decision_type=2 2 2 2 2 2 2 2 2 2 2 2 2
left_child=8 2 3 4 -2 -5 -4 -8 9 10 11 -1 -11
right_child=1 -3 6 5 -6 -7 7 -9 -10 12 -12 -13 -14
leaf_value=-0.0031388877912662755 9.8565987510872732e-05 0.0059401078046196036 0.0050830275715001072 -0.0032396988123250398 0.0044730883666637298 0.0012916816228456546 0.00081071907897358364 0.0048372762382231571 -0.0036910514657696094 -0.0032729052140244418 -0.002986467741429806 -0.0030192616768181324 -0.0032041568852340186
leaf_weight=86 98 27 27 46 49 89 46 22 21 28 20 20 24
leaf_count=86 98 27 27 46 49 89 46 22 21 28 20 20 24
internal_value=-7.62105e-12 0.00157453 0.00126188 0.000690689 0.00155674 -0.000252344 0.00295742 0.00211343 -0.00319654 -0.0031382 -0.00309571 -0.00311632 -0.00324118
internal_weight=603 404 377 282 147 135 95 68 199 178 126 106 52
internal_count=603 404 377 282 147 135 95 68 199 178 126 106 52
is_linear=0
shrinkage=0.05


Tree=57
num_leaves=12
num_cat=0
split_feature=15 14 14 7 7 4 7 0 4 1 7
split_gain=1.09734 0.186284 0.0963087 0.17899 0.150127 0.0873532 0.0302313 0.0124938 0.00994548 0.0251908 0.00747229
threshold=251.50000000000003 29.500000000000004 26.500000000000004 1443.5000000000002 1413.0000000000002 4.5000000000000009 1496.5000000000002 9.5000000000000018 1.5000000000000002 3.5000000000000004 15.500000000000002
decision_type=2 2 2 2 2 2 2 2 2 2 2
left_child=5 2 3 4 -2 7 -5 8 10 -10 -1
right_child=1 -3 -4 6 -6 -7 -8 -9 9 -11 -12
leaf_value=-0.0029386494755744936 0.0015742664398119535 0.006358229673933239 -0.0014717562072392967 0.0033944701252039524 -0.0022790102720526713 0.00011786182100574177 0.006143621816299856 -0.0040135088314612703 -0.0012198928219731898 -0.0030186326342444975 -0.0042021182450381195
leaf_weight=25 260 20 27 20 28 24 20 30 24 103 22
leaf_count=25 260 20 27 20 28 24 20 30 24 103 22
internal_value=-1.18201e-11 0.00166316 0.00139865 0.00163494 0.00119964 -0.00273546 0.00476905 -0.00307115 -0.00290867 -0.00267871 -0.00353006
internal_weight=603 375 355 328 288 228 40 204 174 127 47
internal_count=603 375 355 328 288 228 40 204 174 127 47
is_linear=0
shrinkage=0.05


Tree=58
num_leaves=14
num_cat=0
split_feature=14 0 0 14 14 7 0 1 7 0 4 4 1
split_gain=0.996794 0.215354 0.105291 0.117203 0.127446 0.0676071 0.00856619 0.0306618 0.00824286 0.000520637 0.000310015 0.000225864 1.7154e-05
threshold=9.5000000000000018 1.5000000000000002 11.500000000000002 26.500000000000004 20.500000000000004 1470.5000000000002 4.5000000000000009 3.5000000000000004 15.500000000000002 9.5000000000000018 2.5000000000000004 3.5000000000000004 5.5000000000000009
decision_type=2 2 2 2 2 2 2 2 2 2 2 2 2
left_child=6 -2 3 4 -3 -5 8 -8 11 10 -9 12 -1
right_child=1 2 -4 5 -6 -7 7 9 -10 -11 -12 -13 -14
leaf_value=-0.0028536069291559135 0.0051215492371419402 0.00055130298355992756 0.0046373098227195444 0.00043859759656091529 0.002798160305626326 -0.0035734991498646285 -0.00081450595647435294 -0.0028257341149288255 -0.0040486184973269708 -0.0026733153428022682 -0.0030242291766972768 -0.0030250352900475265 -0.0027911679480563511
leaf_weight=22 37 201 20 21 92 21 22 37 20 26 42 20 22
leaf_count=22 37 201 20 21 92 21 22 37 20 26 42 20 22
internal_value=-1.20277e-11 0.00149146 0.00111312 0.000902716 0.0012568 -0.00156745 -0.00277087 -0.00251177 -0.0031626 -0.00286739 -0.00293126 -0.00288571 -0.00282239
internal_weight=603 392 355 335 293 42 211 127 84 105 79 64 44
internal_count=603 392 355 335 293 42 211 127 84 105 79 64 44
is_linear=0
shrinkage=0.05


Tree=59
num_leaves=12
num_cat=0
split_feature=15 15 1 7 7 15 4 14 4 0 7
split_gain=0.899805 0.182805 0.106165 0.334076 0.173829 0.130024 0.0761053 0.016068 0.000958714 0.00113204 0.000552081
threshold=251.50000000000003 388.50000000000006 1.0000000180025095e-35 1378.5000000000002 1465.0000000000002 349.50000000000006 4.5000000000000009 6.5000000000000009 1.5000000000000002 4.5000000000000009 16.500000000000004
decision_type=2 2 2 2 2 2 2 2 2 2 2
left_child=6 2 3 -2 5 -4 7 8 9 -1 -10
right_child=1 -3 4 -5 -6 -7 -8 -9 10 -11 -12
leaf_value=-0.0021652404218912126 0.00052311001869384207 0.0061570594203658405 0.00069560386408797092 0.0084376104571856556 -0.0025087382904637385 0.0033799627608647729 0.00018625282682478429 -0.0041363252879818907 -0.0026706677221733591 -0.0026542144281596972 -0.0029552936274558307
leaf_weight=20 40 20 203 20 34 58 24 20 115 29 20
leaf_count=20 40 20 203 20 34 58 24 20 115 29 20
internal_value=-7.30733e-12 0.00150604 0.00124401 0.00316128 0.000854062 0.00129213 -0.00247704 -0.00279037 -0.00264407 -0.00245463 -0.00271283
internal_weight=603 375 355 60 295 261 228 204 184 49 135
internal_count=603 375 355 60 295 261 228 204 184 49 135
is_linear=0
shrinkage=0.05


Tree=60
num_leaves=11
num_cat=0
split_feature=14 14 0 14 7 1 7 4 0 1
split_gain=0.822142 0.18363 0.090198 0.105919 0.185541 0.00238716 0.000545422 0.000548946 8.75594e-05 8.33237e-06
threshold=1.0000000180025095e-35 29.500000000000004 11.500000000000002 26.500000000000004 1443.5000000000002 1.5000000000000002 19.500000000000004 3.5000000000000004 8.5000000000000018 5.5000000000000009
decision_type=2 2 2 2 2 2 2 2 2 2
left_child=5 2 3 4 -2 -1 7 8 -7 -9
right_child=1 -3 -4 -5 -6 6 -8 9 -10 -11
leaf_value=-0.0031486426386982203 0.00069867956590194001 0.005966665302403272 0.004321648352779448 -0.0022023845884877329 0.004450688537680607 -0.0025033980897731251 -0.0028187681641429663 -0.0027066446921747665 -0.0023921230469237677 -0.0026645300056164466
leaf_weight=20 301 20 20 26 37 90 20 23 22 24
leaf_count=20 301 20 20 26 37 90 20 23 22 24
internal_value=-3.1493e-13 0.00129575 0.00105247 0.000872846 0.0011094 -0.00263056 -0.00257268 -0.00254172 -0.00248154 -0.00268514
internal_weight=603 404 384 364 338 199 179 159 112 47
internal_count=603 404 384 364 338 199 179 159 112 47
is_linear=0
shrinkage=0.05


Tree=61
num_leaves=14
num_cat=0
split_feature=14 0 1 7 4 0 0 1 7 0 4 4 1
split_gain=0.743336 0.189602 0.0933031 0.221785 0.202382 0.177908 0.00761026 0.0252374 0.00767054 0.000450199 0.000317189 0.000263497 1.15135e-05
threshold=9.5000000000000018 1.5000000000000002 1.0000000180025095e-35 1504.5000000000002 2.5000000000000004 3.5000000000000004 4.5000000000000009 3.5000000000000004 15.500000000000002 9.5000000000000018 2.5000000000000004 3.5000000000000004 5.5000000000000009
decision_type=2 2 2 2 2 2 2 2 2 2 2 2 2
left_child=6 -2 4 5 -3 -4 8 -8 11 10 -9 12 -1
right_child=1 2 3 -5 -6 -7 7 9 -10 -11 -12 -13 -14
leaf_value=-0.0024521008811213755 0.0046940920795030851 0.0058429969774026966 -0.0016269881419281808 -0.0043907399511053449 0.00010271294330082397 0.0015787396922818634 -0.0006087519984827272 -0.0024238678702228778 -0.0036167294438928369 -0.0022907458245754243 -0.0026246461795554274 -0.0026454043202102187 -0.0024009472013197166
leaf_weight=22 37 28 54 21 34 218 22 37 20 26 42 20 22
leaf_count=22 37 28 54 21 34 218 22 37 20 26 42 20 22
internal_value=-4.27809e-12 0.00128796 0.000932954 0.000560076 0.0026951 0.000942308 -0.0023928 -0.00214858 -0.00276202 -0.00247122 -0.00253061 -0.00249492 -0.00242652
internal_weight=603 392 355 293 62 272 211 127 84 105 79 64 44
internal_count=603 392 355 293 62 272 211 127 84 105 79 64 44
is_linear=0
shrinkage=0.05


Tree=62
num_leaves=14
num_cat=0
split_feature=15 7 14 7 4 7 4 7 15 14 4 0 7
split_gain=0.673488 0.175638 0.108138 0.139114 0.244449 0.214987 0.0648177 0.058013 0.0783872 0.0226543 0.00081929 0.00114377 0.000415552
threshold=251.50000000000003 1518.0000000000002 22.500000000000004 1268.5000000000002 3.5000000000000004 1333.5000000000002 4.5000000000000009 1347.5000000000002 366.50000000000006 6.5000000000000009 1.5000000000000002 4.5000000000000009 16.500000000000004
decision_type=2 2 2 2 2 2 2 2 2 2 2 2 2
left_child=6 2 3 4 -2 -5 9 -4 -9 10 11 -1 -12
right_child=1 -3 7 5 -6 -7 -8 8 -10 -11 12 -13 -14
leaf_value=-0.0017924459744244816 0.0033452079212740781 0.0051877789044131838 0.0044007476624015173 -0.0034101012031264276 -0.0014623832734650933 0.00079977387337411732 0.0003148568794131279 0.00048732321668902172 0.0041160707446661867 -0.0040303467708872635 -0.0022854394190337346 -0.0022839454869771829 -0.0025323762558400634
leaf_weight=20 78 27 27 46 40 89 24 46 22 20 115 29 20
leaf_count=20 78 27 27 46 40 89 24 46 22 20 115 29 20
internal_value=-3.19515e-11 0.00130295 0.00100154 0.000461447 0.00171552 -0.000634702 -0.00214301 0.0024399 0.00166133 -0.00243217 -0.00225846 -0.00208333 -0.00232202
internal_weight=603 375 348 253 118 135 228 95 68 204 184 49 135
internal_count=603 375 348 253 118 135 228 95 68 204 184 49 135
is_linear=0
shrinkage=0.05


Tree=63
num_leaves=14
num_cat=0
split_feature=14 0 14 7 14 0 1 0 1 4 4 7 4
split_gain=0.614337 0.173092 0.0928497 0.114701 0.107021 0.277472 0.134525 0.00687548 0.0216198 0.00706741 0.000425773 0.000210913 0.000184796
threshold=9.5000000000000018 1.5000000000000002 26.500000000000004 1461.5000000000002 20.500000000000004 6.5000000000000009 2.5000000000000004 4.5000000000000009 3.5000000000000004 1.5000000000000002 3.5000000000000004 15.500000000000002 3.5000000000000004
decision_type=2 2 2 2 2 2 2 2 2 2 2 2 2
left_child=7 -2 4 -4 6 -6 -3 9 -9 -1 11 -10 -11
right_child=1 2 3 -5 5 -7 -8 8 10 12 -12 -13 -14
leaf_value=-0.0032961532219567082 0.0044253429687405761 -0.00070399037407090266 0.0014228187617845835 -0.0037545531826174774 0.0051641154323932622 -0.00013025103323161604 0.0018113718645455428 -0.00051795862593942063 -0.0021211067644449381 -0.0021844358281477502 -0.0023938504571560772 -0.0023088530415580387 -0.0023616566400354107
leaf_weight=22 37 111 20 23 49 50 102 22 52 38 32 21 24
leaf_count=22 37 111 20 23 49 50 102 22 52 38 32 21 24
internal_value=-2.76462e-11 0.00117088 0.000831684 -0.00134647 0.00113188 0.00249019 0.000500549 -0.00217529 -0.00194316 -0.00252623 -0.00224178 -0.00217512 -0.00225304
internal_weight=603 392 355 43 312 99 213 211 127 84 105 73 62
internal_count=603 392 355 43 312 99 213 211 127 84 105 73 62
is_linear=0
shrinkage=0.05


Tree=64
num_leaves=12
num_cat=0
split_feature=15 7 14 7 15 7 4 7 4 7 1
split_gain=0.556438 0.160495 0.0980763 0.155325 0.269737 0.115895 0.0534953 0.0249547 0.00667032 0.0202537 0.00917081
threshold=255.50000000000003 1518.0000000000002 27.500000000000004 1405.5000000000002 349.50000000000006 1422.5000000000002 4.5000000000000009 1059.5000000000002 2.5000000000000004 16.500000000000004 4.5000000000000009
decision_type=2 2 2 2 2 2 2 2 2 2 2
left_child=6 2 3 4 -2 -5 7 8 10 -10 -1
right_child=1 -3 -4 5 -6 -7 -8 -9 9 -11 -12
leaf_value=-0.0032065468607470394 0.0006805530943108911 0.0049322671860594445 0.0040790725742345267 -0.0046075104223564272 0.005813436813909432 -9.0885353369676343e-05 0.00035038846544921398 -0.0038208555977325889 -0.0020468481267764144 -0.00025092546828091148 -0.0020094925176817927
leaf_weight=20 218 27 23 20 29 49 24 20 73 20 80
leaf_count=20 218 27 23 20 29 49 24 20 73 20 80
internal_value=-2.55419e-11 0.00122223 0.000926741 0.0006973 0.0012832 -0.00140005 -0.0018875 -0.00213965 -0.00196543 -0.00166063 -0.0022489
internal_weight=603 366 339 316 247 69 237 213 193 93 100
internal_count=603 366 339 316 247 69 237 213 193 93 100
is_linear=0
shrinkage=0.05


Tree=65
num_leaves=14
num_cat=0
split_feature=14 15 1 7 14 7 14 1 4 4 7 7 0
split_gain=0.510249 0.158209 0.111952 0.273902 0.165273 0.156664 0.137719 0.00319299 0.000793049 0.000295016 0.000253226 0.000167129 8.00043e-05
threshold=1.0000000180025095e-35 388.50000000000006 1.0000000180025095e-35 1378.5000000000002 16.500000000000004 1465.0000000000002 16.500000000000004 1.5000000000000002 3.5000000000000004 1.5000000000000002 14.500000000000002 13.500000000000002 5.5000000000000009
decision_type=2 2 2 2 2 2 2 2 2 2 2 2 2
left_child=7 2 3 4 -2 6 -4 -1 9 11 -11 -9 -10
right_child=1 -3 5 -5 -6 -7 -8 8 12 10 -12 -13 -14
leaf_value=-0.0026715409569442274 0.0030179891634957291 0.0053563632583245634 -0.00051768060538807286 0.0075499945442425087 -0.0028902086452580987 -0.0028102102093672493 0.0017250894231398937 -0.0019216737399498623 -0.0021050884531667599 -0.0019350155371061545 -0.0021258792951703073 -0.0017259688163176181 -0.0022279726755287913
leaf_weight=20 29 20 118 20 20 34 163 24 26 57 25 20 27
leaf_count=20 29 20 118 20 20 34 163 24 26 57 25 20 27
internal_value=-1.48174e-11 0.00102079 0.000794983 0.00261909 0.00060648 0.000395416 0.000783286 -0.00207237 -0.00200542 -0.00193716 -0.00199321 -0.00183272 -0.00216769
internal_weight=603 404 384 69 49 315 281 199 179 126 82 44 53
internal_count=603 404 384 69 49 315 281 199 179 126 82 44 53
is_linear=0
shrinkage=0.05


Tree=66
num_leaves=14
num_cat=0
split_feature=14 7 14 14 7 7 14 1 4 4 7 7 0
split_gain=0.460499 0.152712 0.0954197 0.119388 0.0869617 0.0513857 0.0736949 0.00288167 0.000715727 0.000266252 0.000228536 0.000150834 7.2204e-05
threshold=1.0000000180025095e-35 1518.0000000000002 22.500000000000004 21.500000000000004 1073.0000000000002 1347.5000000000002 25.500000000000004 1.5000000000000002 3.5000000000000004 1.5000000000000002 14.500000000000002 13.500000000000002 5.5000000000000009
decision_type=2 2 2 2 2 2 2 2 2 2 2 2 2
left_child=7 2 3 4 -2 -4 -7 -1 9 11 -11 -9 -10
right_child=1 -3 5 -5 -6 6 -8 8 12 10 -12 -13 -14
leaf_value=-0.0025379639305174351 0.0034756065913192601 0.0046022517330668589 0.0039255572094084026 -0.0033789943426936159 0.0002560066737179809 -0.00045091109876070298 0.0028540133813245074 -0.001825590121249358 -0.0019998340079417595 -0.001838264748323382 -0.0020195852816104888 -0.001639670361764729 -0.0021165740572743944
leaf_weight=20 23 27 27 21 238 31 37 24 26 57 25 20 27
leaf_count=20 23 27 27 21 238 31 37 24 26 57 25 20 27
internal_value=-6.56767e-12 0.000969754 0.000709602 0.000247907 0.000539726 0.00208011 0.00134736 -0.00196875 -0.00190515 -0.0018403 -0.00189355 -0.00174108 -0.00205931
internal_weight=603 404 377 282 261 95 68 199 179 126 82 44 53
internal_count=603 404 377 282 261 95 68 199 179 126 82 44 53
is_linear=0
shrinkage=0.05


Tree=67
num_leaves=14
num_cat=0
split_feature=15 0 15 1 0 4 0 7 7 0 4 0 7
split_gain=0.424015 0.189588 0.141088 0.172611 0.294204 0.215473 0.041513 0.181476 0.0406681 0.000859406 0.00041905 0.000400297 0.000140188
threshold=261.50000000000006 1.5000000000000002 273.50000000000006 1.0000000180025095e-35 2.5000000000000004 2.5000000000000004 5.5000000000000009 42.000000000000007 1011.5000000000001 9.5000000000000018 3.5000000000000004 6.5000000000000009 15.500000000000002
decision_type=2 2 2 2 2 2 2 2 2 2 2 2 2
left_child=6 -2 -3 5 -5 -4 7 10 9 11 12 -8 -1
right_child=1 2 3 4 -6 -7 8 -9 -10 -11 -12 -13 -14
leaf_value=-0.0017790672405121419 0.0047208438225259837 0.0043479222198948269 0.0071617286000400784 -0.0052048539509996772 0.00050761236307947334 -9.0297290377996198e-06 -0.0016893513407558202 0.0033052217437043079 -0.0040706176398089154 -0.0015633920748387615 -0.0019597036474994548 -0.0019532823843844966 -0.0016260026288884028
leaf_weight=52 33 25 20 25 229 22 20 21 24 31 29 51 21
leaf_count=52 33 25 20 25 229 22 20 21 24 31 29 51 21
internal_value=-8.28228e-12 0.00111199 0.000740984 0.000436344 -5.46383e-05 0.00340562 -0.0015809 -0.000927474 -0.00221877 -0.00178304 -0.00179891 -0.00187894 -0.00173503
internal_weight=603 354 321 296 254 42 249 123 126 102 102 71 73
internal_count=603 354 321 296 254 42 249 123 126 102 102 71 73
is_linear=0
shrinkage=0.05


Tree=68
num_leaves=10
num_cat=0
split_feature=15 0 15 15 1 7 14 1 4
split_gain=0.382674 0.171103 0.127332 0.173445 0.210066 0.0376684 0.210337 0.002596 0.000613873
threshold=261.50000000000006 1.5000000000000002 273.50000000000006 287.50000000000006 1.0000000180025095e-35 1073.0000000000002 1.0000000180025095e-35 1.5000000000000002 3.5000000000000004
decision_type=2 2 2 2 2 2 2 2 2
left_child=5 -2 -3 -4 -5 6 7 -1 -9
right_child=1 2 3 4 -6 -7 -8 8 -10
leaf_value=-0.0023210664372891191 0.0044848017424528458 0.0041305261878296735 -0.00312420146299466 0.0045610979044189062 0.00029755998463048763 -0.0031956898626582376 0.0034806144845095422 -0.0016603831778324786 -0.0018632040007637359
leaf_weight=20 33 25 31 33 232 29 21 126 53
leaf_count=20 33 25 31 33 232 29 21 126 53
internal_value=-1.47788e-11 0.00105639 0.000703935 0.000414527 0.000828491 -0.00150185 -0.00127858 -0.0017808 -0.00172044
internal_weight=603 354 321 296 265 249 220 199 179
internal_count=603 354 321 296 265 249 220 199 179
is_linear=0
shrinkage=0.05


Tree=69
num_leaves=15
num_cat=0
split_feature=15 0 14 14 1 7 0 7 14 15 0 0 7 4
split_gain=0.345363 0.154421 0.114918 0.14223 0.183819 0.101593 0.0373115 0.15789 0.0379357 0.0354735 0.00215648 0.00271808 0.000380859 0.00032529
threshold=261.50000000000006 1.5000000000000002 26.500000000000004 14.500000000000002 1.0000000180025095e-35 1461.5000000000002 5.5000000000000009 42.000000000000007 9.5000000000000018 300.50000000000006 6.5000000000000009 7.5000000000000009 15.500000000000002 3.5000000000000004
decision_type=2 2 2 2 2 2 2 2 2 2 2 2 2 2
left_child=6 -2 3 9 -5 -4 7 12 10 -3 -8 -12 13 -1
right_child=1 2 5 4 -6 -7 8 -9 -10 -11 11 -13 -14 -15
leaf_value=-0.0016039183470778742 0.0042605616759057293 -0.0026034282606646974 0.00086952129146084195 0.0047960465169838958 0.0009455624369280268 -0.0040030331229386129 -0.0020761656854301693 0.0031407856493301336 -0.0038200458244015559 6.8723695838580968e-05 -0.00099026476964354511 -0.001660607834046166 -0.001450561422854662 -0.0018233902677893641
leaf_weight=52 33 27 20 37 191 23 20 21 24 23 20 62 25 25
leaf_count=52 33 27 20 37 191 23 20 21 24 23 20 62 25 25
internal_value=-2.39165e-11 0.00100357 0.000668738 0.00104081 0.00157042 -0.00173673 -0.00142676 -0.000807285 -0.00203149 -0.00137424 -0.00161065 -0.00149711 -0.00162012 -0.00167518
internal_weight=603 354 321 278 228 43 249 123 126 50 102 82 102 77
internal_count=603 354 321 278 228 43 249 123 126 50 102 82 102 77
is_linear=0
shrinkage=0.05


Tree=70
num_leaves=11
num_cat=0
split_feature=15 14 0 14 7 4 14 4 0 7
split_gain=0.311862 0.145675 0.0804267 0.102853 0.12826 0.0446452 0.0347622 0.00061217 0.000961997 0.000614995
threshold=251.50000000000003 29.500000000000004 11.500000000000002 26.500000000000004 1443.5000000000002 4.5000000000000009 6.5000000000000009 1.5000000000000002 4.5000000000000009 16.500000000000004
decision_type=2 2 2 2 2 2 2 2 2 2
left_child=5 2 3 4 -2 6 7 8 -1 -9
right_child=1 -3 -4 -5 -6 -7 -8 9 -10 -11
leaf_value=-0.0010649234312586488 0.00034726283941863051 0.0050385254248976712 0.0037328137643635275 -0.0025514543916170416 0.0034849526071165865 0.00058157619399329028 -0.0036779763759113848 -0.0014935165416935217 -0.0015156788333993533 -0.0017939227726310493
leaf_weight=20 272 20 20 26 37 24 20 115 29 20
leaf_count=20 272 20 20 26 37 24 20 115 29 20
internal_value=-5.00026e-12 0.000886634 0.000652725 0.000468839 0.000722973 -0.00145828 -0.00169826 -0.00148308 -0.0013317 -0.00153802
internal_weight=603 375 355 335 309 228 204 184 49 135
internal_count=603 375 355 335 309 228 204 184 49 135
is_linear=0
shrinkage=0.05


Tree=71
num_leaves=12
num_cat=0
split_feature=14 15 7 15 14 4 7 7 4 1 1
split_gain=0.28571 0.134216 0.105638 0.122441 0.101405 0.00622909 0.0147302 0.00925633 0.000475586 6.96802e-05 2.59542e-05
threshold=9.5000000000000018 388.50000000000006 1085.5000000000002 261.50000000000006 14.500000000000002 1.5000000000000002 20.500000000000004 15.500000000000002 3.5000000000000004 5.5000000000000009 5.5000000000000009
decision_type=2 2 2 2 2 2 2 2 2 2 2
left_child=5 2 -2 -4 -5 7 8 -1 10 -10 -7
right_child=1 -3 3 4 -6 6 -8 -9 9 -11 -12
leaf_value=-0.0014235974499775519 0.0037923954897754208 0.00478861352428794 -0.0031628044119671635 -0.0014590875450521709 0.00098879663514989352 -0.0014733239799281774 -0.00012852934781800617 -0.0028032782254740598 -0.0016945872189743178 -0.001578484692921241 -0.0014178455907952142
leaf_weight=31 24 20 23 50 275 49 22 20 28 24 37
leaf_count=31 24 20 23 50 275 49 22 20 28 24 37
internal_value=-1.58696e-11 0.000798495 0.000583972 0.000362702 0.000612199 -0.00148346 -0.00133008 -0.00196465 -0.00152163 -0.001641 -0.00144946
internal_weight=603 392 372 348 325 211 160 51 138 52 86
internal_count=603 392 372 348 325 211 160 51 138 52 86
is_linear=0
shrinkage=0.05


Tree=72
num_leaves=14
num_cat=0
split_feature=7 14 7 7 4 7 14 7 0 7 14 7 4
split_gain=0.261025 0.12229 0.0930803 0.142595 0.134771 0.131476 0.35103 0.127694 0.121647 0.0804805 0.17097 0.00247451 0.000669068
threshold=1124.0000000000002 29.500000000000004 1268.5000000000002 1197.5000000000002 3.5000000000000004 1333.5000000000002 18.500000000000004 1359.5000000000002 5.5000000000000009 1073.0000000000002 1.0000000180025095e-35 20.500000000000004 3.5000000000000004
decision_type=2 2 2 2 2 2 2 2 2 2 2 2 2
left_child=9 2 3 4 -2 6 -4 -7 -5 10 11 12 -1
right_child=1 -3 5 8 -6 7 -8 -9 -10 -11 -12 -13 -14
leaf_value=-0.0013457803528696773 0.0018371788123132367 0.0046516633406281467 -0.0050268302658676278 0.0012859213407392855 -0.0032336008735001087 0.0033431361504905931 0.0031074437013428129 2.7616476032158568e-05 0.0060321970489221046 -0.004308438847110665 0.003084577506651049 -0.0019819354660631644 -0.0015589513636838932
leaf_weight=126 38 20 36 27 20 37 21 135 27 20 23 21 52
leaf_count=126 38 20 36 27 20 37 21 135 27 20 23 21 52
internal_value=-6.18396e-12 0.000851739 0.00062887 0.00181009 8.86341e-05 5.11559e-05 -0.00202999 0.000740839 0.00365906 -0.00127057 -0.000996888 -0.00146862 -0.00140806
internal_weight=603 361 341 112 58 229 57 172 54 242 222 199 178
internal_count=603 361 341 112 58 229 57 172 54 242 222 199 178
is_linear=0
shrinkage=0.05


Tree=73
num_leaves=13
num_cat=0
split_feature=7 7 1 15 7 0 14 7 7 14 1 4
split_gain=0.235575 0.111936 0.0957799 0.18723 0.182746 0.177426 0.129612 0.1068 0.0726336 0.1543 0.00246111 0.000630704
threshold=1124.0000000000002 1518.0000000000002 2.5000000000000004 353.50000000000006 1414.5000000000002 2.5000000000000004 17.500000000000004 1333.5000000000002 1073.0000000000002 1.0000000180025095e-35 1.5000000000000002 1.5000000000000002
decision_type=2 2 2 2 2 2 2 2 2 2 2 2
left_child=8 2 3 6 -5 -4 -2 -7 9 10 -1 -12
right_child=1 -3 5 4 -6 7 -8 -9 -10 -11 11 -13
leaf_value=-0.0019212269969284537 -0.0026211313079736796 0.0039058034066800718 -0.0025066988099189031 0.0059662098911675539 4.6441594122370589e-05 0.0012003918580012398 0.00027663440719901858 0.0045113125986351475 -0.0040930168086197229 0.0029303486782895484 -0.0011720107593150304 -0.0013899904082494755
leaf_weight=20 67 27 21 22 32 60 91 41 20 23 44 135
leaf_count=20 67 27 21 22 32 60 91 41 20 23 44 135
internal_value=-1.32657e-11 0.000809152 0.000558824 -8.34873e-05 0.0024582 0.00167497 -0.000952165 0.00254443 -0.00120704 -0.000947044 -0.00139518 -0.00133641
internal_weight=603 361 334 212 54 122 158 101 242 222 199 179
internal_count=603 361 334 212 54 122 158 101 242 222 199 179
is_linear=0
shrinkage=0.05


Tree=74
num_leaves=14
num_cat=0
split_feature=15 14 7 4 0 7 7 14 4 14 4 0 7
split_gain=0.214432 0.109025 0.0778003 0.149994 0.129168 0.127244 0.11359 0.0703623 0.0340721 0.0385867 0.000593033 0.000775887 0.000644142
threshold=251.50000000000003 29.500000000000004 1268.5000000000002 3.5000000000000004 7.5000000000000009 1197.5000000000002 1301.5000000000002 26.500000000000004 4.5000000000000009 6.5000000000000009 1.5000000000000002 4.5000000000000009 16.500000000000004
decision_type=2 2 2 2 2 2 2 2 2 2 2 2 2
left_child=8 2 3 4 -2 -5 -4 -8 9 10 11 -1 -12
right_child=1 -3 6 5 -6 -7 7 -9 -10 -11 12 -13 -14
leaf_value=-0.00080357487313449389 0.0040674134884190203 0.0043270452413707973 -0.0030621070276807857 -0.003523418888322671 -0.00023192997556179763 0.00191787098135267 0.00074958937338206772 -0.0020369974072449483 0.00057279674025873353 -0.0035046425356995317 -0.0012006840142218965 -0.0012083867677198403 -0.0015081263147294522
leaf_weight=20 58 20 27 22 25 21 176 26 24 20 115 29 20
leaf_count=20 58 20 27 22 25 21 176 26 24 20 115 29 20
internal_value=-1.72355e-11 0.000735204 0.000532847 0.00153073 0.00277243 -0.000866045 -1.62056e-05 0.00039092 -0.00120922 -0.00141887 -0.00119215 -0.00104316 -0.00124623
internal_weight=603 375 355 126 83 43 229 202 228 204 184 49 135
internal_count=603 375 355 126 83 43 229 202 228 204 184 49 135
is_linear=0
shrinkage=0.05


Tree=75
num_leaves=13
num_cat=0
split_feature=7 15 7 1 7 7 0 4 7 14 1 4
split_gain=0.19572 0.103043 0.0869573 0.206148 0.221944 0.1219 0.112739 0.107418 0.0673013 0.137394 0.00230609 0.000673621
threshold=1124.0000000000002 388.50000000000006 1268.5000000000002 1.0000000180025095e-35 1301.5000000000002 1197.5000000000002 5.5000000000000009 3.5000000000000004 1073.0000000000002 1.0000000180025095e-35 1.5000000000000002 3.5000000000000004
decision_type=2 2 2 2 2 2 2 2 2 2 2 2
left_child=8 2 5 -4 -5 7 -7 -2 9 10 -1 -12
right_child=1 -3 3 4 -6 6 -8 -9 -10 -11 11 -13
leaf_value=-0.0017820206237956883 0.0016440746386682517 0.0042256216797977681 0.0032857707677743375 -0.0055529409077107201 -0.00010270656202919781 0.0010996095758552353 0.0056688039951647319 -0.0028829843402490953 -0.0038782312098192052 0.0028088793745669333 -0.0011530131837057453 -0.001365475096511391
leaf_weight=20 38 20 39 21 169 27 27 20 20 23 126 53
leaf_count=20 38 20 39 21 169 27 27 20 20 23 126 53
internal_value=-1.81477e-11 0.000737536 0.000532957 -2.54328e-05 -0.000705101 0.00167466 0.00338421 8.30198e-05 -0.00110021 -0.000849937 -0.00127282 -0.00121592
internal_weight=603 361 341 229 190 112 54 58 242 222 199 179
internal_count=603 361 341 229 190 112 54 58 242 222 199 179
is_linear=0
shrinkage=0.05


Tree=76
num_leaves=15
num_cat=0
split_feature=15 0 15 7 14 14 1 4 0 15 15 15 0 4
split_gain=0.181151 0.470481 0.229356 0.246073 0.121951 0.0887993 0.158629 0.216711 0.628333 0.224563 0.127603 0.122812 0.0922992 0.0292417
threshold=334.50000000000006 1.5000000000000002 344.50000000000006 1415.5000000000002 25.500000000000004 13.500000000000002 2.5000000000000004 3.5000000000000004 5.5000000000000009 309.50000000000006 277.50000000000006 251.50000000000003 5.5000000000000009 4.5000000000000009
decision_type=2 2 2 2 2 2 2 2 2 2 2 2 2 2
left_child=5 -2 -3 -4 -5 10 7 9 -9 -7 11 13 -8 -1
right_child=1 2 3 4 -6 6 12 8 -10 -11 -12 -13 -14 -15
leaf_value=-0.0012908655197397636 0.0084147452310259861 0.0042643219205395627 0.0025230354319016142 -0.00059624089975841344 -0.004774355979902941 0.0038990648019535004 0.0040014015598821319 -0.0097680731166508942 0.0026151116425171496 -0.0019794035961571022 -0.0045017232857644555 0.0030031712987693029 0.00039550760427826189 0.00055818729257831978
leaf_weight=196 21 30 39 40 31 32 35 21 20 33 25 20 36 24
leaf_count=196 21 30 39 40 31 32 35 21 20 33 25 20 36 24
internal_value=-7.18305e-12 0.00143592 0.000389095 -0.000667784 -0.00242049 -0.000523039 0.000344123 -0.00088092 -0.0037275 0.000914612 -0.00110224 -0.000748124 0.00217306 -0.00108915
internal_weight=603 161 140 110 71 442 177 106 41 65 265 240 71 220
internal_count=603 161 140 110 71 442 177 106 41 65 265 240 71 220
is_linear=0
shrinkage=0.05


Tree=77
num_leaves=13
num_cat=0
split_feature=15 0 15 15 1 0 7 14 0 0 7 4
split_gain=0.16485 0.130516 0.115382 0.13842 0.177006 0.0349468 0.114047 0.0492317 0.00175839 0.00224115 0.000566309 0.000403093
threshold=261.50000000000006 1.5000000000000002 273.50000000000006 287.50000000000006 1.0000000180025095e-35 5.5000000000000009 42.000000000000007 9.5000000000000018 6.5000000000000009 7.5000000000000009 15.500000000000002 3.5000000000000004
decision_type=2 2 2 2 2 2 2 2 2 2 2 2
left_child=5 -2 -3 -4 -5 6 10 8 -7 -10 11 -1
right_child=1 2 3 4 -6 7 -8 -9 9 -11 -12 -13
leaf_value=-0.0010648385943988195 0.0036876538629065075 0.003647368906065822 -0.0030512672954148825 0.003906170337877208 -7.5206777621823343e-06 -0.0015119201084598901 0.0029692399395918031 -0.0036084971022016057 -0.00052880160510540011 -0.0011374985761640052 -0.00087026771996170287 -0.0013091515712440015
leaf_weight=52 33 25 31 33 232 20 21 24 20 62 25 25
leaf_count=52 33 25 31 33 232 20 21 24 20 62 25 25
internal_value=1.82008e-11 0.000693351 0.000385526 0.000110032 0.000479845 -0.000985728 -0.000386204 -0.00157098 -0.00109156 -0.000989036 -0.00107703 -0.00114416
internal_weight=603 354 321 296 265 249 123 126 102 82 102 77
internal_count=603 354 321 296 265 249 123 126 102 82 102 77
is_linear=0
shrinkage=0.05


Tree=78
num_leaves=15
num_cat=0
split_feature=15 0 15 7 14 14 1 4 0 15 15 15 0 4
split_gain=0.15557 0.405496 0.207518 0.223909 0.110025 0.0719618 0.145948 0.194243 0.57167 0.205096 0.119306 0.106361 0.0802547 0.0264496
threshold=334.50000000000006 1.5000000000000002 344.50000000000006 1415.5000000000002 25.500000000000004 13.500000000000002 2.5000000000000004 3.5000000000000004 5.5000000000000009 309.50000000000006 277.50000000000006 251.50000000000003 5.5000000000000009 4.5000000000000009
decision_type=2 2 2 2 2 2 2 2 2 2 2 2 2 2
left_child=5 -2 -3 -4 -5 10 7 9 -9 -7 11 13 -8 -1
right_child=1 2 3 4 -6 6 12 8 -10 -11 -12 -13 -14 -15
leaf_value=-0.0011729069262011243 0.007809625333452243 0.0040449591306969531 0.0023972597259741563 -0.00058562117745168511 -0.0045541993883107942 0.0036729340832607708 0.003755117670765945 -0.0093358730026964279 0.0024757629213854673 -0.0019449545363331155 -0.0042932168431580068 0.0028273104445543143 0.00039271839955795765 0.00058565271707872559
leaf_weight=196 21 30 39 40 31 32 35 21 20 33 25 20 36 24
leaf_count=196 21 30 39 40 31 32 35 21 20 33 25 20 36 24
internal_value=-3.57161e-13 0.00133068 0.000358835 -0.000646472 -0.00231838 -0.000484704 0.000295928 -0.000879129 -0.0035741 0.000820775 -0.00100611 -0.0006637 0.00205024 -0.000981064
internal_weight=603 161 140 110 71 442 177 106 41 65 265 240 71 220
internal_count=603 161 140 110 71 442 177 106 41 65 265 240 71 220
is_linear=0
shrinkage=0.05


Tree=79
num_leaves=14
num_cat=0
split_feature=7 0 15 0 15 7 7 7 7 4 7 15 7
split_gain=0.148006 0.573081 0.525061 0.143978 0.232571 0.174705 0.111155 0.106698 0.179304 0.0960336 0.144833 0.0899233 0.0850146
threshold=1421.5000000000002 2.5000000000000004 355.50000000000006 3.5000000000000004 349.50000000000006 1268.5000000000002 1504.5000000000002 1364.5000000000002 1333.5000000000002 2.5000000000000004 1092.0000000000002 335.50000000000006 15.500000000000002
decision_type=2 2 2 2 2 2 2 2 2 2 2 2 2
left_child=3 -2 -3 5 7 9 -4 8 -5 12 -11 -7 -1
right_child=1 2 6 4 -6 11 -8 -9 -10 10 -12 -13 -14
leaf_value=-0.00094053969210521743 0.0086812492500504736 0.0055402101948857311 -0.0013948486298322677 -0.0003317061977537528 0.0043311190506022789 -0.0021881733375432142 -0.0063958391454070817 -0.0037360062668449247 0.0039270956708976346 -1.4899186013887325e-05 -0.0053216849034652116 -0.0068205561744980525 0.0035071030977893054
leaf_weight=22 23 24 25 292 31 22 20 20 27 36 20 20 21
leaf_count=22 23 24 25 292 31 22 20 20 27 36 20 20 21
internal_value=5.84068e-12 0.00184615 -0.000432217 -0.000332379 0.000185724 -0.00169194 -0.00361751 -0.000193353 2.87567e-05 -0.000545584 -0.00191018 -0.00439407 0.00123156
internal_weight=603 92 69 511 370 141 45 339 319 99 56 42 43
internal_count=603 92 69 511 370 141 45 339 319 99 56 42 43
is_linear=0
shrinkage=0.05


Tree=80
num_leaves=10
num_cat=0
split_feature=7 14 14 1 1 15 7 15 1
split_gain=0.144287 0.119116 0.120919 0.107235 0.0995118 0.0536448 0.131044 0.0349109 0.0315008
threshold=1518.0000000000002 22.500000000000004 21.500000000000004 3.5000000000000004 2.5000000000000004 349.50000000000006 1419.0000000000002 326.50000000000006 1.5000000000000002
decision_type=2 2 2 2 2 2 2 2 2
left_child=1 2 3 4 -1 8 -7 -5 -3
right_child=-2 5 -4 7 -6 6 -8 -9 -10
leaf_value=-0.00033232744276977467 0.0035723575770303059 -0.0012676718307193368 -0.0041973399635892184 -0.00089940554321354688 0.0017975121087926841 0.0057152739749290055 0.00045434606004634811 -0.0029208998622683186 0.0013717458355061423
leaf_weight=158 27 20 21 194 84 20 29 24 26
leaf_count=158 27 20 21 194 84 20 29 24 26
internal_value=-8.62979e-12 -0.000167454 -0.000487 -0.000317615 0.000406956 0.00145046 0.00260166 -0.00112196 0.000224173
internal_weight=603 576 481 460 242 95 49 218 46
internal_count=603 576 481 460 242 95 49 218 46
is_linear=0
shrinkage=0.05


Tree=81
num_leaves=11
num_cat=0
split_feature=15 1 4 7 15 1 15 15 7 14
split_gain=0.132161 0.187529 0.190538 0.318997 0.263042 0.148644 0.079938 0.123036 0.0408759 0.105574
threshold=287.50000000000006 1.0000000180025095e-35 1.5000000000000002 1350.5000000000002 379.00000000000006 2.5000000000000004 276.50000000000006 261.50000000000006 1073.0000000000002 1.0000000180025095e-35
decision_type=2 2 2 2 2 2 2 2 2 2
left_child=6 -2 3 -3 5 -4 7 8 9 -1
right_child=1 2 4 -5 -6 -7 -8 -9 -10 -11
leaf_value=-0.00099692590179006066 0.0040818727658621058 0.0012761971694558408 -0.00081712260631667014 -0.0058476709388196471 0.0059481545041004816 0.0021835426875280546 -0.0034994158356615422 0.002375328823373738 -0.0026381819549113001 0.0027306305466308482
leaf_weight=199 37 33 105 30 24 68 24 33 29 21
leaf_count=199 37 33 105 30 24 68 24 33 29 21
internal_value=-1.7583e-11 0.000751355 0.000277397 -0.00211612 0.00104284 0.00036233 -0.000729256 -0.000493498 -0.000873704 -0.000641114
internal_weight=603 297 260 63 197 173 306 282 249 220
internal_count=603 297 260 63 197 173 306 282 249 220
is_linear=0
shrinkage=0.05


Tree=82
num_leaves=13
num_cat=0
split_feature=15 14 0 1 0 7 15 7 7 4 0 4
split_gain=0.124905 0.105649 0.143221 0.14239 0.0984796 0.139361 0.154116 0.10813 0.198569 0.0688819 0.0616058 0.050029
threshold=388.50000000000006 22.500000000000004 3.5000000000000004 2.5000000000000004 3.5000000000000004 1124.0000000000002 317.50000000000006 1237.5000000000002 1378.5000000000002 2.5000000000000004 5.5000000000000009 2.5000000000000004
decision_type=2 2 2 2 2 2 2 2 2 2 2 2
left_child=1 4 -3 9 7 10 -7 11 -9 -4 -6 -1
right_child=-2 2 3 -5 5 6 -8 8 -10 -11 -12 -13
leaf_value=0.0008855865910076179 0.003885262082330883 0.0046303450125269588 0.00096722901904616851 0.0037203697900709122 0.00048418578645214439 0.0023757495945564621 -0.00063414517688026729 -0.0060193720116512852 1.4233313500881197e-05 -0.002716200373445948 -0.0016047711061158529 -0.001514306152239442
leaf_weight=39 20 25 22 21 50 95 77 30 25 30 120 49
leaf_count=39 20 25 22 21 50 95 77 30 25 30 120 49
internal_value=-4.48382e-12 -0.000133285 0.00136408 0.00024549 -0.000435845 2.48649e-05 0.0010283 -0.00153768 -0.00327682 -0.00115783 -0.000990372 -0.000450717
internal_weight=603 583 98 73 485 342 172 143 55 52 170 88
internal_count=603 583 98 73 485 342 172 143 55 52 170 88
is_linear=0
shrinkage=0.05


Tree=83
num_leaves=10
num_cat=0
split_feature=7 14 14 1 7 15 7 15 1
split_gain=0.115494 0.095376 0.113901 0.0874508 0.0928407 0.0448871 0.118738 0.0329288 0.0261643
threshold=1518.0000000000002 22.500000000000004 21.500000000000004 3.5000000000000004 1346.5000000000002 349.50000000000006 1419.0000000000002 326.50000000000006 1.5000000000000002
decision_type=2 2 2 2 2 2 2 2 2
left_child=1 2 3 4 -1 8 -7 -5 -3
right_child=-2 5 -4 7 -6 6 -8 -9 -10
leaf_value=-6.5819063602248212e-05 0.003196104319283256 -0.0011834312439896167 -0.0040368125740704794 -0.0007815777596125869 0.0025200541286418839 0.0053147775935940451 0.00030696374556884684 -0.0027448451941988125 0.0012220495697105296
leaf_weight=200 27 20 21 194 42 20 29 24 26
leaf_count=200 27 20 21 194 42 20 29 24 26
internal_value=1.26835e-11 -0.000149817 -0.000435753 -0.000271356 0.000382969 0.00129792 0.00235097 -0.000997717 0.000176188
internal_weight=603 576 481 460 242 95 49 218 46
internal_count=603 576 481 460 242 95 49 218 46
is_linear=0
shrinkage=0.05


Tree=84
num_leaves=12
num_cat=0
split_feature=14 1 15 1 7 7 0 7 14 0 4
split_gain=0.110182 0.0804661 0.133147 0.101077 0.180215 0.10691 0.0990851 0.196816 0.157182 0.017024 0.00134593
threshold=29.500000000000004 3.5000000000000004 375.50000000000006 2.5000000000000004 1128.5000000000002 1313.5000000000002 4.5000000000000009 1333.5000000000002 14.500000000000002 9.5000000000000018 3.5000000000000004
decision_type=2 2 2 2 2 2 2 2 2 2 2
left_child=1 2 3 5 -5 -1 8 9 10 -8 -3
right_child=-2 6 -4 4 -6 -7 7 -9 -10 -11 -12
leaf_value=0.00063105784750128494 0.003649099725298584 -0.0007578583562052718 0.0043432167707942431 -0.00094509160665508642 0.0036307668456477893 -0.0015595785664185382 -0.001284241647938163 0.0034200575626031921 -0.0055520838087735084 7.4359376524244587e-05 -0.0012119269056711348
leaf_weight=115 20 51 20 39 48 108 90 33 24 31 24
leaf_count=115 20 51 20 39 48 108 90 33 24 31 24
internal_value=-1.36759e-11 -0.000125184 0.000389151 0.00013405 0.00157952 -0.000429878 -0.000796054 -2.69291e-06 -0.00203017 -0.00093617 -0.00090316
internal_weight=603 583 330 310 87 223 253 154 99 121 75
internal_count=603 583 330 310 87 223 253 154 99 121 75
is_linear=0
shrinkage=0.05


Tree=85
num_leaves=14
num_cat=0
split_feature=7 0 15 7 0 15 7 7 7 4 4 7 7
split_gain=0.102948 0.491459 0.498432 0.119798 0.114881 0.179226 0.154878 0.106337 0.158919 0.0898705 0.081259 0.14089 0.0729972
threshold=1421.5000000000002 2.5000000000000004 355.50000000000006 1504.5000000000002 3.5000000000000004 349.50000000000006 1268.5000000000002 1364.5000000000002 1333.5000000000002 2.5000000000000004 2.5000000000000004 1092.0000000000002 15.500000000000002
decision_type=2 2 2 2 2 2 2 2 2 2 2 2 2
left_child=4 -2 -3 -4 6 7 10 8 -6 -8 12 -12 -1
right_child=1 2 3 -5 5 -7 9 -9 -10 -11 11 -13 -14
leaf_value=-0.00079029232517562129 0.0078693612903842462 0.0052488265710659713 -0.0013662001639604569 -0.0065579791832715275 -0.00026480411434022245 0.0038246437978570261 -0.006461595132714138 -0.0036838310840539637 0.0037446032778394446 -0.0018305726328187368 0.00020176713846416941 -0.0050322818476706745 0.0033310272437076837
leaf_weight=22 23 24 25 20 292 31 20 20 27 22 36 20 21
leaf_count=22 23 24 25 20 292 31 20 20 27 22 36 20 21
internal_value=5.3164e-12 0.0015397 -0.000570185 -0.00367366 -0.000277207 0.000185591 -0.00149164 -0.000147183 7.45501e-05 -0.00403582 -0.000412292 -0.00166754 0.00122245
internal_weight=603 92 69 45 511 370 141 339 319 42 99 56 43
internal_count=603 92 69 45 511 370 141 339 319 42 99 56 43
is_linear=0
shrinkage=0.05


Tree=86
num_leaves=9
num_cat=0
split_feature=7 14 14 1 7 7 14 15
split_gain=0.101352 0.0763198 0.107669 0.0704863 0.0853151 0.0424672 0.0682987 0.028364
threshold=1518.0000000000002 22.500000000000004 21.500000000000004 3.5000000000000004 1346.5000000000002 1347.5000000000002 25.500000000000004 326.50000000000006
decision_type=2 2 2 2 2 2 2 2
left_child=1 2 3 4 -1 -3 -7 -5
right_child=-2 5 -4 7 -6 6 -8 -9
leaf_value=-7.9063083023356743e-05 0.0029940320808371462 0.002832382968281982 -0.0038972936382162429 -0.00068780283915291821 0.0023997917172632051 -0.0012426038828468131 0.0019390208470458923 -0.0025099156793051709
leaf_weight=200 27 27 21 194 42 31 37 24
leaf_count=200 27 27 21 194 42 31 37 24
internal_value=-1.13182e-12 -0.000140345 -0.000396125 -0.000236289 0.000351151 0.00115471 0.000488574 -0.000888402
internal_weight=603 576 481 460 242 95 68 218
internal_count=603 576 481 460 242 95 68 218
is_linear=0
shrinkage=0.05


Tree=87
num_leaves=10
num_cat=0
split_feature=15 14 1 7 7 7 15 15 4
split_gain=0.0935582 0.0717508 0.0855982 0.253414 0.187886 0.0962544 0.0777991 0.0804847 0.0217179
threshold=388.50000000000006 13.500000000000002 1.0000000180025095e-35 1266.5000000000002 1465.0000000000002 1422.5000000000002 277.50000000000006 251.50000000000003 4.5000000000000009
decision_type=2 2 2 2 2 2 2 2 2
left_child=1 6 3 -3 5 -4 7 8 -1
right_child=-2 2 4 -5 -6 -7 -8 -9 -10
